const int8_t fc1_weights[64][784] = {
    {2, 5, 19, 4, -4, -1, 8, -4, 8, 2, 20, 16, -6, 5, 49, 36, 1, 2, 16, 8, -4, 21, 3, 2, -5, 20, 1, 7, 21, 0, 7, 2, -8, -2, 13, -1, 18, -5, 2, 24, 19, 21, 22, 65, 58, 53, -7, -2, -33, -39, -7, 5, 0, 3, 19, 8, 20, -4, -33, 37, 23, -22, 5, 29, 17, 10, -4, 8, 16, 9, -10, 4, 3, 8, -2, -23, -34, -18, -7, -7, 26, 20, 16, 18, 12, 21, 13, 35, 29, -11, -12, -39, -31, -12, -30, -35, -13, -22, -23, -20, -35, -26, -7, 22, 13, 40, 29, 5, -15, 25, -9, 17, 18, -6, 24, 41, -18, -24, -37, -44, -59, -54, -53, -29, -20, -20, 12, 11, 8, 13, 8, -19, -17, -20, -20, -17, -3, 11, 37, -17, 12, 2, 17, 12, -20, -35, -56, -37, -45, -38, -37, -10, -21, 28, 25, 14, 16, -13, -25, -38, -9, -18, -6, -21, -11, -3, 3, -14, 7, 14, 23, 27, 54, 32, 20, -21, -22, -43, -4, -1, 6, 1, -16, -9, -27, -6, 1, 5, 1, 7, 10, 7, -20, -3, -1, -5, 30, 16, 40, 54, 25, 20, 35, 16, -26, 0, 6, 0, 8, -10, -16, -19, -4, 7, 30, 6, 26, 6, 9, 12, -9, -14, 24, -4, 31, 36, 22, 11, 38, 61, 35, 28, 1, 11, 14, 11, 43, 32, 24, 24, 24, 41, 39, 37, 24, 23, 26, 38, 30, 30, 19, 22, 22, 48, 1, 31, 40, 55, 23, 12, 10, 2, -3, 28, 63, 63, 73, 37, 50, 55, 25, 20, 31, 30, 21, 14, 54, 77, 63, 31, 6, 19, 22, -19, 33, 35, 15, -13, 11, 22, 7, 27, 51, 86, 83, 68, 36, 22, 30, 29, 39, 43, 34, 44, 71, 57, 66, 30, 5, 44, 44, -15, 11, -14, 3, 5, -11, 0, -8, 5, 11, 58, 42, 37, 15, 11, 14, 23, 29, 19, 19, 72, 79, 67, 58, 37, 39, 18, 26, -8, -17, -10, 4, 4, 11, 6, -16, -20, -27, 8, 7, 12, -11, 4, 17, -6, 3, 14, 20, 38, 16, 57, 72, 14, -10, 14, 22, -25, -12, -4, 3, -10, 2, 9, 15, -23, -7, -4, 15, -9, -21, -6, -21, -2, 2, 8, 2, -5, 30, 24, 56, 5, 16, 4, 43, 1, -14, 8, -5, -11, 6, 18, 28, 2, -24, -9, 21, 9, -7, -3, 10, 12, 2, 1, 22, 26, 40, -26, 34, 29, 17, 7, 11, 11, 29, 17, 18, -2, 15, 12, 6, 13, -8, -21, -11, -27, -22, -9, 20, 15, 10, 9, -10, 10, 32, -17, 1, 14, 14, -16, -18, 4, 19, 16, 36, 2, 9, 18, 28, 25, -8, -19, -26, -11, -7, -2, -9, -9, 4, -1, -8, -7, 6, -27, 36, 25, 8, -7, -30, -5, 14, 31, 31, 24, 28, 36, 21, 12, -22, -25, 1, 14, 13, 14, -16, -17, 0, 3, 1, 5, 35, -3, -4, 40, 35, 11, 9, -28, 14, 34, 23, 14, 12, 24, 7, 11, -1, -13, -4, 9, 8, -9, -14, -12, 20, -9, -1, -27, -9, -26, 27, -18, 3, 38, 6, -39, 7, 32, 35, 8, 25, -2, -15, -22, -11, 11, -9, 4, -2, 4, -6, 4, -11, -2, -14, -32, -4, -21, 26, -28, -4, 45, -19, -45, -1, 33, 21, 10, 8, 1, -2, -19, -14, 5, -22, 15, -14, 11, -2, -18, -34, -15, -5, -26, -6, -28, 31, 18, -6, -15, -26, -40, -13, 33, 63, 22, -11, 9, -11, -10, 13, 9, -2, 5, 10, 10, -2, -3, -20, -23, -17, 12, 15, -13, 3, 21, -10, -4, -23, -21, 9, 12, 28, 19, 6, -1, 9, 12, 20, 10, 22, 6, -11, -5, 6, -2, -27, -36, -22, 22, 13, 4, -1, 2, 14, 1, -18, -18, 8, 3, 6, 3, -10, 27, 20, 8, 3, 16, -5, 19, 31, 9, 14, -4, -47, -43, -1, 5, -9, -5, -27, 6, 7, 2, 2, -2, -34, -20, -26, -3, 31, 3, 28, 23, 16, 24, 7, -3, 3, 28, 16, 0, -2, -6, -21, 5, 37, -46, -15, 15, 7, 20, -13, 18, -19, -27, 2, 24, 19, -1, -23, 2, 8, -10, -15, 2, 21, 45, 31, 32, 28, 25, 44, 7, 21, 7, 2, 6, 7, 15, 18, 7, -23, -39, -26, -22, 8, 1, -25, 6, 20, 31, 12, 22, 1, 3, 4, 48, 35, 21, 12, 18, -4, 36, 7, -3, 13, -1, 17, 17, 21, 31, -1, -6, -1, 7, 59, 40, 15, 25, 15, 14, -8, 35, 20, 13, 18, 21, 17, 29, 20, 17, 10, 9},
    {2, -3, 1, -4, 5, -3, 5, 7, -4, 0, 0, 14, 1, 18, 3, -14, 17, 17, -1, -1, 17, 17, 13, 4, 0, 20, 11, 16, -1, -1, 21, -1, 4, 15, 4, 29, 24, 15, 12, 28, 53, 38, -6, 9, 46, 67, 48, 35, 25, 26, 24, 12, 4, 19, -5, 14, 20, 12, 38, 52, 55, 26, 12, 25, 20, -4, -7, 24, -1, -25, -17, -29, -12, -18, -5, 18, 42, 42, 55, 41, 16, -1, 6, 20, -5, 19, -10, 51, 44, 34, 29, 44, 36, 16, 13, 38, 16, 23, 9, 16, 24, 32, 29, 37, 25, 5, 17, 40, 26, 19, 22, 14, 13, 8, -30, -9, 28, 66, 41, 32, 34, 9, 17, 11, 14, 13, 13, 0, 13, 11, 23, 24, 33, 13, 20, 15, 4, 3, 41, 49, 0, -5, 6, -13, 26, 33, 28, 5, 14, -9, -13, -26, -6, 13, 6, 7, 5, 7, 3, 35, 22, 24, 17, 12, 15, 35, 46, 35, 13, 32, 3, -16, 28, 38, 10, 7, 16, -12, -15, -19, -32, -17, -1, 0, 15, 27, 37, 19, 17, 11, 22, 10, -4, 16, 4, 11, 7, 10, -17, -8, -17, -7, -4, -8, -22, -14, -3, -19, 0, 1, -11, 13, 22, 22, 25, 50, 24, 17, 11, 16, 15, 18, 3, 19, 37, -14, -24, -30, 18, 7, 6, -10, 0, 7, 10, 7, -1, -2, 8, -6, 17, 33, 29, 20, 26, 31, 35, 22, 8, -17, 2, 20, 16, -22, -6, 1, 9, -13, 8, 5, 16, 12, 18, 6, 10, 15, 8, -6, 14, 7, 2, 2, -2, 15, 6, 7, 5, -28, -23, -25, 7, -14, 2, -23, 23, -14, -1, 21, 15, 3, 6, 9, -2, 14, 39, 14, 21, 14, 21, 9, 19, 27, 22, 25, -8, -65, -26, -12, 9, 3, -14, -13, -23, -10, 4, 20, 6, 16, 30, 1, 8, 25, 52, 12, 20, 17, 28, -13, 13, 13, 26, 32, -5, -64, -10, 1, -7, -9, -22, -32, 8, 26, 28, 16, -8, 27, 25, -4, -6, 24, 48, 22, 8, 28, -5, 0, -23, 4, 27, 62, 28, -48, -37, -5, -13, 21, -22, -30, 10, 17, 28, 4, 3, 18, 4, 0, -1, 23, 33, 12, -6, -7, -2, 8, -13, -6, 16, 46, 0, -35, -41, -3, -4, 19, -1, -57, -16, 33, 34, -8, -6, 23, 3, -2, 6, 32, 21, 21, -3, -4, -1, -7, 3, 18, 10, 19, -4, -33, -45, 1, -1, 27, -19, -55, -6, 21, 2, 22, 16, 6, 1, 7, -2, -2, 2, -3, 0, 7, 6, 21, 4, -3, 12, 27, 10, -1, -39, -4, 10, 14, 32, -45, -6, 48, 21, 11, 24, 28, 22, 3, -11, -1, -15, -9, 4, 11, 10, -6, -3, -14, 13, 19, -1, -18, -37, -17, 5, 36, -7, -40, -14, 7, 12, 14, 4, 3, 25, 8, -8, -28, -18, -9, 6, 16, 11, 19, 3, -23, 14, 19, -19, -41, -6, 29, 27, 24, 3, -52, -28, 3, -1, 0, 18, 28, 32, 12, 3, -5, -21, -8, 19, 22, 22, 5, -13, -12, -18, -4, -50, -16, 4, -4, 10, 25, 0, -32, -25, 29, -2, -5, 19, 6, 34, 28, 17, -4, 3, -1, 12, 26, 28, 27, 10, 2, -15, -15, -12, -12, 0, 5, 20, 29, -9, -27, 5, 13, 11, 15, 0, 3, 42, 31, 31, 14, 8, -13, 7, 16, 12, 20, -3, -30, -42, -48, -23, 21, -4, -21, -28, 8, -29, -12, -8, -7, -8, 2, -3, 10, 20, 39, 30, 40, 23, -5, 21, 37, 22, -3, -7, -55, -77, -64, -32, 10, 21, 26, -19, 34, -18, -17, -21, 2, -5, -19, -2, 7, 6, 13, 28, 47, 31, 30, 23, 18, -1, -34, -62, -68, -53, -3, 2, 17, 12, 52, 18, 20, 23, 10, -19, 4, -9, 11, -9, -13, -18, -4, 8, 18, 32, 18, -5, -5, -40, -65, -60, -64, -38, 12, 27, -6, -26, 12, 1, 6, 11, 52, 44, 54, 6, 9, 7, -5, 13, 12, 8, 23, -3, 26, 10, -16, -25, -32, -34, -35, -19, -3, -10, -11, -3, 0, 9, 18, 45, -5, 17, 40, 30, 30, 49, 11, 21, 12, 23, -7, 8, -1, 5, 2, 6, -4, 16, -14, -2, -2, 10, 8, -5, 10, -1, 11, -4, 20, -8, 41, 57, 55, 35, 23, 22, 58, 40, 12, 61, 34, 2, 40, 39, 28, 33, 17, -3, 2, 3, -11, 11, 19, 14, 15, 21, 20, -2, -7, 34, 37, 20, 23, 3, 35, 51, 20, 45, 36, 21, 18, 14, 21, 16, 5, -7, -7, 20, 15, 0, 21},
    {19, 3, 7, 17, 10, -1, -3, 17, 11, 10, 3, -2, 16, 5, 19, 15, 15, -4, 16, 0, 17, 20, 13, 4, -5, 8, 4, -2, 12, -4, 5, 15, -2, 11, 4, -1, 3, 8, 4, 20, 22, 12, 15, 14, 15, 10, -30, -5, -19, -1, -1, 11, 7, 4, 9, 10, 14, 12, -42, 23, 18, -16, 9, 8, 0, -17, -20, 21, -4, 26, -22, -11, 11, -16, 12, 6, -3, 8, 4, -10, 9, 3, 13, 14, 18, -5, 19, 25, 29, 4, -14, 1, 16, 19, 11, 15, 67, 25, 35, 49, 32, 16, 10, 22, 41, -3, 6, -7, 21, 25, 25, 2, -1, 5, 9, 22, 6, 35, 24, 27, -7, 18, 24, 22, 13, 5, 4, 31, 0, -6, 10, -7, -5, 4, 12, 21, 22, 41, 36, -9, 5, 15, -1, 23, 25, 54, 57, 8, 13, 10, -14, -8, -26, -1, 14, 6, 2, 3, 17, 0, 1, 5, 12, 33, 40, 35, 5, 12, -3, 26, 20, 51, 44, 63, 23, 7, 0, 15, 8, -12, -16, -6, -2, -7, -17, -7, 7, -20, -8, 18, 0, -1, 23, 59, 32, 24, 48, 38, 17, 41, 1, 25, 26, 14, 26, 14, -4, 5, 16, 7, -1, -5, -9, 3, 12, -10, 0, 1, -2, 6, 10, 34, 29, 10, 44, 27, -7, 16, 12, -2, 4, 34, 23, 11, -1, -6, 39, 2, 22, 25, -4, -16, 2, -18, 6, 2, 16, 18, 15, 11, 11, 29, 12, 24, -2, 13, 35, 6, -5, 13, 18, 23, 16, 13, 40, 52, 55, 28, 7, 0, 7, 13, -5, 2, 17, 31, 33, 34, -19, 16, 5, 30, 46, 7, 9, 8, 12, 16, 39, 17, 19, 24, 49, 57, 34, 3, -4, 3, 31, 19, 32, 29, 16, 14, 26, 19, 37, 8, 16, 28, 45, 46, 48, 30, 26, 19, 13, 14, 22, 50, 51, 53, 3, -15, -18, 11, 45, 24, 6, 12, 2, 1, 4, 56, 53, -4, 9, 8, 46, 20, 26, 19, 32, 47, 46, 50, 56, 52, 45, -1, -13, -14, -15, 30, 17, -11, 3, -21, -12, -45, 5, 27, 56, 20, 57, 7, 45, 47, 7, 37, 36, 32, 33, 47, 29, 0, -7, -31, -25, -20, -11, 7, 3, -11, -10, -17, -14, -26, 3, 14, 46, 13, 17, 27, 36, 23, 1, 11, -1, 25, 14, -1, -11, -29, -43, -50, -16, -13, -22, -14, -11, -20, -11, -17, -7, 26, 47, 2, 17, 14, 7, 28, 7, 10, -4, 4, 8, 5, -19, -11, -23, -45, -32, -28, -28, -15, -5, 6, -10, -1, 13, 4, 7, 14, 53, 2, 48, 41, 18, 39, 51, 8, -4, -21, -40, -39, -47, -30, -39, -31, -29, -31, -6, 13, -7, 1, -9, 20, 23, 28, 21, 28, 47, 18, 76, 43, 17, 26, 33, 14, 15, -13, -39, -47, -58, -36, -19, -23, -25, -33, -13, 6, 17, 24, 19, 11, 32, 16, 35, 20, 6, 60, 56, 21, 35, 21, 17, 16, 14, -2, -19, -51, -23, -36, -25, -24, -56, -19, -5, 19, 13, 28, -1, 9, 2, 33, 35, 39, 28, 18, 30, 11, 32, 12, 25, 24, 17, 13, -4, 7, 2, -10, -17, -17, 0, 4, 21, 35, 31, 11, 1, -6, 14, 22, 21, 34, 27, 28, 21, -20, -5, 21, 19, 24, 27, 4, 28, 33, 46, 21, 26, 39, 26, 20, 30, 45, 9, 12, 12, 7, -10, 0, 44, 30, 10, -4, 8, 39, 23, 23, 55, 34, 10, 2, 12, 43, 37, 20, 22, 41, 30, 29, 23, 14, 25, 11, 24, -1, 1, -6, 48, 28, 8, 9, 4, 30, 14, 19, 20, 6, 26, 4, 11, 16, 10, 44, 39, 16, 22, 11, -4, 24, 2, 39, 38, 3, -10, -4, 22, 4, -2, 6, 8, 20, 11, 17, 21, 13, 13, 14, 15, 23, 13, 25, 35, 29, 5, -14, -7, 18, 23, 34, 17, 11, -14, -11, -13, -9, 3, 17, 26, 17, -3, 12, 40, 55, 36, 35, 5, 16, 20, 14, 3, 1, 8, 17, 19, 27, 20, 57, 24, 9, -37, 5, 4, -16, 22, 12, 34, 14, 4, 14, -4, 27, 17, 20, 17, 17, -3, 16, -14, 24, 20, 20, -1, 23, 18, 23, 41, 36, 4, 45, 55, 27, 29, -7, 27, 17, -1, 13, 6, -4, -29, -7, -18, -23, -19, -12, 1, 20, 16, 4, 2, 18, 12, 6, 5, 56, 42, 37, 64, 26, -16, 27, -5, 21, 16, 4, 0, 0, 18, 11, 28, 5, 12, 19, -5, 4, -1, 15, 0, 7, 4, 33, 18, 7, 13, 55, 48, 38, 1, 11, 20, 21},
    {13, 14, 16, 17, 7, -4, 19, 3, -2, 16, 6, 2, -7, -4, -32, -15, -5, 12, 5, 13, 20, 17, 14, 16, 11, 8, 12, -4, -4, 2, -1, 20, 3, -4, -14, -14, 5, -11, 8, -1, 3, 6, 23, 11, -12, -2, -11, 4, -7, -13, 4, 13, 19, -5, 20, 13, -5, -1, -29, 30, -3, -11, 2, -5, -16, -37, -2, -11, 0, 40, 4, 5, 12, 13, -34, -10, -18, -4, 8, -3, -14, -8, -2, 10, 5, 15, 18, -10, -47, 10, 2, 35, 4, -5, -11, -28, 6, 33, 26, 9, -20, -23, -26, -19, 5, -17, -41, -34, -19, -48, 1, 17, 17, 19, 30, 12, 37, 53, 34, 4, 44, 46, 33, 8, -5, 26, 18, 7, 15, 2, -5, 18, 26, 29, 54, -1, -44, -56, -30, -7, 11, -2, 10, -18, 28, 68, 48, 16, 28, 16, 30, -10, -2, 1, 1, 23, 3, 17, 29, 20, 30, 34, 61, 19, -3, -48, -20, 3, 20, 13, -5, 36, 36, 31, 9, 3, -15, 6, 4, -17, -22, -21, -6, 23, 31, 34, 24, 25, 42, 57, 40, -9, -19, -14, -12, 10, -18, 43, -5, 54, 36, 18, 30, 21, -32, 6, 2, -13, -23, -16, -1, 27, 34, 43, 13, 41, 25, 21, 7, 10, -49, -66, -14, -9, 52, 24, 8, 36, 37, 1, 8, 5, -8, 8, 21, -22, -12, -14, 43, 49, 55, 43, 20, 2, 25, -6, 14, -16, -60, -86, -23, -9, 28, 13, 26, 30, 33, 10, 4, 8, 16, 16, -16, -28, -25, 3, 37, 40, 40, 14, -10, 3, 12, -18, -3, -8, -26, -28, -16, -6, 17, 13, 51, 36, 22, 9, 17, 26, 9, 20, -5, -24, -28, 17, 39, 27, 32, 20, 0, 4, 2, -25, -12, -12, 6, 32, -40, 22, 14, 15, 47, 62, 21, 1, 18, 6, 24, 7, -17, -39, -22, 12, 32, 35, 12, 13, 0, 10, -17, -10, -13, 4, 7, 29, -24, 19, 22, 22, 56, 36, -6, 14, 48, 12, 17, 20, -8, -30, -11, 17, 26, 11, -10, -18, 4, -34, -27, -50, -24, -19, 45, 53, 10, 39, 34, 19, 39, 38, -26, 25, 21, -4, -3, -4, -25, -22, -5, 17, 20, 18, -8, 9, 5, -41, -28, -16, -17, -8, 30, 54, 43, -11, 5, 24, 62, 30, 3, 14, 3, 16, 14, -10, -25, -17, -12, 17, 37, 11, -16, 5, -17, -13, 3, -5, -11, 23, 46, 53, 12, -12, -5, 20, 71, 14, 2, 21, 8, 1, 13, -9, -33, -38, -8, 29, 24, 17, 6, -9, -8, -7, 25, 16, 18, 44, 23, -1, 39, 5, 29, 35, 51, 25, 22, 33, -1, 36, 7, 3, -28, -6, 10, 24, 43, 11, -5, -10, 2, 20, 15, 24, -3, 26, 37, -2, 46, 17, 3, 52, 37, 30, 36, 21, -1, 19, -19, -6, -13, -12, 19, 29, 46, 22, 9, 18, 0, 5, 8, 28, 32, 9, 21, -13, 40, 3, 1, 30, 42, 51, 10, 2, -6, 1, 6, 13, -18, -12, 3, 17, 41, 50, 18, 11, 2, 4, 15, 16, 3, 10, 5, 31, 16, 7, 48, 38, 8, 26, 26, 3, -2, 37, 20, 28, -26, -24, -27, 24, 21, 53, 38, 31, 31, 26, 35, 11, 2, 1, 21, 51, 29, 27, 19, 41, -17, 2, 2, 2, 9, 56, 49, 24, -2, -15, -11, 17, 36, 54, 56, 47, 48, 23, 48, 40, 4, -7, 2, 2, 17, 20, 31, 11, 17, 20, -3, 3, 15, 39, 35, -12, 0, -21, -33, -1, 24, 32, 28, 17, 47, 26, 33, 17, 27, -42, -8, 21, 17, 1, 23, 40, 1, 18, 33, 59, 47, 17, 22, 6, -5, -6, -23, -22, 16, 26, 19, 27, 20, 37, 26, 50, 19, -24, -54, -3, 47, -2, -3, 13, 52, 14, 26, 65, 85, 54, 11, 30, 23, 7, 11, -2, 17, 10, 7, 28, 15, 12, -6, 0, -25, -64, -29, -8, 32, 17, 13, -2, 24, 16, 46, 38, 60, 64, 31, 31, 13, 7, -13, 11, 5, 2, -1, 20, -3, 5, 5, 2, -45, -34, -37, 30, 26, 17, 19, -2, -1, -8, 2, -17, 3, 20, 42, 30, -6, -8, 29, 14, -4, -27, -21, -18, 20, 2, -23, -54, -29, 6, -3, -8, 26, 3, 3, -3, 9, -7, 5, -18, -23, 12, -24, -41, -18, -20, -82, -51, -58, -45, -18, -19, -9, 12, -10, -23, -37, -12, 7, 5, 15, 4, -3, -1, 0, -5, 13, 20, -4, -9, 13, -6, 4, -13, -26, -13, -19, -51, -18, 11, -3, -18, -9, -21, -15, 12, -5, 17, 8, 18},
    {11, 19, 1, -3, 6, 8, 6, 5, 7, 13, 6, 6, -4, -5, -5, -17, 2, 19, 0, 9, 21, 9, 15, 15, -3, 17, 0, 1, 7, 14, 4, 20, -18, 13, -5, -7, -21, -9, -14, -7, 2, -19, -5, -4, -11, 3, 3, -12, 9, -22, 3, 2, 16, 12, 16, -5, 10, 1, -13, -16, -42, 16, -14, -12, -10, -10, -33, -13, -44, -40, -26, -14, -1, 15, 22, 1, -19, -9, -3, -16, 5, -7, 13, 16, 16, -3, 14, -16, 0, -4, -36, -28, -58, -50, -22, 2, -50, -62, -15, -35, -5, 24, 32, 26, 47, 19, 22, -3, -9, 4, -1, 5, 14, 1, 25, 27, 19, -29, -40, -11, -35, -39, 1, 8, 20, 9, -9, 20, 21, 39, 45, 27, 23, 35, 36, 24, 33, 30, 0, -24, 12, 9, 15, 22, -12, -13, -4, 14, 28, 29, 9, -6, -10, -31, -23, -8, 4, 33, 1, 13, 40, 9, 15, 9, 11, 22, -16, 17, 10, 13, 57, 9, 5, 24, 20, 17, 35, 5, 11, -18, -31, -29, -14, -6, -2, 4, -3, 3, 7, 1, 25, 10, -18, 20, 28, 25, 46, 14, 45, 29, 4, 26, 25, 38, 11, 31, 18, 15, -17, -31, -17, -6, 3, 40, 34, 25, 21, -4, 18, -9, -12, 18, 36, 33, -6, 20, 66, 4, -4, 32, 27, 36, -5, 8, 16, 17, -3, -25, -35, -5, 32, 27, 24, 3, 21, 21, 21, 4, 20, 35, 35, -2, 19, 24, 36, -30, 12, 13, 8, 13, 13, 16, 18, 22, 23, -8, -9, 11, 7, 11, 20, 11, 10, 11, 12, 12, 14, 32, 20, 41, 10, 23, 58, 12, 10, 5, -5, -11, 13, 9, 26, 49, 25, 11, -9, -1, -2, -10, -4, 1, 1, 22, 16, -25, 21, 43, 33, 2, 1, 19, 81, 17, -4, 11, 7, 8, 6, 16, 34, 32, 30, 3, -22, 12, 3, -1, -6, -5, -15, 12, 21, 15, -7, 42, 38, -6, 40, 23, 63, 2, 17, 10, 6, 31, 7, 12, 28, 34, 35, -5, -23, 6, 4, 9, -6, 21, 28, 6, 14, 17, -23, 3, 22, -21, -30, 16, 40, -7, 8, 25, 14, 35, -4, 7, 37, 28, 11, -34, -5, 14, 16, -2, -2, 12, 48, 44, 26, -5, 8, -9, -30, -29, 30, 17, 61, 12, 21, 33, 24, 28, 25, 32, 34, 9, 9, -3, 15, 16, 16, 23, 3, 21, 38, 33, 44, 43, 31, -54, -48, -30, 8, 15, 45, 10, 4, 18, 25, 14, 28, 42, 35, 41, 17, 8, 1, 26, 12, 16, 23, 17, 9, 30, 46, 46, 25, -30, -14, -6, 12, 11, 44, 2, -16, -1, 11, 16, 19, 25, 42, 22, 38, 18, 10, 15, -4, 35, 44, 25, 17, 38, 35, 12, 15, -17, -35, -10, 13, 3, 34, -24, -23, 11, 20, 16, 12, 16, 35, 19, -14, -4, 10, 12, 14, 30, 30, 14, -7, 12, -4, 23, 4, -39, -43, -16, 12, 20, 36, 13, -17, -17, 0, 11, -24, -15, -19, -36, -31, -29, 3, -5, 4, 8, 8, -14, 18, 13, -24, -12, -13, -21, 18, 17, -9, 36, 32, 25, 10, -13, -11, -28, -55, -56, -71, -44, -60, -49, -11, -16, -10, 0, -14, 0, -9, -21, -16, -26, 8, -37, -18, 14, 19, 5, 17, 6, -19, -52, -40, -42, -64, -57, -55, -53, -38, 6, 12, -7, 2, 11, 5, -9, -1, -9, 3, -10, 12, -13, -2, 36, -4, 9, 3, -6, -2, -39, -34, -29, -16, -26, -17, 7, 12, 18, 2, 10, -7, 11, 3, 3, -5, 0, 18, 16, -4, -22, -2, 13, -6, 17, 12, 0, -11, -29, -10, -18, -17, -22, 16, 19, 18, 31, 5, 5, 0, 7, -7, -3, -13, -4, -17, -1, 3, -4, 43, 3, 4, -4, 34, 42, 25, -12, 22, 3, -11, 8, 36, 45, 45, 31, 27, 11, 26, 21, 2, -3, -7, -5, -17, -19, 19, -15, 44, -4, -1, -1, 21, 49, 14, -12, 4, -2, 2, 14, 17, 24, 31, 33, 20, 1, 10, 16, 8, 1, -6, -3, -11, -10, 5, 8, -10, -3, 18, 5, -8, 23, 18, -35, 10, 2, 15, 20, 32, 41, 18, 32, 20, 4, 14, 7, 17, 13, 24, 25, 58, 22, 27, 27, 4, 8, 5, 21, -1, 6, 13, -31, -25, 1, -9, 8, 1, 1, -10, 6, 5, 11, 5, -27, -9, 34, 1, 11, 28, 25, -7, 12, 10, -4, 9, 21, -2, 16, 10, 16, 2, 0, 5, 14, -14, -5, -5, -6, 5, -5, 5, 20, -1, 4, 35, 22, 34, 48, 8, -4, -5, 15},
    {21, -1, 14, 8, 16, 7, 10, -1, 12, 8, -3, -4, 14, 6, 18, 28, 5, -1, 1, 14, 4, 1, 10, 0, -4, 12, 12, 3, 5, 18, 7, 13, 4, 28, 16, 17, 25, 18, 14, 14, 18, 32, -28, -28, 22, 20, 23, 23, 9, 19, 19, 8, 20, 15, 9, 9, 3, 2, 16, 11, 43, 33, 16, 8, 38, 59, 63, 40, 34, 13, 55, 2, 11, 45, 60, 46, 32, 34, 17, 14, 13, 6, 12, 19, -2, 21, -16, -12, 6, 1, 16, -6, 4, 20, 46, 26, 2, 17, 24, 12, 15, 18, 20, 0, 7, 31, 47, 57, 43, 43, 51, 15, 11, 8, -20, -44, -2, -7, 10, 12, 7, 41, 33, 15, 11, 24, 20, 3, 13, 41, 16, 11, 20, 19, 26, 37, 50, 65, 40, 36, 20, 8, -25, 4, 18, -30, -12, -2, 17, 20, 37, 41, 27, 14, 32, 3, 24, 29, 12, 19, 14, 30, 9, 1, 3, 67, 74, 26, 16, 17, 24, 30, -3, -11, 0, 19, -13, -11, 8, -6, 17, -2, 11, 19, 14, 3, 23, 23, 25, 22, 36, 23, 36, 72, 13, 16, -21, 0, 19, 14, -15, 13, 7, 6, 17, 17, 8, 9, 19, 31, 2, 24, 15, 17, 19, 29, 6, 29, 33, 26, 55, 62, -13, 23, 26, 1, -8, -28, -2, 14, 12, 6, 5, 11, 11, 14, 33, 27, 12, -8, -5, -4, -2, -10, -3, 3, 12, 49, 66, 26, 13, 9, 19, -2, 7, -34, 3, 31, 3, -3, 11, 17, 9, 30, 26, 8, -20, -11, -22, -3, 6, -17, -5, 26, -6, 40, 53, 36, 6, -14, 13, -3, 9, -32, 12, 28, 4, 6, 11, 24, 43, 29, 10, -12, -7, -13, -8, -3, -1, -7, -18, -6, 1, -8, 32, -32, 2, -31, 22, 25, 20, -42, -15, 18, 32, 21, 30, 42, 35, 12, 2, -31, 2, 9, 21, -3, 7, -2, -1, -5, -21, 2, 50, 13, 25, -9, -24, 6, 10, 12, -5, 11, 3, 14, 42, 25, 22, 25, -6, -20, -14, 8, -7, -4, 18, 28, 19, 27, -12, -35, 42, -17, 6, -16, -33, 23, 9, 20, -26, 10, 6, -8, 19, 8, 5, 7, -32, -7, -10, 0, -15, -3, 11, 21, 26, 16, 25, 10, 45, 52, 60, 12, 18, -8, -15, -7, -11, 24, 20, 30, -5, -25, -14, -9, -38, -8, 5, -19, -7, 0, 31, 6, 2, -6, -15, 27, 55, 92, 68, 11, 12, -7, -12, 13, 13, 33, 49, 47, 36, 5, -15, -26, -30, -19, -25, -7, 2, 11, 19, 27, 18, -8, -6, 12, 63, 84, 10, 24, 2, -11, -12, 31, 22, 47, 65, 54, 74, 42, 9, 0, -3, -6, -22, 7, 5, 38, 33, 28, 24, 2, 30, 57, 70, 100, 62, 38, 13, -24, -4, 24, 20, 52, 94, 94, 127, 116, 85, 51, 41, 4, 7, 3, 41, 54, 31, 24, 42, 3, 29, 31, 54, 18, -6, 29, -2, -12, -10, -18, 36, 50, 46, 90, 98, 100, 88, 77, 61, 34, 22, 16, 23, 25, 37, 15, 13, 0, 20, 51, 88, 10, -20, -18, -13, -2, 16, -15, 14, 22, 17, 20, 28, 49, 55, 69, 39, 42, 20, 19, 18, 16, 21, 4, 2, 0, 11, 26, 30, 0, -9, -5, 21, 23, 39, -8, 23, 14, -26, -4, -25, -16, 21, 14, 29, 27, 0, 29, 25, -5, -8, 13, 25, 28, 11, 20, 7, -19, -7, -8, -18, 1, -4, -10, 14, -24, -23, -20, -22, -15, -20, 7, 19, 32, 14, 14, 29, 27, 5, 23, 5, 11, 16, 32, 16, 24, 9, 15, -6, -6, 7, -22, -31, -24, -37, -30, -21, -31, -6, -5, 6, 27, 42, 41, 38, 3, 9, 8, 8, 29, 18, 36, 69, 50, -3, 17, 16, 10, 27, -5, -7, -30, 8, -1, -3, -3, -11, 18, 19, 24, 21, 34, 45, 11, 8, 28, 31, 25, 55, 57, 17, 25, -21, 20, 5, 18, -4, -23, -46, -30, 6, 6, 16, 8, -6, 26, 35, 24, 42, 53, 48, 12, 28, 43, 30, 33, 52, -2, 13, 2, -17, 13, 2, 3, 0, 31, 10, -43, 30, 13, -25, -18, -4, 15, 14, 13, 32, 50, 40, 43, 31, 29, 2, 14, 17, 23, 18, -7, 19, 8, -3, -5, 1, 7, 12, -17, -35, -9, -34, -50, -47, -33, 9, 6, -17, -18, -33, 6, 8, 16, -1, -3, -3, -6, -6, 14, 18, 8, 8, -5, 17, 16, 1, 14, -8, -4, -6, -6, 35, 27, -4, 7, -21, -32, -5, 2, 5, -11, -6, -17, -4, -11, -1, -4, 21, 15},
    {5, 5, 1, 12, 13, -2, -1, 1, 3, 15, 6, 6, -8, -8, -42, -42, 10, 4, 3, 18, 12, 8, 11, -4, 10, 21, 5, -5, 12, 12, 9, 2, -31, -33, 3, -20, -25, -11, -10, -5, -26, 15, 24, 4, -25, -29, -36, -20, -33, 2, -5, 9, 6, 11, 11, 3, -3, -1, -18, 26, -15, 8, 13, -5, -20, 2, -13, -46, -2, 14, -17, -27, -5, 8, 14, -2, -25, -30, -38, -24, -17, -5, 9, 3, 8, 1, 19, 9, 21, -21, -44, -44, -49, -58, -43, -42, -36, -53, -32, -10, -20, -3, 7, 18, 17, -3, -4, -42, -44, 5, -21, 4, -2, -6, 33, 28, 7, -30, -46, -3, -34, -47, -20, 24, 34, 30, 42, 41, 26, 37, 44, 14, 19, 3, 8, -26, 21, -6, 0, -32, 8, 2, 25, -2, -36, -34, -34, -16, -31, -11, -19, 14, 28, 40, 39, 25, 31, 36, 26, 12, 22, 18, 7, 7, 31, 15, -28, -14, 21, 6, -21, -20, -44, -5, -17, -23, -3, -17, 7, 7, 14, 38, 19, 21, 18, 34, 32, 20, 13, -7, 6, 51, 40, 13, 19, 8, -21, -4, -30, -38, -69, -35, -14, -18, -13, -10, -16, -10, 12, 0, 1, 33, 45, 17, 12, 9, -6, 16, 46, 56, 54, 59, 18, 18, -14, -5, -28, -7, -48, -2, 38, 4, -15, -26, -32, -14, 2, 6, 22, 16, 8, -3, 6, 4, 23, 36, 27, 54, 115, 78, 45, 15, -1, -19, -19, -5, -33, -18, 19, 2, 2, -3, 5, 0, 6, 13, 10, 7, 7, 2, 14, 21, 37, 48, 13, 34, 93, 64, 4, -29, -7, 3, -15, -6, -14, 10, 37, 21, 15, 22, 18, 45, 64, 41, 30, 21, 9, 20, 22, 43, 18, 34, 27, 21, 32, 37, 5, 15, 0, 0, -19, 14, 12, 43, 63, 59, 52, 56, 76, 46, 60, 52, 15, 16, 25, 37, 33, 22, 21, 5, 9, 2, 37, 33, 83, 8, 5, -11, -11, 44, 45, 82, 102, 103, 70, 89, 72, 38, 43, 9, 11, 29, 13, 18, 16, 33, 15, 23, 18, 17, -21, -11, 52, -45, 0, -1, 2, 47, 96, 78, 91, 73, 45, 62, 16, 18, 10, -14, 13, 18, 13, 7, 18, -3, 7, 10, -9, -27, -25, 0, 18, -14, -1, 20, -9, 41, 90, 38, 37, 9, 0, 14, -12, -13, -26, -18, 6, 22, 16, 27, 5, 3, 0, -3, -18, -25, -24, -7, -27, -9, -13, 21, -5, 18, 44, 20, -3, -16, 14, 1, -7, -8, -20, -19, 12, 32, 15, 20, 15, -12, -4, -36, -16, -6, -10, -14, -10, -4, -4, 17, -27, -15, -6, 8, -10, -33, -12, -15, -15, -7, 5, 4, 19, 36, 34, 36, 26, -3, 3, -27, -5, -16, -25, -25, -9, 2, -3, 17, -35, -6, -15, -7, 15, -9, 17, -5, 9, 9, 0, 4, 20, 32, 22, 26, -3, -2, -7, -21, -9, -36, -13, -37, -4, 7, -22, 8, 5, -3, -2, 25, 43, 16, 20, 12, 17, 37, 0, 16, 12, 25, 11, -10, -18, 2, -5, -3, -23, -32, 3, -40, -7, -33, 5, 37, -1, 12, -4, 10, 27, 6, 37, 19, 16, 21, 9, 1, 11, -1, -9, -13, -31, -12, 15, -8, -16, -15, 34, -18, -1, -32, -3, 43, 6, -29, -9, 0, 32, 22, 11, 14, 17, 8, -12, -20, -25, -5, -2, -1, -13, 23, 12, -2, 8, 33, 49, 31, 3, 14, 1, -23, -18, -42, 19, 28, 7, 8, 17, 10, 7, -6, -13, 6, -22, -3, -2, -2, 19, 18, 46, 33, 43, 32, 60, 14, -8, 2, 8, -13, -38, -8, -15, 11, 11, 12, 20, 8, 7, 15, 3, 13, 26, 2, 20, 14, 13, 21, 37, 27, 30, 37, 63, 15, 24, 12, 16, 16, -2, 13, -26, -3, -8, -15, -1, 3, 30, 19, 16, 12, 19, 24, 33, 18, 2, 7, 52, 39, 22, 40, 39, 32, -5, 14, 16, 17, -21, 15, -32, 15, -8, -19, -22, -39, 5, -29, -33, -24, -10, 22, 16, 7, 26, 32, 31, 29, 25, 24, 7, -33, -20, 20, 13, 8, 17, 20, 8, 28, 20, -35, -38, -15, 8, 4, -23, 3, -4, 4, 0, 15, 47, 23, 22, 42, 34, 21, 2, 2, -10, 19, 11, 10, 5, 17, 30, 46, 53, -13, 5, 16, 19, 28, 23, 15, 7, -10, 18, 25, -8, -5, 24, 40, 24, 14, 14, -8, 19, 0, 3, 18, 17, 0, -5, 11, -2, 5, 8, 2, -7, 11, 5, 13, 24, -16, -11, -26, 4, 40, 18, 12, 25, 16, 17, 21, 15, 9},
    {-2, 13, 20, 2, 16, 13, 16, 16, 15, -2, 12, 10, 24, 25, 10, 9, -2, 6, 3, 12, 17, 15, 18, 18, 3, 8, -1, 3, 1, 18, -4, 15, 38, 29, 27, 36, 16, 29, 38, 45, 42, 40, 18, 41, 49, 44, 47, 40, 27, 31, 17, 26, 18, -1, -3, 21, 21, 11, 50, 14, 11, 9, 22, 37, 54, 50, 48, 54, 19, 3, 30, 46, 46, 56, 88, 46, 61, 35, 46, 50, 36, 57, -1, 2, -3, 4, 17, 39, 15, 46, 56, 71, 83, 81, 39, 38, 44, 53, 37, 43, 61, 46, 61, 16, 0, 14, 33, 43, 41, -4, 13, 20, -1, 24, 23, 17, 17, 31, 35, 61, 74, 72, 66, 53, 28, 42, 35, 44, 39, 24, 36, 32, 19, 12, 24, 14, -35, 0, 28, 61, 20, 8, 41, 16, 50, 20, 16, 36, -2, 5, 14, 7, -18, 10, 11, 6, 14, 38, 63, 72, 53, 39, 36, 22, 32, 38, 63, 46, 5, 29, -7, 18, 32, 5, 20, 24, -6, -14, 7, 4, -1, 2, -16, -10, 2, 2, 10, -4, -6, -15, -6, 0, 28, 21, 10, 27, -35, 10, -13, -15, 54, 34, 11, 10, 12, 0, -1, 11, 1, 2, 16, 6, 4, -17, -4, 2, -16, -35, -6, -26, 37, 47, 20, 32, 12, 36, -31, -1, 33, 25, 0, 13, 1, -22, 0, -17, 8, 26, -4, -13, -31, -8, -26, -3, -22, -9, -4, -15, 4, 20, 27, 23, -18, -10, -7, -14, 33, 14, 2, 20, 7, 16, 12, 9, 6, -7, -20, -41, -19, -27, -24, 10, -15, -5, 9, -21, 8, 10, -7, -30, -11, -6, -14, -5, 30, 26, 39, 38, 15, 9, 5, 13, 0, -7, -34, -51, -17, -4, 4, -1, 0, 18, -3, 24, 2, -21, -28, -13, -7, -11, -32, 24, 51, 35, 13, 26, 2, -13, 12, -11, -8, 1, -7, -44, -18, 5, 2, 24, 16, -2, -5, 30, 54, 13, 21, 8, -46, 7, -33, 14, 53, 49, 13, 18, 10, 9, 6, 8, 1, 6, 5, -19, 0, 11, -2, -2, 5, 12, 6, 42, 71, 23, -21, 22, 36, -6, -10, 30, 29, 33, 17, 18, -11, 13, -6, -15, 9, 28, 22, 5, -12, -2, 4, 5, 2, -1, 7, 48, 49, 25, 53, 49, 30, -3, -1, 23, -10, -16, 0, -3, -19, -16, -14, 7, 18, 39, 19, 22, 0, -17, -1, -11, -13, 18, 8, 47, 82, 45, 70, 33, 24, -7, 26, 14, -33, -29, 6, -8, -16, -4, -8, -8, 25, 57, 57, 29, 14, -11, -2, -4, 14, 29, 22, 26, 69, 63, 27, 26, -4, 18, 46, 37, -31, -11, -13, -18, -33, -2, 18, 25, 17, 41, 53, 20, 10, -33, -10, 16, 20, 22, 38, 42, 65, 56, 11, 29, 16, -5, 39, 27, -1, -11, -30, 7, 1, 5, 31, 5, 5, 17, 21, 3, -1, -6, 9, 13, 7, 15, 3, 18, 40, -1, -6, 12, -2, -17, 21, 27, 11, 8, -4, 18, -7, -6, -4, -1, 17, 2, 3, -5, 11, 14, 13, 15, -1, -12, 23, 48, 44, 22, -31, 24, 37, -3, 29, 23, 7, -1, 12, -1, -10, 3, 12, 9, 23, 14, 9, 22, 32, 38, 16, 6, 13, 8, 51, 56, 49, 27, 25, 49, 2, 16, 35, 49, 12, 1, 35, 32, 33, 37, 23, 52, 52, 48, 47, 35, 18, 20, 30, 4, 32, 43, 74, 50, 15, 12, 11, 27, 40, 53, 44, 63, 28, -5, 26, 33, 53, 58, 58, 65, 52, 52, 50, 49, 23, 37, 23, 26, 25, 27, 32, 41, -6, -7, 3, 15, 35, 47, 18, 53, 54, 40, 12, -1, 25, 38, 26, 38, 14, 28, 28, 34, 20, 58, 34, 43, 44, 27, 26, 36, -27, -20, -25, 16, 19, 17, 19, 6, 30, 13, -12, -12, 11, -8, 7, -3, 16, 25, 5, 28, 43, 38, 55, 47, 32, 18, 21, 14, 8, -18, -6, 5, -3, 15, 5, 10, -1, -19, -26, -50, -44, -40, -33, -12, 35, 12, 16, 31, 45, 59, 47, 28, 29, -11, 2, -8, 22, 32, 24, 11, 19, 5, 22, -6, -24, -29, -21, -29, -38, -33, -28, -29, -6, 6, 19, 26, 50, 29, 29, 50, 20, -38, -36, -45, -10, 4, 12, -1, 17, 19, 14, 5, -12, -7, 7, 14, 0, -14, -11, 17, 21, -11, -25, -14, 15, 18, 3, -6, -17, -24, -29, 19, -8, 2, 1, 0, 18, 19, 5, 6, 13, 4, 7, -1, 11, 11, -2, -24, -8, 9, -9, -28, -46, -58, -39, -29, 2, -15, -43, -21, 18, 19, 17, -3},
    {16, 18, 20, -3, 13, 21, 12, 16, 6, -2, 21, 16, 3, -9, 24, 9, 0, 4, 0, 15, 3, 5, 3, -2, 13, -2, -3, 18, 11, 5, 16, 6, 14, 18, -2, -16, 11, 6, 3, -18, -23, -23, 14, 7, 2, -32, -15, -9, -31, -18, 11, 10, 12, 3, 17, 21, 0, 5, -4, 8, -13, -1, -13, -17, 4, 15, 32, 8, 18, 32, 33, 40, 7, -3, -24, -40, -24, -19, -11, -14, 18, 18, 1, 8, 14, 6, 45, 4, -16, 5, -9, -16, -24, -3, 11, 1, -8, 1, 3, 15, -7, -22, -33, -40, -30, 20, 18, 28, 18, 7, 11, 10, 14, -14, 22, 18, -29, -30, 4, 20, 22, -5, 18, 7, 30, 29, 43, 24, 20, -1, 1, -8, 0, 0, -10, -15, 29, 26, 19, 5, 5, -4, 10, 6, -3, -1, -22, 6, 1, 4, 18, 15, 30, 25, 35, 15, 8, 7, -1, -7, 8, 8, 1, -11, 20, 48, -14, -2, 0, 7, 22, 30, -16, -43, -14, 24, 18, 7, 2, 10, 6, 14, 13, 0, 2, 4, 9, -2, 4, 14, -7, -11, -22, 25, -18, 9, 15, -14, 28, -2, -1, -22, 17, 12, 22, 9, 24, 25, 26, 22, 7, 19, -14, -14, 4, 19, 10, 19, 6, 6, -15, 1, -2, 9, -33, -21, 23, -1, 13, 12, 44, 52, 33, 40, 22, 45, 25, 30, 13, 13, 9, 4, 16, 14, 17, 3, -7, 8, -26, -3, 29, 25, 9, 12, 19, 14, 20, 26, 33, 29, 31, 41, 34, 18, 30, -2, 9, 13, 17, 15, 31, 51, 33, 30, 12, 20, -16, -4, 5, -37, 15, 2, -23, -15, 13, 36, 21, 14, 7, 5, 19, 12, 31, -20, -1, 7, 2, 28, 35, 48, 31, 29, 19, -7, -40, -23, -30, 5, 16, 15, -26, -33, -11, 20, 22, -1, 0, 37, 8, 3, 1, -31, -32, 1, 10, 1, -9, 28, 32, 26, 33, -30, -49, -38, -2, -5, 4, 15, -3, 4, -26, -17, -2, -11, 5, 21, 7, 5, 0, -15, -9, 11, 37, 12, -7, 21, 36, 44, 49, -10, -10, 9, -21, -12, 39, 9, 3, 11, -37, -53, -29, -10, 38, 30, -12, -15, -17, -17, 12, 47, 27, 20, 32, 5, 23, 31, 34, -21, -28, 34, 18, 42, -2, 5, -26, -4, -7, -40, -7, 22, 32, 22, 1, 0, -18, 19, 30, 34, 29, 28, 18, 4, 18, 4, -16, -53, -23, 41, 64, 30, 6, 11, -7, 14, -28, -32, 4, 42, 52, 20, 39, 21, 11, 41, 55, 49, 32, 3, -8, 10, 14, -8, 3, -29, -23, 42, 42, 48, 8, 3, -24, -24, -14, -21, 8, 34, 30, 49, 63, 27, 43, 59, 67, 51, 26, 13, 21, 4, 8, 6, -6, -16, -12, 50, 56, 26, 7, -8, -3, -29, -44, 3, -3, 9, 28, 40, 58, 48, 54, 44, 67, 37, 17, 4, 16, 14, 13, 1, -31, -9, -2, 52, 41, -3, -12, -16, -19, -42, -12, 1, 3, -14, -18, 3, 28, 14, 31, 11, 11, -2, 6, 9, 21, 27, 37, 15, -22, 1, 21, 54, 21, 32, 42, -25, 1, -45, -26, -29, -30, -15, -33, -13, -18, -16, -28, -16, 17, 30, 33, 13, 2, 25, 19, 19, 4, -15, -18, 33, 19, 13, -3, -11, 20, -30, -16, -34, 0, 3, -19, -12, -13, -7, -9, -31, -3, -2, 11, 0, 21, 32, 29, 11, -14, -12, -10, 39, 20, -14, 22, 27, 8, -8, 6, 5, 1, 19, 7, -2, 6, -18, -28, -6, 5, 2, 13, 7, 22, 36, 12, 19, -4, 13, 15, 39, 29, 14, 22, -2, 14, 34, 48, 64, 35, 26, 35, -6, 17, 10, 12, -4, -3, -20, 1, 33, 38, 9, 14, 8, -7, -26, 44, 46, -2, 0, 4, 18, -2, -19, -14, -4, 35, 39, 17, -3, -10, 2, 5, 10, 2, 15, 38, 40, 17, 29, 29, 31, 29, 7, 8, 10, -1, 2, -1, 17, 0, -30, -36, -43, 24, 19, 7, 1, 9, 23, 28, 7, 15, 45, 48, 23, 10, 11, 40, 32, 43, -7, 3, 6, 22, 9, 7, 10, 6, -21, -25, -57, -35, -36, -31, -20, 15, -15, -26, -32, 3, 13, -12, 7, 6, -10, -13, -17, -27, 4, -33, 15, 15, 19, 11, 0, 11, 8, -9, -1, -21, -10, 19, -1, -18, -22, -42, -57, -18, -32, -37, -10, 21, -18, -34, -44, -24, -6, 3, -2, 20, 1, 3, 3, 4, 17, -5, -7, 2, 5, 6, 4, -27, -17, 2, -15, -13, 24, 3, 0, 10, 18, 12, -3, 23, 23, -1, 14, 5, 21},
    {0, 8, -3, 19, 1, -5, 14, 4, 11, 14, 2, 7, -1, -13, -18, -32, 12, 15, 2, 17, 21, -1, 21, 12, -3, 13, 21, 16, 12, 16, 21, 20, -12, -7, 24, 11, 12, 1, 9, 14, 20, 13, -4, 26, 39, 15, 17, 12, 14, 6, -17, -2, 1, 20, 10, 0, 12, 9, -24, 20, 32, 1, 9, 9, -22, -23, -34, -3, 13, -3, -32, -35, 8, -4, -16, -7, -29, -9, -8, -6, -8, -17, 15, 8, 10, 12, 19, 41, 3, 6, 10, 6, 22, 6, 8, 26, 32, 44, 66, 43, 38, 50, 39, 36, 20, -9, -12, -15, 20, 40, -3, 8, 6, 24, 38, 20, 8, 1, -26, 0, -18, -19, -12, -11, -4, -21, -14, 8, 14, 1, 13, 10, 2, 21, 2, -19, 8, 24, 31, 9, 6, 18, -1, -16, -32, -19, 18, 1, 5, -12, -5, -12, -9, -10, -5, -2, 13, 19, 26, 17, 34, 19, 27, -8, -20, 14, -10, -19, 7, 15, -5, -15, -25, -13, 16, 25, 19, 3, 28, 18, 5, 14, 30, 38, 28, 22, 23, 37, 25, 7, 23, 14, 15, -23, -27, -18, 45, 28, -3, 13, -2, 2, 16, 16, 26, 46, 41, 33, 26, 36, 13, 31, 31, 1, 30, 11, 17, 9, 17, 33, 26, 4, -24, -19, 45, -6, 24, 35, -6, 14, 43, 44, 61, 37, 38, 10, 29, 24, 27, 38, 34, 9, 26, 22, 7, 14, 26, 34, 59, 27, 19, 23, 4, 38, 20, 13, 6, 26, 76, 60, 56, 41, 34, 26, 25, 28, 37, -4, 14, 4, 1, 12, 14, 11, 14, 38, 64, 52, 25, 17, 20, 32, 56, 20, 34, 37, 44, 19, 23, 27, 31, 14, 18, 28, 47, 14, 26, 33, 23, 13, 23, 12, 55, 46, 31, -2, 19, 40, 14, 36, 40, 50, 42, 34, 34, 29, 11, -12, 8, 38, 38, 47, 42, 45, 21, 49, 27, 23, 36, 17, 48, 37, 27, 22, 36, 47, 46, 28, 42, 65, 35, 38, 32, 22, 6, -4, 19, 7, 34, 33, 29, 16, 13, 32, 44, 49, 39, 24, 22, 33, 4, 7, 20, 16, -22, 12, 40, 47, 38, 5, 13, 14, 7, 0, -10, 10, 20, 24, 10, 6, 15, 11, 35, 24, 28, 4, 17, -3, 7, 1, 8, -37, 7, 27, 37, -5, 6, -8, -6, -18, -9, 3, -3, -4, -10, -5, 6, 2, -13, 8, 23, 23, 34, 28, 21, 5, 4, -26, -44, -4, -15, 15, -8, -35, -14, -2, -22, 1, -11, -8, -4, -13, -12, -6, -13, -2, -15, -5, 24, 26, 45, 24, 7, 6, 16, -22, -59, -29, 1, 30, 25, -4, -9, -9, -4, -27, 12, -11, -3, -13, -11, -13, -3, -11, -8, 8, 8, 7, 11, -27, 3, 3, 15, -47, -59, -12, 19, 29, 0, 10, -13, -7, -18, 0, -14, -2, 5, 5, 5, 10, 6, 6, -3, -3, 0, 9, -1, -22, 0, 25, 42, -33, 14, 30, 35, 20, 19, 10, 4, 5, -6, -18, -16, 4, 16, 20, 20, 14, -3, -4, -23, -3, -21, 15, -11, -34, -1, 1, -12, 4, 23, -16, -10, 38, 16, 15, 10, 11, 7, 3, 3, -2, 16, 14, 31, 6, -9, -15, -44, -18, -12, 2, -8, -30, -18, -20, 9, 11, -37, -8, 12, 39, -6, 22, 21, 17, -3, 2, 13, 15, 39, 15, 31, 16, 3, -8, -16, -13, -33, -23, -23, -23, -16, 1, -5, 12, 5, -3, -30, 4, 46, 37, 26, 6, 27, 8, -7, 5, 10, 29, 13, 23, 15, -1, -10, -9, -31, -10, -24, 2, -4, -10, -4, -9, 31, 5, -7, -1, 10, 20, 21, -1, 16, 20, 2, -2, 19, 16, 17, 14, 36, 25, 25, 10, -3, -29, -19, -13, 7, 12, -8, 8, -2, 21, -2, 10, -6, 38, 18, 33, 23, 29, 19, 22, 6, 22, 16, 41, 36, 24, 29, 38, 36, -1, -28, 11, 17, 21, -1, 10, -24, 5, -3, -2, 3, 39, 53, 43, 43, 48, 48, 57, 65, 77, 68, 61, 69, 28, 34, 40, 32, 28, 2, 9, 13, 8, 22, -17, -10, 7, 3, -1, -1, 23, 46, 48, 39, 42, 45, 79, 45, 35, 33, 31, 16, 2, 30, 27, 38, 50, 16, 42, 26, 3, 40, 9, -6, 13, 6, 1, 20, -7, 12, 11, 11, 34, 40, 57, 56, 29, 50, 20, 57, 19, 38, 55, 32, 37, 85, 55, 49, 20, 38, 27, -4, 16, -4, -5, 10, 13, -5, -4, 19, 38, 31, 26, 50, 29, 40, 15, 44, 25, 22, 16, 12, 27, 42, 29, 26, 18, 5, 7, 20, 2},
    {10, 4, 8, -4, 15, 17, 9, 5, -3, 13, 16, 4, 23, -2, 8, -9, 10, -3, 11, 12, 9, 5, -3, -3, 7, -1, 8, 5, 14, 0, 21, 19, 8, 18, 19, 22, 0, 20, 3, 12, 5, 1, 26, 37, 27, 4, 13, 16, 15, 11, 24, 21, 13, 1, 7, 3, 1, -4, 13, 5, 16, 13, 7, 19, -10, -2, -1, 15, 9, 9, 28, 76, 92, 59, 66, 38, 47, 16, 27, 25, 9, 16, 17, -1, 11, 16, 28, 5, 3, 20, -1, 3, -2, -3, -23, -17, 16, 4, 11, 36, 61, 33, 31, 19, 22, 3, 9, -4, 15, 19, -5, 10, 11, 29, 6, 13, 43, 65, 49, 4, 17, 15, 2, 22, 26, 33, 23, 41, 8, -31, 9, 2, -9, 11, 15, -13, -7, 29, 7, 5, 10, 9, 17, 24, 52, 51, 58, 15, 3, 5, 33, 20, 11, 21, 23, 19, 11, -3, -11, -21, -3, -6, 14, 26, 11, 5, -4, 1, 21, 8, -14, -7, 4, -10, 14, 8, 7, 9, 15, 13, -12, 28, 11, 2, 21, -7, 5, -1, -1, 5, -7, 6, 14, 29, 33, 27, -22, 37, -11, -24, -3, -8, 1, 1, 8, -24, 4, 9, 17, 18, 33, 12, 12, 1, 11, 0, 24, 24, 1, 20, 47, 47, 15, 20, -11, 12, -32, -15, -16, 4, 12, -5, -1, 8, 14, 7, 28, 17, 21, 13, 22, 15, 16, 6, 3, 18, 16, 8, 52, 56, 22, 12, 12, 9, -44, -7, 6, -10, 22, 8, 24, 6, 17, 25, 9, 28, 21, 14, -12, 8, -6, -2, -11, 1, 9, 2, 22, 41, 13, 25, 11, 15, -14, 18, 1, 11, 11, 15, 13, 5, 6, 25, 17, 37, 4, -27, -15, -6, 5, 2, 3, -1, -4, 0, 11, 19, 43, 2, -1, -7, -17, 9, 30, 24, 3, 5, -1, -3, 12, -5, 6, 16, 6, -9, -6, 11, 15, -5, -3, 25, 12, 20, 10, -8, 36, 28, -5, -5, -22, -6, 34, 4, 12, -1, 1, 18, 14, 6, 20, 27, 11, 8, -8, 8, -6, -18, 8, 17, 7, -1, -41, -6, 17, 20, 48, 8, -17, -13, 43, 21, 21, 18, -2, -2, 3, 8, 23, 14, 24, 7, 4, -4, -11, -8, -3, 5, -7, -5, -4, -21, 22, -13, 6, 30, 2, -25, 2, -6, 5, 23, 28, 28, -2, 8, 31, 11, 19, 31, -2, -15, -4, -9, -2, 2, -2, -3, 9, -17, -7, -12, 20, 19, 30, -15, -37, -71, -40, -31, -12, 4, 10, 25, 35, 28, 8, -3, 3, -1, 2, -5, 11, 29, 8, 11, 10, -9, 7, -4, 15, 29, 42, -7, -69, -56, -109, -85, -84, -43, -6, 21, 35, 20, 19, -13, -14, -9, 20, -4, 25, 27, 25, 3, -13, -18, -30, -22, 8, 36, 43, 37, -38, -54, -68, -88, -100, -121, -115, -79, -38, -33, -12, -7, -13, -3, 14, 1, 12, 25, 2, -12, -30, -23, 3, 9, 10, 15, 35, 59, -7, -50, -20, -48, -69, -126, -101, -120, -99, -62, -6, -10, 13, 15, 22, 10, 10, 16, 13, -38, -31, 3, -14, 8, 25, -13, 34, 46, 13, -9, 4, -9, 1, -6, -38, -60, -61, -20, 5, 37, 28, 4, 22, 2, 22, 14, -2, 7, -10, 21, -6, 17, -5, 38, 10, 47, 18, 16, 25, 38, 42, 34, 24, 24, 5, 17, 14, 14, 23, 25, 28, 0, 14, 13, 11, -1, 0, 3, 18, 21, 7, 42, -7, 72, 41, 38, 39, 44, 48, 41, 34, 30, 46, 16, 16, 15, 15, -11, 14, 10, 17, 0, -9, -24, -15, -4, 5, 4, 2, 29, -4, 17, 65, 42, 22, 26, 20, 12, 34, 41, 43, 16, 24, 2, -1, 2, 8, 27, 19, -5, -10, -16, -20, -30, 3, -1, 21, -4, 46, 21, 41, 28, 27, 11, 31, 22, 34, 40, 36, 26, 36, 17, 31, 27, 12, 28, 35, -6, -10, -22, -25, -31, 30, 8, 7, 5, -4, 17, 28, 36, 18, 37, 29, 38, 49, 22, 20, 35, 8, 6, -6, 29, -13, -37, -20, 27, 12, 2, -35, -4, 30, 14, 13, 9, 12, 17, 40, 68, 68, 54, 26, 15, 17, 9, 17, 27, -4, -5, -12, 1, -3, -15, -9, 2, 15, 11, 17, 30, -18, 3, 2, -2, -3, 28, 17, 35, 48, 0, -3, 1, 29, 34, 15, 12, -11, 6, 54, 47, 54, 56, 51, 56, 30, 31, 12, -23, 21, 2, 11, 16, 10, 9, -9, -11, -52, -55, -39, -21, -33, -17, -6, 2, 27, 1, 6, -15, 18, 11, 7, 0, -12, -15, 20, 21, 12, 7},
    {-5, 12, 20, 4, 12, 4, 14, 13, -4, 11, 14, 14, -7, 14, 16, 22, -3, 3, 21, -5, 8, 16, 12, 20, 21, -5, 1, -5, -2, 5, 17, 1, -18, 11, -3, 10, 4, 10, 11, 7, -1, 11, -7, 38, 42, 46, -16, -9, 2, -5, 3, -8, 10, 18, 13, -1, 14, 16, -40, 15, 28, -9, -8, -8, 8, 32, 38, 18, 8, -5, -18, -27, -36, -21, -25, -29, -29, -10, -12, 27, 18, 9, 10, 19, 18, 8, 37, 18, 27, -18, -35, -27, -6, 4, 4, 0, -21, -24, -16, -73, -45, -11, -21, -20, -8, 6, 40, 29, 41, 42, 9, -2, -3, -2, 34, 14, -9, 1, 11, -6, 12, 20, 31, 35, 33, 15, 0, -7, -36, -28, -14, -34, -7, 10, 5, 9, 1, 39, 39, 3, 1, -2, 24, 0, 14, 22, 32, 7, 31, 24, 28, 31, 27, 33, 7, 14, 4, 0, 16, -12, 3, 1, -13, -16, -8, 46, 10, -14, 10, 14, 0, 9, -27, -21, 26, 6, 13, 27, 9, 22, 14, 18, 31, 35, 50, 44, 25, 10, 11, 11, -27, -29, -30, 41, 23, 18, 21, 13, 30, -15, -30, -8, 47, 1, 29, 18, 36, 11, 18, 41, 14, 36, 43, 27, 34, 18, -1, 19, 6, -33, -34, 0, 25, 12, -5, 19, -2, -7, 9, 13, 51, 28, 40, 29, 58, 42, 55, 54, 51, 47, 24, 33, 8, 10, 0, 9, 24, -24, -33, 10, 21, 33, 18, 50, 15, 32, 31, 30, 49, 37, 21, 36, 67, 42, 53, 53, 65, 59, 26, 20, 10, 10, 10, 9, 10, -5, -6, 8, 28, 27, 3, 32, 34, 54, 34, 61, 54, 30, 20, 35, 34, 40, 39, 45, 43, 24, 31, 10, 5, 13, 23, 3, 20, 26, -7, 1, 20, 35, 25, 24, 33, 22, 25, 33, 6, 6, 0, 5, 3, 3, -4, 26, 19, 30, 6, 13, 22, 16, 39, 2, 24, 2, 17, 24, 33, 31, 22, 17, 38, 17, 33, -4, -11, -28, -11, -6, -35, -22, -47, -14, 13, 20, 11, 15, 10, 36, 3, 8, 2, 3, 6, 6, 6, 9, -16, 21, 8, 19, 15, -24, -16, -26, -25, -41, -34, -19, -31, 4, 20, -5, 9, 12, 8, 2, 7, 1, 3, -7, 11, 36, 46, 44, -3, -9, 7, 7, 2, -32, -28, -25, -22, -36, -28, -15, -18, 5, 15, -2, 0, 8, 20, 15, -5, -3, -12, -5, 5, 8, 86, 45, 2, 3, -11, -27, -11, -29, -17, -22, -27, -19, -7, 0, 1, 2, 1, 4, -4, 27, 24, 0, 26, 5, 2, 5, 7, -2, 90, 47, 5, -5, -4, -48, -2, -11, -22, 3, -8, -1, 18, 24, 18, -2, -9, -6, 13, 14, 6, -6, 4, 18, 24, -11, 6, 24, 72, 56, 1, -19, -25, -17, -17, -19, -6, 3, 28, 30, 24, 20, 10, 6, -10, 1, 7, 25, -4, 0, 16, 34, 9, 4, 14, 40, 77, 31, 15, -18, -22, -31, -34, -41, 20, 47, 33, 28, 26, 13, -5, -18, 5, 3, 0, 1, 2, 7, -7, 4, 23, 28, 13, 12, 48, 36, -8, 57, -26, -9, -26, -55, 3, 26, 30, -5, 0, 1, -15, -11, -1, 1, -7, 8, -15, 8, 27, 6, 14, 28, 22, 32, 47, 0, 19, 41, 28, 1, -29, -24, -21, 16, 10, 3, 2, -12, 10, 12, 0, 1, -12, -1, -18, 11, 22, -9, -9, 20, 43, 49, 33, 11, -15, 18, 25, -12, -15, -20, -4, -2, 15, -11, 6, -8, -7, -3, -15, 4, 4, 2, 1, 7, -11, -7, -7, 10, 36, 50, 10, 9, -2, -19, 40, 14, 13, 8, 7, 14, 18, 14, 7, -4, 3, 3, 8, 8, 10, 3, 3, -14, -14, -27, -14, 8, 49, 40, -13, 10, 15, 4, -3, 10, -15, 2, 30, 50, 21, 11, 11, 32, 20, 22, 10, 22, 4, 10, -5, -9, -13, -17, 24, 18, 50, 25, -45, 9, 14, 12, 1, 5, 40, 49, 46, 37, 42, 0, 7, 7, 23, 21, 23, 20, 6, 10, 16, -10, 1, 26, -7, 4, 17, -37, -11, 12, 15, 3, 22, -3, 54, 76, 64, 75, 69, 54, 59, 41, 17, 25, 42, 32, 38, 35, 22, 48, 37, 9, -22, -4, 16, 14, 11, 18, 11, 15, -4, 14, 26, 35, 82, 87, 79, 84, 79, 76, 72, 50, 82, 48, 57, 74, 65, 71, 61, 47, 32, 25, 35, 27, 5, -4, 13, 13, 19, 20, 10, 5, 28, 47, 43, 33, 64, 34, 50, 65, 74, 76, 51, 48, 53, 53, 17, 59, 40, 20, -5, 17, 20, 17},
    {-4, 8, 7, 15, 7, 19, 19, 7, 3, -1, -1, 1, 22, 28, 23, 26, 19, 2, 9, 11, 8, 4, 21, -5, 1, 5, 4, 11, 14, 21, -2, 11, 4, -5, 13, -6, 17, -3, 19, 19, -8, -17, -12, 20, 20, 16, -7, 21, 16, 5, 19, 3, 17, 19, 6, 14, -2, 18, -15, 18, 32, -10, 14, 12, -6, -1, 29, 23, 27, -9, -15, -18, -20, -25, -10, -46, 0, 27, 18, 13, 0, -3, 9, 14, 21, 3, -24, 23, -22, 9, -9, 4, 0, 12, 29, 45, 20, 49, 54, 61, 71, 40, 27, 24, 37, 12, 7, 13, 37, 33, -26, 8, 2, 26, 3, -13, -8, -10, -2, 32, 45, 39, 34, 59, 53, 24, 37, 40, 52, 29, 5, 7, 4, -1, 4, -12, -26, -13, 22, 14, 14, 0, -10, -14, 18, 37, 35, 45, 50, 55, 39, 55, 47, 50, 43, 31, 36, 40, 16, 7, -3, -8, -2, -20, -33, 46, 11, -9, 18, 5, -10, -2, 24, 39, 64, 57, 39, 40, 38, 35, 49, 58, 32, 67, 37, 36, 16, 8, 16, 28, 31, -17, -26, -17, -11, -14, 50, 30, 12, 67, 39, 25, 53, 39, 52, 36, 27, 22, 29, 32, 41, 57, 61, 41, 32, 20, 8, 8, 33, 15, -3, -20, -5, 10, 16, 33, 36, 75, 24, 11, 42, 35, 26, 37, 34, 20, 35, 41, 29, 28, 60, 41, 49, 51, 30, 27, 37, 39, 24, 8, 4, 28, 9, 8, 35, 54, 13, -2, -14, 9, 22, -6, -19, -21, -8, -13, 5, -7, 10, 42, 25, 38, 37, 19, 38, 41, -4, 24, 9, 11, 0, 1, 44, 24, 4, -23, -14, -18, -21, -35, -19, -36, -43, -38, -30, -41, -14, -4, 18, 3, 17, 17, 35, 44, 5, -19, -12, 22, 1, 33, -2, 2, -8, -45, -38, -18, -28, -30, -36, -12, -26, -38, -32, -45, -36, -19, -29, -29, 8, 22, 24, 27, 28, 4, 15, -8, 21, 1, 2, -31, -51, -11, -23, -23, -28, 5, 21, 4, -13, -24, -3, 1, -14, -18, -7, 1, 12, 17, 11, -4, 38, 25, 9, -16, -37, 16, 9, -10, -61, -10, -9, -4, 2, 11, 37, 25, 12, 22, 19, 10, -5, -24, 3, -2, -13, -6, 3, 0, -13, 29, 32, 28, 12, 10, 5, 7, -6, 23, -1, 30, 15, 26, 11, 25, 18, 54, 36, 17, -12, 8, -6, 0, 1, 0, 1, -1, -37, 11, 35, 25, 4, 22, 7, 31, 24, 32, 10, 8, 12, 12, 9, 22, 14, 12, 12, 34, 3, 6, 22, 5, -17, 6, 11, -24, -13, -7, 31, 16, 1, -9, 30, 34, 49, 12, 5, 22, 1, 26, 6, 6, -13, -10, 3, 23, 21, 36, 6, -6, -24, -18, -7, -28, -20, 9, -12, 8, -5, -11, 10, 23, 15, 23, 1, 1, 16, 22, -3, 1, -19, -15, -6, 12, 31, 22, -16, -31, -9, -5, -1, -32, -25, 7, 8, 36, 5, 8, -14, 11, 24, 14, 5, 0, 9, -5, 10, -10, -3, -21, -31, 17, 25, 0, 9, -2, 15, -8, 5, 2, -1, 11, -3, -6, -14, 33, -12, -44, 19, 12, 6, 1, -6, 5, -7, -12, -10, -21, -28, -6, -11, 7, -6, 2, -2, -12, -13, -6, -10, -1, -13, -18, 0, 31, -12, 4, 0, 22, 37, 27, 5, -2, 7, 11, 20, 11, -4, 13, 3, -14, -18, 22, 13, 4, -13, -10, -15, -34, -2, 3, -19, 47, 11, 10, -1, 18, 32, 27, 15, -3, 0, 34, 15, 30, -5, -12, 2, 2, -2, 6, -12, -12, 25, 38, -9, -5, 38, 30, -28, 4, 14, -5, 5, -12, 42, 37, 34, 16, 33, 26, 20, 14, 19, 22, 16, 9, 9, 20, -1, 23, 27, 25, 0, -6, -26, 10, 15, 9, 15, 17, -5, -34, -6, 29, -6, 24, 7, 29, 11, 13, 25, 8, 26, 13, 18, 8, 3, 18, 28, 25, 0, -8, -30, 5, 10, -4, 22, 17, 8, -19, 8, 10, -5, 5, 6, 26, 29, 36, 33, 36, 38, 24, 18, -2, 13, 36, -10, -9, 46, 10, 20, -1, -3, 11, -8, 2, -28, -41, -7, 8, 11, 35, 37, 35, 34, 12, 8, 17, 26, 21, 14, 17, 5, -22, -35, -27, 1, 9, 28, 2, 1, 9, 9, -9, -24, -42, -46, 21, 45, 41, 54, 32, 17, 31, 46, 31, 27, 18, 15, 4, 27, 30, 3, 12, 11, 40, 8, 14, 18, 15, 16, 15, 0, 16, 21, 10, 22, 14, 16, 18, 17, 29, 40, 22, 36, 27, 1, 26, 21, 12, 7, 3, 6, -5, 7, 4},
    {21, 5, 6, 6, 19, 7, 1, -1, 20, 4, 10, -5, 25, 28, -8, 6, -4, 6, 17, 0, 20, 17, 11, 0, 2, 15, -2, 11, -2, -5, 4, 20, 24, 4, 17, 12, 18, 30, 30, 25, 13, 16, 37, 35, -14, 11, 36, 21, 23, 29, 9, 25, 19, 1, 2, 17, -5, 8, 41, 12, 34, 12, 17, 39, 22, -19, -18, 15, 23, 68, 60, 61, 40, 36, 30, 26, 24, 9, 15, 9, -23, -7, 2, 17, -1, 9, 21, 1, 24, 7, 24, -4, -8, 9, 7, 24, 41, 55, 86, 79, 50, 46, 29, 15, 28, 39, 27, 9, 9, 0, 28, 14, 20, 15, 12, -4, 9, 4, 10, 21, 8, 26, 18, 0, 29, 48, 61, 60, 69, 103, 75, 42, 42, 30, 27, 33, 14, -8, 16, 15, 6, 1, 1, 7, -8, -5, 5, 18, 20, 16, 12, 10, 11, 24, 21, 49, 80, 94, 81, 65, 52, 63, 36, 32, 26, -1, -2, 12, 4, 16, 1, -26, -4, -10, 7, 16, 6, -10, -1, -6, -2, -29, -20, -11, 13, 35, 48, 92, 76, 59, 56, 69, 50, 22, 8, 2, -36, -7, -25, -17, -6, 6, -18, 28, -2, -1, -8, 2, -16, -36, -15, -31, -18, 25, 40, 59, 74, 72, 74, 65, 55, -4, 13, -3, 21, -9, 4, -10, 4, -11, 13, 18, -7, -18, -22, -13, -15, -4, -9, -20, 5, 9, 10, 26, 40, 33, 51, 45, 41, 10, -9, 13, -3, -23, 1, -12, -3, -18, -14, 8, -15, -24, -17, -6, -4, -20, -16, -21, -1, -13, -5, 25, 25, 37, 11, 17, 16, -28, -45, -23, 0, -6, -6, -20, 17, 2, -20, -8, 7, 5, -9, -8, 0, 4, -7, 1, -11, -2, -7, 2, 14, 14, 20, -4, 28, -11, -29, -19, 1, 0, -59, 1, 5, -15, 1, -7, 9, 8, 1, 10, 8, -9, -9, -17, -6, -2, 10, -6, -16, 7, 6, -13, 4, -17, -26, -29, -39, 8, -32, -11, -20, -5, -8, 2, 6, 29, 25, 33, 38, 17, -26, -1, 4, 6, 34, 23, 31, 11, 11, 10, 28, -10, -42, -42, 52, 11, -33, -27, -9, 0, 14, 20, 18, 47, 31, 21, 32, 0, -7, -6, -6, 9, 18, 35, 25, 17, 1, 23, 3, -23, -44, 0, 11, -10, -5, -20, 21, 26, 43, 21, 41, 30, 13, 1, 32, 21, 26, -3, 12, 9, 7, 16, 6, -11, 9, 0, 2, 4, -58, -4, 26, -6, 2, 23, 16, 17, 25, 55, 29, 21, 6, 10, 18, 45, 29, 24, 19, 12, -10, -24, -19, -21, -15, 0, -19, 35, -35, 2, -5, 9, -14, 19, -6, 20, 26, 33, 19, 10, 5, 15, 16, 31, 53, 41, 18, 10, -13, -31, -8, -6, -22, -25, -10, 31, -24, -21, 8, -14, -4, 7, -8, 11, 30, 18, 15, 8, 27, 3, 2, -5, 42, 33, 21, -3, 8, -34, 7, -3, -9, -10, -7, -8, -33, -53, -6, -3, -23, -9, 2, -15, 3, 20, 12, 27, -4, -3, -9, 26, 33, 44, 13, 9, 5, -16, -13, -12, -5, -4, 18, 18, -10, -6, 14, -4, -7, 27, 0, -3, 10, -3, -19, 0, 0, 12, 11, 35, 42, 29, 34, 20, 21, 3, -15, 16, -9, -8, 19, 10, -18, -9, -3, 23, 14, 0, 6, -1, 22, 19, -8, 4, 5, 27, 26, 39, 14, 28, 25, 35, 34, -18, 4, 2, -6, 0, 20, 21, -8, 31, 12, 0, -14, -19, -11, -3, 28, 27, 19, 25, 26, 33, 24, 16, 20, 26, 21, 29, 32, 10, 9, 29, 31, 34, 40, 46, 22, 13, 4, -15, -12, -15, 2, 35, 29, 24, 29, 33, 28, 32, 16, 16, 25, 11, 14, 20, 31, 30, 20, 34, 30, 45, 12, 43, 38, 0, 8, 11, -8, -25, -18, -8, 13, 36, 49, 58, 40, 26, 29, 6, 25, 17, 19, 33, 9, 33, 41, 30, 21, 33, -5, 24, 54, 21, 20, 5, -12, -16, -33, -36, -3, 16, 23, 29, 39, 16, 35, 2, 10, 13, 21, -13, 6, 15, 29, 19, 12, -2, -8, 31, 34, 8, -2, 21, -2, 1, -14, -39, -23, -25, -25, -3, -11, 2, -8, -26, -33, -10, -36, -8, 11, -27, 2, 1, -21, -24, 20, 0, 13, -5, 16, 21, 19, -1, -5, -15, -18, -46, -12, -18, -35, -25, -21, -64, -81, -35, -52, -58, -56, -44, -55, -50, -22, 6, -12, -3, -2, 0, 0, 5, 6, -1, 11, 12, -16, -13, -8, -17, -14, -14, -16, -8, -19, -24, -46, -27, -15, -2, 8, -11, -8, -16, 2, 5, 12, -4},
    {4, 11, -3, 10, 6, 2, 10, -5, 6, 9, 20, -1, 10, 14, -19, -11, 20, -2, 15, 7, 8, 12, 21, 14, 2, -3, 16, 15, 8, 8, 18, 17, -31, 18, -3, -10, 2, -5, 3, 2, -10, -2, -7, -11, -26, -14, 11, 2, -18, -9, -15, -7, 5, 9, 9, 8, 0, 9, -14, 0, 2, -7, 2, -25, -15, -44, -46, -51, -47, -17, -31, -12, -7, 4, -14, -7, 18, 6, -12, 8, 5, 6, -4, 12, -3, 7, -5, -7, -9, -16, -31, -27, -50, -50, -40, -65, -54, -82, -57, -51, -12, -24, -11, 12, -9, -9, -3, 4, -8, 7, -19, 7, 6, 31, 7, 14, 10, 3, -15, -19, -24, -18, 2, 1, 1, -4, 9, 19, 24, 35, 39, 1, -18, -7, 11, 0, 38, 23, 1, 18, 10, 15, -5, 1, 10, 24, 21, 4, 25, 4, 21, 22, 25, 20, 6, -3, -1, 6, -4, 2, -17, -45, -58, -31, 4, -1, -9, 1, 17, 12, 16, 9, 3, 27, 23, 12, 29, 29, 35, 24, 56, 46, 37, 9, 17, 49, 42, 12, 3, 5, 5, -26, -14, -3, 25, 14, 45, 37, 1, 25, 27, 38, 32, 1, 35, 11, 26, 5, 23, 25, 11, 29, 37, 33, 31, 22, 26, 10, -7, 17, 18, -29, 28, 7, 9, 28, 24, 47, 54, 34, 45, 25, 35, 15, -3, -8, 9, 11, 3, 12, 39, 13, 17, -1, 15, 19, 25, 21, 4, 8, 26, 21, 4, 37, -5, 47, 34, 32, 36, 27, 24, 14, -28, -25, -8, 4, 18, 20, 22, 29, 18, -12, 10, 10, 35, 27, -26, -5, 2, 1, -4, 10, 24, 20, 18, 1, 29, 13, 13, 7, -15, -20, -24, -21, -10, 13, 31, 8, 24, 6, 18, 21, 39, 23, -43, -17, -3, -8, 20, -4, 33, 48, 38, 34, 32, 18, 48, 38, 35, 16, -3, -7, 19, 22, 20, 15, 12, 10, 33, 2, 22, 14, -24, -3, -11, 9, 45, 6, 53, 41, 16, 42, 41, 46, 60, 34, 41, 14, 11, 23, 40, 40, 17, 0, 10, 10, 5, -15, 3, 34, -13, -11, -6, 28, -36, 4, 24, 28, 48, 45, 36, 34, 33, 40, 38, 52, 14, 30, 29, 10, 15, 7, 15, 18, 21, 17, -10, -6, -5, -3, -42, -21, 9, 21, 7, 36, 25, 35, 26, 16, 7, 21, 23, 15, 2, 16, 33, 35, 18, 27, 42, 33, 15, 10, 2, -15, -26, -8, -34, -7, -1, 11, -5, 3, -7, -3, 16, -8, -14, -17, 13, 18, 4, 34, 28, 29, 34, 29, 37, 31, 20, 29, 30, -17, -57, -39, 40, -8, 6, 14, 6, -5, -10, 0, -1, 4, 14, -14, -2, 9, 33, 34, 14, 29, 27, 27, 11, 4, 2, -1, 7, -10, 6, -54, -4, -8, -1, 25, 0, -8, -16, -22, -20, -3, 3, -16, -44, -27, 10, 22, -18, 2, 10, 14, -10, -19, -14, 16, 12, -15, -25, -11, 27, -13, 49, 15, 24, -20, -11, -25, -10, -20, -5, -44, -22, -35, -11, -4, -18, -4, -6, 0, -5, 2, 12, 3, -6, -23, -59, -15, 44, -31, -29, 27, 23, 11, -8, 2, -19, -9, -32, -37, -28, -24, -6, -8, -14, -18, -12, -12, -9, 6, 11, 6, -1, -31, -42, -26, -8, -26, -4, -10, 4, 19, -3, 15, -2, 7, 5, -17, -23, -13, -9, -5, -6, -12, -5, -21, -18, 14, 5, 7, 6, 14, 4, -3, -7, -35, -19, 43, 23, 25, 30, 15, -4, -9, 20, -10, -9, -22, -20, -2, -6, 7, -8, -18, -1, 10, 3, 18, 10, -23, -9, -18, -21, 20, -13, 14, 6, 27, 22, 24, 19, 9, 5, -4, -9, -21, -12, -4, 6, 2, -8, 6, 13, 3, -13, 19, 23, -12, -26, -34, -23, 0, 2, 17, 2, 57, 3, 15, 30, 24, 10, 5, 9, 15, -23, -15, -4, 4, -11, -10, 9, -5, -7, 20, 9, 8, 2, 10, -23, 12, 10, 14, 30, 65, 27, 21, 35, 44, -2, -1, 13, 9, 9, 11, 16, 10, 29, 27, 35, 32, 32, 51, 37, 47, -19, -25, -18, 6, 21, 0, 9, 33, 42, 60, 66, 69, 80, 55, 91, 83, 112, 106, 116, 103, 121, 107, 72, 60, 51, 78, 45, 23, 4, -12, -3, 17, 20, 6, 16, 15, -3, 7, 36, 49, 70, 71, 68, 66, 69, 79, 97, 50, 57, 74, 83, 41, 50, 63, 43, 19, 0, 41, 0, 15, 9, 13, 16, 16, 0, 10, 14, 32, 20, 22, 35, 9, 20, 44, 44, 45, 32, 39, 27, 33, 50, 75, 53, 30, 9, 10, 18, -4},
    {12, 11, 19, 6, 0, 1, 21, 12, 0, 17, -5, 5, 22, 8, -5, 2, 6, 11, 0, 13, 16, -1, -4, 0, -3, 3, 15, 14, -3, 6, 5, 13, 13, 26, 17, 9, 16, -1, 10, 0, 18, 21, 41, 46, 3, 13, 30, 25, 11, 22, 23, 21, -1, -2, 18, 0, -3, 20, 48, -4, 19, -1, 8, 8, 5, -9, -10, -21, -22, 31, 3, 22, 25, 39, 56, 34, 26, 32, 23, 17, -6, -10, -3, 15, 9, 21, 3, 23, 11, 12, -6, -2, 5, 12, 9, -41, 11, 11, 12, 25, 28, 29, 41, 28, 10, 17, 21, 52, 12, -32, -2, 3, -5, -9, -2, -6, 14, -2, -52, -32, -7, 2, -3, -23, 13, 15, 27, 32, 54, 62, 39, 21, 18, 23, -15, 29, -3, 22, 20, 17, -2, 5, 16, 16, -25, -30, -15, -12, -33, -16, -12, 4, 23, 31, 41, 34, 17, 18, 14, 15, 39, 30, 13, 26, 10, 29, 40, 15, 9, -9, 13, -8, -29, -17, 12, -17, 4, 2, 9, 16, 32, 24, 30, 32, -22, -10, -4, 18, 25, 7, 22, 52, 41, 83, 42, 20, -21, -29, -25, -54, -33, -4, -16, 16, 15, 6, 15, 24, 19, 23, 21, 16, 13, 4, 13, -4, 3, 17, 35, 36, 21, 27, 34, 24, 33, -23, -27, -23, -36, -8, 4, 14, 29, 6, 15, 30, 19, 23, 14, 5, 24, -7, -4, 16, 7, 16, 19, 16, 37, 20, 22, 29, -25, -24, -10, -38, -16, -2, 8, 15, 25, 11, 1, 20, 9, 11, -2, 6, 5, 9, 2, -22, -18, 20, 27, 33, 60, 70, 48, 23, -9, 9, -33, -49, 10, 3, -3, 1, 14, -3, 5, 19, 4, -3, 20, 16, 0, -2, -7, -6, 4, 8, 39, 61, 81, 48, 60, 20, -13, -16, -35, -8, 25, 9, -14, -13, -5, 1, 19, 3, 13, 16, 48, 26, 2, 8, -3, 1, -21, 13, 29, 49, 86, 46, 70, -4, -45, 8, -40, 53, 36, 24, 17, -1, 1, 17, 19, 14, 13, 28, 23, -5, -17, -5, -20, -15, -22, -15, -10, 10, 35, 32, 33, -33, 35, -5, -45, 46, 19, 7, 9, 2, -6, 22, 21, 22, 17, 32, 2, 10, -7, 13, -8, 5, -13, -37, -9, 11, -12, 34, -5, -8, 22, 20, -33, 12, 6, -18, 9, -10, 15, -4, 9, 14, 12, 21, 27, -4, 1, -16, -25, -13, -26, -20, -35, -19, 2, 28, -35, -17, 16, 30, 15, -40, -21, -32, 2, -18, 1, 28, 8, -6, 12, 14, 31, -12, -2, -14, -9, -29, -36, -20, -27, -6, 4, 26, -35, -4, 5, 19, 8, 2, -23, -5, -6, -13, -14, 3, 12, 21, 36, 22, 14, 1, -6, -9, -33, -24, -50, -42, -4, 27, 24, 7, -41, -29, -4, 25, -13, 7, 16, 12, 20, -9, -12, -2, -4, 34, 33, 18, 1, -12, -9, -28, -28, -21, -33, -11, -3, 28, 14, -66, -57, -14, -24, 16, 2, 12, 39, 24, 22, 7, 11, 7, 12, 7, 16, 7, -20, -14, -35, -22, -15, -33, -6, -30, 1, 18, 22, -34, -67, -12, 39, -31, 12, -4, -2, 10, 22, 35, 35, 38, 26, 0, -3, 1, -1, -20, -6, -22, -9, -5, -1, 16, 12, 48, 32, 24, -20, -12, -2, 5, 24, -8, 5, 29, 40, 31, 24, 47, 34, 13, 18, 5, 10, 7, 1, 29, 21, 37, 35, 50, 44, 55, 15, 43, -4, 22, 40, -8, -35, 5, 48, 29, 37, 49, 24, 25, 9, 28, 19, 31, 30, 31, 24, 54, 66, 41, 63, 55, 75, 74, 55, 46, 11, 16, 42, 16, -21, 27, 13, 44, 29, 22, 16, 16, 10, 32, 18, 34, 45, 43, 48, 47, 61, 46, 49, 50, 46, 51, 31, 51, 33, 18, 10, 4, 37, 8, 33, 31, -1, -8, 36, 35, 41, 13, 20, 36, 20, 28, 45, 40, 29, 53, 58, 28, 45, 63, 26, 34, 49, -2, 20, 20, 23, 3, -13, -18, -5, -6, 4, 33, 24, 11, 33, 28, 39, 53, 49, 33, 54, 28, 28, 19, 34, 22, 36, 1, 8, -3, -4, -5, 25, -4, -56, -61, -1, 4, 37, 27, 41, -8, 13, 25, 13, 33, 29, 49, 20, 46, 45, 18, 72, 47, 42, -19, 11, 2, 19, 5, -5, 1, -5, -23, -49, -29, -43, -16, 3, 16, 24, 1, -18, 3, 34, 15, 12, 17, 6, -34, -17, 3, -11, -9, 8, 3, 3, -5, 14, 17, 6, 4, 13, 4, -6, -2, -12, 13, 27, 5, 5, 35, 41, 32, 12, -4, -15, -4, -20, -22, 14, -5, 20, 9},
    {13, 13, 5, 2, 4, 20, 8, 15, 10, 13, 21, 11, -4, -8, -26, -15, 4, 15, 11, -4, -1, 0, 5, 2, 15, 11, -2, 3, 11, 10, 15, 9, -20, -5, -20, 0, 5, 2, -10, -20, -25, -29, 13, -5, -52, -40, -24, -33, -33, -15, -6, 3, 8, -2, 2, 18, 3, 1, -18, 3, -16, 10, 0, -13, -33, -60, -55, -39, -24, -4, -18, 1, 21, 4, 7, 8, -8, -11, -17, -21, -17, 15, 14, -2, 16, 1, 30, 1, 30, 2, -8, 2, -6, -16, 0, 4, 30, -4, 11, 36, 21, 29, 41, 31, 44, 24, -1, -6, -19, -12, 5, -3, -5, 40, 32, 33, 5, 4, 1, -10, 13, 0, 10, 23, 43, 16, 34, 23, 45, 12, 25, 44, 22, 33, 16, -25, 38, 36, 3, -8, 6, 12, 31, 16, 10, 43, 26, 25, 14, 2, 18, 25, 18, 4, 7, 25, 34, 5, 9, 9, 11, -13, 2, -3, -3, 4, -17, -5, 21, 10, 19, 27, 7, 47, 41, 5, 4, 20, 23, 14, 18, 10, 16, 2, 5, -8, 0, 6, 22, 16, 2, 2, -1, -3, 5, 4, 24, 48, 13, 49, 24, 50, 29, 19, -5, 11, 34, 20, 15, -3, 8, 10, 1, 5, 4, 22, 30, 14, 32, 31, 30, -3, -5, -5, -15, -6, 17, 63, 18, 28, 25, -3, 7, 32, 11, 19, 16, 9, -1, 27, 8, 6, 31, 12, 23, 18, 56, 26, 3, 22, -3, 31, 12, 28, 0, 39, 20, 16, 10, 14, 25, 15, 17, 18, 15, 7, 7, -2, 3, 7, 17, 8, 38, 22, 39, -11, -60, -20, 2, 14, 11, 34, -14, 49, 15, -1, -14, 5, 20, 23, 9, 14, 5, 21, 8, 8, 14, -3, 8, 24, 21, 9, 9, -51, -71, -22, -2, -2, -3, -3, 22, 58, 37, -31, -38, -3, 20, 18, 29, 26, 34, 31, 44, 52, 28, 38, 20, 13, -12, -44, -28, -49, -59, -16, -8, 21, 25, 4, 26, 43, -7, -32, -20, -4, 23, 4, 15, 35, 19, 19, 34, 40, 45, 26, 28, -3, -30, -33, -47, -47, -35, -19, 18, 7, -37, 0, 17, 15, 10, -19, -3, -15, -3, -16, 3, 17, 7, 13, 3, 44, 22, 35, 9, -22, -19, -25, -27, -39, -52, -6, -1, -6, -14, 26, 41, 7, 22, 4, -8, -23, -27, -11, -29, -1, 16, 2, 15, 16, 15, 26, 15, 3, -17, 9, 3, -13, 0, -18, -9, 0, -7, 14, 41, 14, 14, -3, 9, -8, -19, -8, -22, -9, -12, 11, 15, 16, 27, 36, 17, 22, 5, 24, 32, 30, -29, -36, 29, -3, 14, 26, 25, 14, 11, 1, 19, 17, 11, -4, -9, -33, -5, -3, -2, 5, 15, 13, 14, 15, 17, 22, 15, 2, -12, -47, -5, -47, 20, 29, 37, 22, 33, 13, 21, 21, -1, 5, -17, -34, -13, -3, 11, 22, 33, 32, 21, 24, 6, 26, 4, 17, -36, -59, -26, -43, 37, 31, 21, 44, 30, 29, 19, 36, 25, 2, -14, -13, -16, 4, 8, 32, 37, 25, 31, 34, 16, 8, 6, -26, -50, -34, 20, -2, 7, 4, -7, 43, 35, 30, 8, 17, 17, -1, -11, -27, -17, 3, 27, 32, 27, 30, 28, 34, 2, 13, 3, -43, -47, 33, -10, -17, -1, 8, -34, 12, 14, 7, 5, -13, -12, 2, -24, -37, -16, -1, 25, 28, 21, 23, 12, 22, 20, -2, -7, -34, -64, -38, -2, 12, -17, 1, -9, -1, 2, -1, -1, -20, 2, -33, -13, -31, -15, 4, 13, 22, 4, 0, 8, -5, 17, -13, -25, -65, -71, -7, -30, 4, -10, 35, -36, -25, 0, -12, -22, -23, -11, -31, -20, -8, 11, 5, -6, 22, 14, 17, -5, 17, 2, -21, -18, -78, -54, -37, 21, 6, 9, 15, 19, 25, 14, 9, 5, -3, -20, -26, -3, 8, 1, 21, 17, 32, 18, 34, 24, 18, -6, -16, -69, -51, -43, -27, 21, 6, 2, 4, 28, 54, 31, 9, 12, 3, 4, 21, 18, 41, 9, 42, 21, 29, 18, 14, 6, 6, -4, -27, -34, -13, -43, -38, -20, 20, 7, 10, -5, 11, 10, 24, 7, 47, 74, 72, 65, 30, 44, 30, 55, 47, 40, 25, 7, -3, -20, -34, -24, 19, 19, -20, -12, 11, 15, 17, -3, 1, -19, -26, 2, 24, 40, 48, 22, -5, -12, 8, 16, 55, 45, 35, 31, 3, -7, -25, 4, 15, 0, 40, 16, 7, -2, 9, 16, 20, 4, 26, 2, -10, -13, 3, -19, 0, -11, 9, 24, 43, 7, 2, 11, -11, 13, 22, 9, 11, 17, 18, 4, 5},
    {5, 7, 15, 9, -4, 12, 2, 6, 20, 4, 2, 10, 9, 8, 20, 7, 13, 4, 17, 13, -2, 15, 1, 11, 20, 12, 13, -1, 4, -4, 5, 8, 7, 7, 3, 6, -13, 7, -17, 20, -3, 16, 3, 7, 35, -12, -18, -17, -1, 5, -4, 0, 3, 14, 8, -1, -4, 11, -30, 12, -14, 6, 2, 2, -16, 2, 3, 10, 50, 44, 33, 25, 16, 20, 10, -11, -29, -44, -31, -2, 6, 18, 6, 18, 3, 1, 35, 5, -13, 17, 30, 11, 20, 19, 31, 18, 25, 51, 31, 23, 47, 38, 33, 47, 40, -9, -40, -44, -21, -4, -11, -2, 13, 34, 50, 20, 16, 18, 8, 49, 37, 27, 7, 6, 36, 48, 44, 44, 19, -4, 9, 13, -5, -15, -23, -54, -47, 15, -1, 13, 13, 17, 29, 10, -4, -5, 30, 26, 23, -2, 9, 6, 30, 36, 33, 38, 50, 22, 18, 18, 0, -13, -27, -39, -28, -7, 3, -6, 13, 13, -29, -3, 10, 22, 23, -16, 11, 10, -2, 6, 12, 33, 32, 54, 53, 22, 24, 3, -2, -29, -36, -44, -27, -2, 10, -7, -24, 42, -14, 12, 42, 18, 0, -8, -5, 4, -7, 7, -1, 9, 13, 19, 40, 28, 13, 24, 15, -18, -30, -67, -27, 4, 13, 16, -13, 27, -24, -2, 0, -14, -3, -15, 3, 8, 0, -21, -18, -19, -1, 19, 46, 39, 58, 49, 13, 19, -25, -80, -77, -43, -2, 2, 1, 17, -26, 7, -7, -18, 15, 1, 23, -12, 2, -24, -25, -43, -14, 17, 36, 58, 50, 57, 51, 10, -16, -67, -85, -42, -17, -2, 11, -1, -21, 8, -10, 2, 22, -2, 11, -5, 0, 1, -41, -18, -6, -11, 32, 45, 58, 51, 54, 2, -34, -65, -103, -32, 4, -10, 6, -19, -42, -25, 3, -18, -3, -19, -9, -22, 9, 8, 0, -15, -1, 5, 16, 38, 41, 69, 72, 17, -30, -77, -61, -2, -10, -6, -9, -2, -10, -40, -39, -18, -26, -10, 0, -6, 5, -16, -15, 3, 10, 14, -2, 20, 11, 49, 38, -21, -58, -63, -9, 13, -22, -8, -16, 2, -26, -37, -61, -11, -6, 9, 27, -11, -4, -11, -10, 13, 14, 5, 1, 22, 12, 33, -13, -42, -33, -25, 7, 16, 0, 9, -7, 13, -33, -37, -39, -18, 25, 24, 27, 10, -9, -13, 5, 13, -1, 12, 11, 23, 7, -7, -11, -16, -18, -26, -18, 12, 20, 24, -11, 3, -18, -24, -19, 22, 36, 19, 7, -16, -3, -4, -16, 4, -17, 2, 38, 17, 0, 17, -28, -14, -10, -21, -9, 13, 11, 13, 20, 3, 33, 11, -4, 12, 35, -3, 0, 13, 8, -9, 23, 5, -18, -15, 28, 13, -1, -5, -8, -1, 18, -17, -3, 7, 16, 21, 6, 26, 27, 22, 0, 9, 20, 10, -9, 11, 14, 13, 12, 8, -20, -19, 4, 25, -5, -8, -30, -5, -9, -8, -2, 11, -1, 55, 30, 41, 35, 31, 10, 24, 19, 20, 8, -15, 24, 23, -5, 14, -8, 13, 14, 11, 15, 2, -11, 5, 26, 19, 14, 20, 2, 6, -7, -20, -20, -1, 19, 36, 13, 29, 1, 17, 25, -6, 0, 8, 18, 0, 22, 28, -1, -1, -13, -22, 6, 28, -16, 6, 1, 12, -1, -20, -10, 38, 28, 11, 7, 8, 0, 12, -1, 1, -16, 17, 16, 4, 19, 9, 14, 13, 0, 14, 13, 17, -7, -2, -5, -6, -15, 44, 31, 36, 22, 14, 20, 9, -6, -9, -12, -3, 3, 12, -8, -9, 12, 18, 6, 22, -11, 4, 19, 6, -7, 11, -7, 21, -5, 14, 40, 26, 21, 5, 33, 21, 24, 5, 21, 16, 15, 12, -8, 9, -1, 4, 24, 18, 8, 10, 13, -10, 32, 22, -15, -3, 19, 10, -4, 44, 39, 16, 19, 23, 15, 8, 4, 42, 5, 9, 1, 17, -7, 14, 33, 8, 10, 18, 9, -6, 37, 34, -18, 2, -5, 12, -8, 49, 55, 28, 21, 7, 7, -2, 27, 5, 13, 18, 10, 5, 18, 17, 8, 1, -13, -18, 7, 12, 38, 44, 6, 19, 3, 4, 7, 9, -25, 17, 13, 20, 20, 12, 14, 18, 22, 33, 11, 11, 16, -3, 16, 10, 33, 18, 16, 15, 7, 13, 8, 19, 4, 9, 7, 1, -17, 14, 0, 7, 42, 45, 67, 35, 12, 28, 27, -2, 14, 49, 31, 23, 42, 60, 10, 25, 10, -4, 16, 6, 8, 2, 9, 8, -23, -1, 32, 21, 36, 34, 12, 34, 47, 22, 33, 40, 7, -3, 22, 5, -6, 10, 9, 5, 18, 17, 15, 1},
    {-1, 1, 8, -2, 7, 18, 6, 15, 5, 4, 14, 3, -1, 10, 18, 18, -3, 6, 16, 3, 10, -1, 8, 2, 3, 4, 2, -3, 18, 15, 0, 12, 23, 9, 27, 16, 11, 18, 20, 31, 12, 28, 23, 16, -8, 3, 31, 30, 39, 20, 8, 27, 11, 17, 21, 16, 11, 7, 17, -23, -9, 23, 24, 32, 45, 56, 66, 51, 33, 28, 62, 58, -2, -16, -6, 3, 22, 2, 10, 12, 3, 14, -2, 19, 13, 14, 30, 21, 12, 34, 32, 22, 6, 28, 22, 2, 6, 23, -1, 9, 19, 11, 2, 20, -3, -32, -31, -13, 0, -5, 14, 8, 6, -8, 48, 9, 32, 29, 35, 11, 25, 27, 11, -2, -4, 15, -5, -25, -8, -3, -25, -18, -16, -56, -47, -10, -8, 18, 11, 4, 1, 11, 18, 8, 44, 33, 16, 24, 37, 4, 15, 11, 24, 6, -8, 1, -13, -26, -12, -2, -24, -14, -20, -31, -17, 33, 32, 13, 2, 19, -12, 19, 15, -8, -1, 12, 8, 9, 11, 19, 13, 12, 8, 15, 24, 30, 6, -4, 11, 4, -34, -12, -9, 4, -2, -2, 20, -3, -1, 11, 17, -14, 13, 17, 4, 9, 2, 25, 22, 18, 11, 24, 22, 16, 12, 5, 3, 22, -21, -18, -10, -26, -6, 7, -18, 54, -2, -2, 10, 10, 19, 33, 25, -9, 27, 17, 14, 9, 15, 4, 6, -9, -11, 21, 8, -6, 2, 4, -35, -13, 6, 25, 2, 25, -7, -6, 9, 32, 31, 28, 15, 18, 15, 28, 17, 14, 26, 16, -13, 8, -6, 11, -3, -17, -11, -29, 10, -1, 2, 25, 5, 21, 10, -21, 10, 59, 40, 35, 22, -3, 22, 25, 15, 47, 33, 8, 17, -11, 3, -6, -16, -5, 9, -10, 20, 23, -10, 13, 23, 31, 58, 18, 53, 58, 50, 45, 23, 29, 36, 29, 21, 27, 25, -8, 11, 15, 12, 12, 12, -7, -1, 20, -11, -13, -16, 30, 34, 22, 35, 28, 75, 46, 9, 22, 24, 2, 8, 6, -14, -22, -6, 3, 9, 21, 19, 0, 5, 2, 17, 3, -39, -26, -22, 22, 55, 30, 50, 32, 31, 16, -4, -4, -8, 15, 17, -6, -30, -51, -12, -4, 15, 17, 10, -11, -2, 30, 15, 11, -12, 19, 6, 19, -5, 15, 52, 43, 0, -11, 0, -15, -15, -2, 23, 3, -45, -20, 11, 22, 37, 20, 11, 7, 22, 19, 10, 27, 0, 6, 48, 3, -8, 7, -8, 11, -40, -29, 5, -29, -15, -12, -6, -46, -53, 3, 35, 21, 33, 38, 18, 18, -2, -5, 10, -9, 17, 3, 22, 19, 27, -12, 16, 3, 18, -13, -6, -22, -23, -29, -50, -35, -20, 20, 31, 34, 35, 19, 13, 3, -22, 4, 2, 2, 34, 17, 30, 32, 12, 11, 6, 4, -1, -2, -3, -20, -44, -51, -60, -34, 6, 20, 46, 48, 39, 33, 22, 6, -7, -20, 1, -5, 44, 76, 32, 10, 46, 5, -2, -27, -3, -5, -24, -31, -51, -35, -39, -16, 13, 32, 40, 54, 16, 30, 4, -1, -7, -16, 5, -16, 18, 47, 48, 9, 34, 41, 4, -30, -17, -32, -41, -29, -34, -12, 3, 25, 44, 20, 34, 20, 16, 8, 3, 1, 7, -18, -18, -1, 17, 30, 25, 3, 6, -6, -5, -13, -43, -54, -19, -13, 2, -10, 24, 24, 40, 11, 27, 15, 6, 13, 10, 12, -2, -17, -11, -6, 43, 65, 25, 15, 39, 13, -25, -12, -31, -24, -21, -19, 11, 12, 26, -8, 15, 23, 9, 8, 12, 14, 27, 31, 28, 0, -22, 12, 33, 23, -14, 4, 32, 20, -18, -17, -3, -19, -12, 7, 12, 16, 10, -7, -3, 8, 12, 2, -13, -3, 26, 17, 36, 0, -4, 21, 48, 8, -10, -7, 10, -2, -18, -51, -11, -11, 18, 16, 3, -3, -9, 5, 11, 11, 0, 15, -2, 11, 8, 22, 23, 12, 8, 49, 38, -3, 3, 4, 1, 11, 28, -32, -16, 16, 31, -15, -7, -20, -10, -1, 2, -1, -9, 4, 4, 4, 4, 18, 16, 16, 16, 27, 33, 15, 27, 20, 2, 21, -15, -11, 33, 34, 8, 1, 1, -31, -34, 10, 17, -2, 37, 7, 12, -4, -1, -3, -3, 14, 37, 23, 8, 20, 23, 8, 21, -2, 3, 3, 22, 7, 40, 59, 40, 20, 28, 18, 19, 14, 26, 19, 35, 33, 67, 86, 42, 44, 37, 22, 11, 26, 4, 6, 10, 12, 19, 7, 15, 14, 23, 11, 22, 9, 60, 36, 30, 31, 39, 9, 28, 45, 43, 46, 36, 19, 12, 32, -4, 12, 5, -4},
    {-2, 3, 4, 11, 15, 18, 9, 20, 17, -1, 7, 14, 4, 7, 28, 28, 15, 16, 10, 18, 18, 7, 19, 2, -1, -4, 8, 13, 19, 4, 10, -5, -6, -3, -16, -18, -8, 12, 4, 22, -2, -2, 12, 16, 18, -2, 4, 4, 5, 13, 12, -3, -3, -2, 16, 3, 0, 9, 42, 40, 38, 0, 0, 4, -9, -3, 4, 2, 2, -28, -15, 7, -3, 8, 33, 38, 23, 11, 6, 18, 5, 12, 3, -5, 1, 12, 8, 43, 38, -7, 19, 2, -21, -21, -17, -8, -28, -29, 7, 27, 8, 13, 29, 47, 27, 56, 68, 18, 16, 28, 7, 17, 8, 3, -6, 17, -21, -33, -52, -29, -38, -15, -21, -27, -13, 2, 9, -3, -6, 24, 34, 41, 23, 46, 15, 28, 13, 30, 21, 4, -3, 11, 11, -3, -18, -34, -42, -26, -16, 4, -4, 17, -12, 7, 6, 5, 5, 22, 53, 25, 15, 5, -1, -1, 24, 35, 26, 2, 5, -4, 46, -15, 9, 2, -33, -4, -28, -32, -4, -4, -2, 4, 13, 4, 15, 4, 21, 11, 7, 6, -6, -4, 22, 58, 39, -1, 28, -10, 36, 8, -10, 24, -1, -12, 3, 3, 3, 16, 16, 19, 20, 27, 39, 44, 14, 23, 23, 20, 23, -2, 7, 53, 43, -1, 52, 16, 29, -1, -27, -7, 13, -17, -23, 8, -8, 21, 20, 12, 34, 19, 31, 39, 30, -4, 24, 4, 12, 10, 39, 62, 26, -1, -2, 20, 40, -28, -18, -8, -22, -26, -30, -5, -3, 6, 15, 38, 12, -19, -19, -6, 8, 8, -18, 11, -6, 10, 31, 52, 19, 26, -2, 24, 10, -7, -17, 10, -27, -15, -4, 20, 7, 16, 11, 8, -16, -33, -49, -20, -11, -8, -19, -2, 1, -21, 5, 31, 32, 3, 23, 6, -13, -31, -11, -4, 12, 1, 5, 2, -14, -13, 24, 11, -36, -42, -58, -48, -15, -2, -26, -29, -26, -24, -20, -5, 1, -1, 28, 17, -9, -13, -2, 8, 26, -1, 0, 1, 8, 32, 38, 34, -22, -41, -49, -35, -8, 5, -19, -32, -29, -22, -38, -46, -20, 11, -18, 5, 15, -21, 31, 8, 19, 26, -5, 17, 29, 15, 29, 20, 3, -23, -37, -7, 9, 14, -4, -28, -11, 1, 12, -32, -26, 2, 6, -11, -12, -12, 25, 9, 2, 39, 14, 6, 18, 22, 32, 8, -24, -28, -30, 6, 2, -4, 11, -21, 8, 13, 23, 8, 11, 9, 23, -9, -27, -12, 22, 17, -4, 27, -1, 9, 12, 28, 31, -13, -37, -46, -4, 16, 20, -4, 16, 12, -14, 33, 67, 72, 38, -5, -1, -19, -26, -6, -5, 19, 0, 7, 11, 3, 20, 40, -1, -37, -21, 2, 18, 36, 39, 34, 28, 45, 28, 33, 9, 63, 24, 16, -3, -11, 13, 5, 23, -5, 21, 13, 15, 6, 11, 18, -28, -34, 9, 25, 44, 58, 52, 36, 35, 42, 51, 1, -10, 35, 16, 41, -1, -3, 21, 11, 25, 1, 8, 24, 4, 20, 8, -19, -40, -20, 25, 35, 48, 33, 20, 26, 28, 5, 22, 16, 15, -13, 1, -8, -2, 32, 40, 4, 20, -5, 15, 25, 34, 9, 7, 6, -13, 8, 25, 26, 11, 14, 11, 12, 20, 24, 37, 18, -2, -18, -13, 10, 2, 26, 41, 7, 21, 24, 29, 12, 30, 22, 21, 10, 29, 20, 1, 1, 5, 15, -4, 10, -4, 3, 13, 4, -12, -8, 2, 35, -15, 20, 39, 0, 22, 21, 26, -1, 19, 29, 25, 25, 20, 37, 2, 7, 13, -3, -1, 12, 21, 14, 1, 17, -1, 26, 42, 9, -6, -32, 41, 27, 14, 4, 3, 4, 16, 2, 8, 39, 49, 20, 25, 17, 10, 11, 19, 9, -9, 2, -15, 18, 24, 41, 56, 8, 17, 18, -3, 11, 27, 19, 33, 20, 0, 0, 25, 22, 16, -6, 26, 22, 25, 8, 3, 10, -1, 13, 27, 28, 7, 29, 33, 20, 19, 1, 13, 11, -11, 7, 1, 12, 22, 30, 2, 16, 30, 16, 5, 13, 25, 21, 10, 5, 21, 28, 12, 10, 41, 25, 9, 19, 20, 1, 16, 24, 28, 1, 12, -14, -5, -2, -8, 16, 15, 0, -26, -19, -12, 14, 34, 20, -7, 23, 45, 22, 51, 8, 25, 1, 17, -1, 21, 7, 30, 9, -18, -11, -11, 29, 14, 3, 35, 19, -7, 52, 31, 16, 6, 19, -20, -22, 20, 12, 1, 21, 8, -3, -1, 16, -3, 3, 23, 2, 7, 9, 3, 7, 25, 15, 9, 15, 0, -11, -5, 9, 0, -14, 10, -18, -12, -9, 5, 16, -3, 1},
    {0, 0, 18, 6, 21, 14, 6, 20, 10, 5, 7, 16, 21, 10, 11, 12, 13, 1, 6, 7, 15, 10, 8, 9, -2, 16, -4, 19, 3, -3, 12, 13, 24, 10, 27, 15, 18, 28, 33, 26, 37, 10, -12, 61, 45, 46, 37, 28, 36, 34, 26, 29, -5, 8, -4, 7, -2, 19, 34, -3, 4, 8, 25, 32, 20, -14, 10, 34, 38, 20, 11, 23, 9, 15, 3, 22, 25, 38, 45, 52, -8, -9, 12, 19, 16, 19, -10, 3, 40, 45, 24, 54, 45, 34, 16, 22, 25, 24, 15, 39, 14, 18, 14, 34, 22, 42, 40, 31, 3, -22, 23, 21, 16, 11, -22, 25, 31, 18, 4, 22, 40, 26, 28, -15, -12, 5, 31, 15, 25, 1, 20, 24, -1, 9, 11, 36, -12, -25, 13, 17, 12, -4, 15, 28, 50, 39, 58, 54, 19, 32, 25, -2, 16, 12, 14, -5, 16, 4, 14, 6, -9, 3, -10, -11, -31, -33, 22, 0, -3, 15, 27, 26, 35, 24, 20, 10, 8, 15, 3, 12, 9, -12, -3, -7, 0, -17, 10, -18, -9, -12, -35, -53, -33, -35, 3, 6, 21, 41, 13, 6, 43, -8, 5, 19, -28, 4, 0, -24, -29, -55, -19, -33, -42, -38, -18, -31, -41, -26, -64, -53, -18, -43, -19, -12, -11, 45, -28, -4, 28, -7, 1, 14, -14, -7, -9, -46, -27, -43, -47, -50, -49, -33, -25, -25, -25, -46, -48, -33, -12, -44, -38, -2, 22, 32, -6, -19, 45, 15, 3, 30, 0, -4, -30, -9, 0, 11, 8, -13, -17, -11, -17, -15, -3, 3, -8, -18, -11, 5, 25, 44, 5, 8, 26, 2, 23, 8, 1, 0, 14, 0, 28, 31, 46, 74, 35, 18, 10, 17, 28, 8, 22, 1, 6, 26, 44, 16, 26, 21, 7, 27, 43, 32, 35, 7, -3, -3, 5, 6, 21, 45, 50, 64, 44, 19, 35, 15, 33, 33, 12, 4, 4, 28, 60, -10, -41, 30, 26, 27, 19, 26, 27, 7, 0, 26, 25, 20, 28, 26, 13, 26, 32, 40, 39, 27, 43, 21, 28, 5, 8, 25, 13, 22, -9, 33, 39, 22, 38, 15, 4, 42, 32, -2, 3, 8, 5, 4, 3, 8, 7, 28, 27, 22, 26, 27, 41, 14, 26, 46, 44, 17, -39, -12, 26, 12, 47, 21, -16, 30, 16, -7, -4, 19, 20, -20, -29, 0, 18, 8, 16, 2, 18, 52, 28, 49, 35, 59, 23, -12, -40, 7, 3, 15, 27, 13, -28, 26, 28, -13, -9, -6, 1, -15, -7, 16, 32, 1, -14, -10, 24, 42, 40, 39, 41, 37, 30, 19, -55, -5, 16, 5, 12, 10, 6, 13, 19, 3, 7, 7, -10, -2, -21, 15, 14, 4, 6, -3, 25, 37, 17, 32, 21, 19, 27, 24, -36, -13, 18, 9, -10, 3, -6, 14, 22, 27, 12, -8, -10, -7, -17, 5, 8, 2, 9, 6, 25, 4, 11, 37, 37, 5, 17, 17, -9, -16, 47, 19, 8, 11, -7, 11, 5, 5, 22, 7, -13, 1, 12, 28, 16, 17, 6, 21, -2, 14, 8, 4, 0, 0, 12, 33, -7, 0, 6, 33, 13, 22, 13, 19, 10, 19, 8, 6, 1, -7, 15, 34, 21, 15, 20, 30, 10, -5, -19, -27, -25, 2, 8, 8, -4, 12, 16, -11, -20, 16, -4, 15, 20, 27, 12, 36, 21, 8, 14, 16, 17, 26, 26, -4, 30, -13, -14, -10, 0, -10, -15, -34, 15, 11, 23, 16, 31, 19, -23, -39, 14, -1, 14, 23, 17, 23, 8, 19, 20, 17, 25, 22, 24, -9, -14, -36, -30, -40, -54, -12, 2, -5, 24, 28, 16, -9, -21, -13, -1, -12, -5, 31, 12, 14, -1, -6, -3, 17, 7, 0, 7, -17, -5, -23, -29, -60, -73, 7, 13, 13, 10, 4, 24, 3, -6, -7, 0, -9, -21, 4, -8, -12, 8, -15, 2, 11, -17, -19, -16, -7, -10, -9, -37, -56, -34, 6, 32, 3, 3, 5, 8, 24, 20, 39, 20, 15, -23, -35, -6, -14, -13, 13, 30, 5, 20, 5, 7, 4, 2, -19, -20, -42, -24, 25, 37, 19, 20, 14, 13, 20, 9, 1, 22, 41, 16, -29, -26, -2, 29, 24, 33, 22, 36, 4, 4, 22, 19, -3, -9, -32, -14, 12, 14, 0, 11, 3, 18, -4, 13, 22, 15, 36, 10, 11, 13, 25, 9, 31, -2, 1, 25, 14, 20, 28, 14, 41, 41, 8, 1, 6, -1, 5, 6, 11, 20, 18, 1, 17, -6, 3, 10, -2, 21, -14, -13, 5, -11, -25, 13, 22, 7, 28, 25, 65, 73, 26, 17, 9, -3, -1},
    {7, -2, 11, 16, 14, 21, 21, 0, 15, -2, 9, 14, 4, -3, 17, 22, 9, 19, 5, 0, 21, -2, 10, 1, 10, 16, -1, 10, 13, 11, 10, 16, 22, 8, 0, 8, 11, 11, -7, 2, 10, 12, -38, -19, 4, 2, -7, -5, -9, -12, -9, 3, 0, 17, -2, 18, 11, 19, -14, 2, 12, 12, 15, 1, 22, 19, 19, 22, -3, -45, -35, -26, -20, -3, -9, 3, 11, 18, 13, 19, 18, 4, 21, 7, 3, 16, -26, -21, -19, 29, 37, 11, 36, 0, 13, 23, 25, 5, 49, 40, 19, 11, -19, 1, 4, -32, -46, -36, -4, -8, 14, 13, 0, 16, -38, -21, -9, 28, 16, 61, 41, 7, 25, 37, 67, 42, 37, 25, 0, 5, -18, -5, -16, -33, -40, -13, -11, -14, -22, 13, -1, 17, -9, -21, 5, 18, 18, 29, 59, 26, 37, 39, 19, -2, 0, 15, 4, 32, 34, 19, 10, -14, -28, -10, -27, -27, 9, 22, 14, 14, 8, -21, -11, 52, 36, 74, 68, 56, 31, 16, -3, -8, 5, 9, 18, 20, 22, 4, 0, 7, -14, -23, 25, -14, -2, -1, -27, 2, 29, -10, -5, 31, 46, 51, 88, 52, 20, 6, -21, 0, 26, 6, 22, 4, 0, -10, 17, 6, 17, 16, 31, 44, 38, -3, 22, -17, -8, -16, -11, -3, 27, 22, 39, 36, 25, 9, 2, -5, 15, 30, 31, 23, -1, 18, 18, 11, 40, 38, 8, 11, 15, -7, 9, 6, 15, 2, -20, -9, 23, 20, 45, 51, 35, 23, 4, 18, 14, 20, 38, 12, 18, 18, 24, 18, 33, 4, 3, 4, 19, 27, -4, -1, 6, 12, -1, -1, 12, 27, 24, 18, 20, 20, 7, -14, 21, 25, 25, 28, 27, 17, 7, 17, 13, 9, 5, 33, 36, -5, 15, 0, -41, -2, -27, -11, 25, -7, 4, 0, 5, 10, -9, -14, -5, 26, 37, 24, 14, 18, 0, 14, -8, -6, -4, 71, 26, -20, -31, -13, -24, -22, -32, -9, 11, -12, -20, -25, 9, 12, -8, 0, -16, 20, 22, 13, 1, -1, -17, -17, 4, -26, 15, 36, 2, -31, -30, -13, -31, -12, -25, -32, -33, -3, -23, -33, 14, 18, 21, 25, 14, 3, 39, 29, 6, -16, -37, -10, 12, 12, -4, -9, 13, 29, 9, -4, -31, -33, -6, -16, -21, 0, -21, 4, 12, 50, 48, 30, -15, 25, 30, 42, 36, -3, 11, 19, 38, 8, 25, 40, 25, 11, -12, -15, -6, -4, 15, 0, -14, -8, 18, 15, 44, 34, 34, -1, -2, 15, 32, 29, 26, 23, 42, 51, 25, 33, 25, 39, 16, 22, 12, -7, -11, -12, 21, -4, 6, 24, 51, 26, 40, 36, 14, -4, -4, 31, 25, 15, 12, 25, 46, 18, 18, 62, 54, 48, 3, 24, 4, -23, 10, -3, 0, 35, 37, 50, 74, 56, 17, -2, 10, -5, -8, 19, 20, 4, 5, 34, 25, 21, 33, 67, 54, 35, 11, 9, -22, -3, 1, 35, 19, 63, 92, 91, 76, 19, 9, -4, -13, -8, -9, 10, 8, -10, -31, 3, -16, 28, 82, 69, 43, 5, -18, -10, -23, -35, -17, 51, 19, 80, 77, 69, 37, -14, -13, -2, -1, 3, 15, 12, 23, -12, -18, -11, 42, 49, 71, 77, 23, -8, -11, -7, 11, 11, 35, 52, 65, 83, 35, 16, 22, 5, -25, -32, -7, 22, 38, 10, 14, 1, -15, -12, 43, 33, 30, 74, 43, 37, -9, -6, -16, 50, 28, 33, 57, 58, 22, 8, 21, 12, 3, -13, -5, 12, 23, 13, 8, 12, -6, -3, 39, 21, 39, 65, 41, -2, 27, -2, -9, -4, 36, 42, 58, 11, 7, 17, 36, 15, 10, 16, 27, 10, 6, 0, 23, -9, -12, 8, 17, 21, 16, 30, 23, -13, -6, 11, 4, 10, 20, 58, 30, 31, 28, 9, 21, -5, -2, 12, -13, -10, 5, 5, 20, 3, 10, 21, 27, 48, 41, 68, 22, 3, -2, 3, 7, 7, 7, 46, 34, 22, 38, 21, 26, 11, 21, 2, -9, -7, 1, 1, 41, 37, 31, 30, 36, 42, 27, 56, 35, -9, -9, 13, 7, 4, 49, -14, -1, 54, 28, 11, 7, -11, 13, 17, -8, 6, -14, 18, 22, 22, 15, 3, 15, -5, -9, 38, 24, 39, 20, 5, 21, 14, 17, 4, 22, 36, 30, 7, -11, 15, 20, 24, 19, 27, 24, 18, -6, 8, 23, -28, -4, 3, -19, -9, 18, -7, 21, 5, 9, 9, -4, 13, -9, -1, 11, 36, 24, -6, -11, -5, 33, 2, -8, 34, 8, -6, 13, -22, -23, -33, -12, -14, 8, -2, -1, -4},
    {-1, 12, 9, 17, 21, 1, 20, 6, 17, 19, 1, 7, 18, 18, 3, -8, 8, -1, 10, 18, 20, 16, 17, 12, 12, 10, 21, 20, 21, 17, 9, -1, 46, 29, 24, 26, 5, 21, 25, -14, -12, 0, 2, 0, -34, -1, 41, 35, 32, 35, 15, 4, 5, 19, 17, 11, 9, 18, 45, -14, 4, 28, 14, 10, 26, 1, -3, -11, -4, -4, 39, 12, 22, 35, 38, 45, 51, 47, 43, 33, 17, 18, 19, 18, 0, 20, -19, -4, -14, 17, 33, 29, 13, -4, -14, -9, -9, 8, 12, 11, 30, 30, 39, 51, 5, 18, 30, 59, 23, -11, -1, 15, -3, 7, -10, 6, 23, 13, -3, -16, -13, -22, -43, -32, -40, -17, -25, 4, 26, 32, -4, 0, 14, 7, 24, 32, 20, -1, -26, 17, 20, 16, 18, 0, -39, 17, 28, 24, 19, -5, -31, -28, -12, 6, -5, 14, 7, 26, 34, 11, 0, -8, -4, 14, 9, -34, -12, 2, 0, -14, 7, -12, -12, 23, 23, 11, 17, -11, -9, -1, 29, 15, 21, 38, 35, 48, 22, 16, 25, 16, 11, 2, -33, -35, -28, -1, 29, -19, -6, 4, -9, -16, 1, -8, -6, 19, 13, 16, 8, 22, 35, 40, 33, 36, -3, 12, 32, 18, 32, 12, -18, -22, 7, 5, -12, -1, 4, 0, -8, 13, 21, 3, 26, 14, 5, 3, 2, 19, 11, 20, 12, -6, -12, -28, 7, -1, -4, -6, 7, -5, -22, -11, 23, 19, -5, -27, -10, -29, -26, -16, -17, -5, 1, 5, 15, 17, 23, 11, -14, -30, -38, -11, -18, -9, -14, -13, -17, -14, -5, 21, 8, -2, -7, -12, -25, -26, -11, -18, -7, -31, -23, 19, 8, 23, 14, -8, -8, -25, -12, -19, -18, -17, -13, -36, -51, -23, -28, -7, 15, -17, 19, 13, -5, -9, -14, -3, 8, -7, 26, 26, 44, 17, 8, 22, 25, -9, -12, -4, -15, 19, 14, -20, -48, -42, -44, 18, 17, 11, 34, 3, -4, -28, -6, 0, 3, 11, 30, 42, 18, 15, -6, 40, 25, 2, -8, -16, 7, 2, -9, -5, -37, -59, -48, 15, -23, 9, -5, -1, -1, -13, 9, 12, -1, 19, 22, 26, -8, 1, 5, 39, 35, 4, -16, -12, 14, 10, 5, -24, -45, -67, -34, -19, 6, 1, 0, 7, 15, -18, 1, 20, 12, 25, 29, -2, -9, -18, -7, 40, 40, 17, 12, -2, 10, 22, -4, -23, -30, -50, -33, -4, 1, 7, 3, -17, 1, -17, 2, 19, 19, 11, 29, -10, -17, -30, -9, 35, 33, 24, 13, 4, 12, 31, 18, 17, -27, -55, -52, 4, 14, 3, -25, -21, -3, 19, 11, 19, 25, 5, 10, 11, -18, -16, 7, 38, 28, 30, 8, -12, 19, 22, 12, -1, -23, -61, -85, -14, 11, 1, -27, -13, 15, 20, 7, 23, 31, 20, 22, -14, -22, -5, 41, 52, 41, 16, 10, -9, -8, 7, -11, -13, -25, -46, -46, -38, 20, -6, -11, 16, 12, 30, 8, 14, -5, 19, 10, -29, -22, 21, 45, 26, 14, 12, -16, -16, 0, 2, -8, -4, -9, -20, -20, 10, 1, 3, 13, 8, 39, 21, -7, -2, -32, -31, -22, -15, 12, 33, 25, 19, 20, 10, 1, 4, -1, 17, -27, -31, -32, -5, -18, 13, 20, -3, 2, -12, -1, 16, -18, -4, -27, -62, -34, -12, 17, 34, 36, 16, 16, -4, -7, -21, -25, -22, -43, -18, -1, 27, -8, 28, -8, -13, -11, -9, -8, -34, -17, -12, -29, -23, -22, -5, 20, 24, 28, 21, 16, 8, -15, -26, -24, 4, -31, -23, 8, 13, -19, 16, -1, -11, 9, -9, -14, -41, -62, -28, -13, -1, 7, -8, 23, 19, 26, 5, 15, 2, -14, -29, 1, -9, -21, 8, 6, 7, -1, 15, 14, 13, -2, -4, -20, -39, -55, -41, -27, -2, 4, 13, 13, -11, -13, -16, -14, 0, -25, -28, -20, -6, -23, 4, -4, -9, -5, 2, 10, -4, 10, 2, -21, -6, -40, -32, -10, 8, 32, 7, -5, -9, -5, 16, 2, 15, 13, -18, -33, -26, -20, 6, -6, 0, -4, 15, -5, 8, 13, 17, -22, -8, 7, -10, 5, 21, 24, 24, 14, 11, 16, -4, -12, 17, 19, -6, -11, -7, -12, 21, 17, 11, 8, -5, 13, -5, 15, 13, 34, 27, 31, 24, 44, 75, 46, 29, 36, 29, 84, 58, 43, 48, 44, 35, 7, 9, 16, 12, 2, 23, 8, 15, 7, -1, 0, 10, 21, 3, 26, 22, 22, 25, 64, 54, 35, 46, 65, 58, 38, 20, 21, 32, 29, 40, 24, 4, 21, 0, 20, 13},
    {20, 18, -2, 1, 15, 3, 5, 19, -3, -1, -3, 19, 2, 4, -11, -16, 7, 11, -2, 15, -3, -4, 10, 0, 13, -1, -1, 13, 3, 2, 2, 5, -6, -7, -16, -2, -12, 3, -5, 3, -1, 12, 26, -10, -13, -9, -2, -18, -19, -14, -6, -1, 18, 10, 17, 12, 0, 2, -22, -21, -11, 8, 7, -21, -21, -26, -50, -50, -46, -32, 2, 10, -27, 16, 40, 0, -13, -8, -19, -9, 9, 3, 21, 13, 6, 12, -17, -12, 0, 2, -16, -30, -44, -44, -42, -37, -39, -29, -4, -1, -3, -20, 22, 27, 2, 23, 28, 1, -8, 0, -26, 18, -4, 2, 3, 5, 1, 17, -7, -5, -19, 1, -10, -27, -10, -14, -8, -15, -20, -5, 13, 16, -3, 9, 5, 14, 48, 24, 23, -10, 19, -5, -11, -9, 2, 2, -8, -3, 14, 18, 9, 20, 20, 3, 7, -4, 0, 8, -2, 17, 23, 9, 15, 14, 1, -1, -24, 1, -3, -8, 42, -16, -21, -4, -2, -14, 27, 37, 3, 8, -1, 0, 10, 14, 45, 38, 13, 37, 17, -1, 11, 21, 9, 13, -3, -17, -27, -21, 6, -31, -24, -4, -25, -16, 30, 9, -2, -3, -4, 8, 2, 45, 39, 23, 15, 22, 18, 4, 21, 26, 21, 9, 17, -23, -8, -2, 7, 1, -8, -5, -12, -2, 32, -9, -1, 2, 8, -1, 12, 26, 5, -8, 26, 29, 10, 12, 9, 49, 57, 62, 48, 24, -2, -14, 20, -10, -21, -17, -7, -9, -1, -3, 3, 0, 4, 1, -23, -34, -29, -7, 22, 14, 29, 11, 32, 52, 76, 51, 31, -31, -10, -5, -20, -5, 39, 4, 6, 16, 20, 35, 36, 13, 14, -33, -22, -28, -39, -21, 8, 14, -4, -6, 10, 33, 63, 51, 37, -2, 12, -43, -46, -21, 4, 36, 18, 20, 34, 51, 38, 32, 14, 8, -5, -14, 1, -4, -1, 15, -27, -26, 3, 6, 38, 50, 66, 5, 9, -3, -36, -10, 44, 38, 26, 39, 36, 30, 47, 27, 33, 38, 6, 24, 1, -8, 14, 3, 15, 10, 5, 6, 17, 13, 21, -30, -24, 5, 2, -22, 44, 27, 3, 22, 34, 37, 26, 36, 34, 22, 21, 28, 19, 16, 5, 5, 31, 12, -3, -20, -19, -16, 8, -24, 6, 2, -18, 10, 34, 10, 19, 27, 26, 21, 30, 15, 14, 35, 42, 32, 11, 37, -5, -8, -4, -3, 7, -21, -6, -6, -24, -14, 14, -2, 8, 25, -5, -3, 3, 6, 24, 8, 16, 16, 27, 36, 38, 22, 28, 12, -8, -33, -32, -8, 5, 21, -19, -20, 17, 6, 10, 15, -24, 20, -26, -20, 29, 12, 17, 1, 26, 21, 48, 43, 24, 38, 23, 6, 10, 2, -14, -4, 1, 11, -17, -31, -13, -6, 17, -5, -2, 14, -13, 2, 18, 20, 22, 32, 36, 34, 55, 61, 33, 26, 12, -5, 1, -3, -10, 2, 2, 0, -18, -60, -23, 11, 0, -9, 0, 38, 10, 17, 23, 23, -3, 7, 3, 15, 5, 15, 7, 13, 3, -13, -32, -5, 9, 18, -8, -8, -5, -38, -40, -24, -32, -25, -8, 14, 25, 13, 22, -4, -12, -26, -18, -38, -33, -26, -29, 0, 3, 11, -14, 3, 1, 7, 8, 30, 2, -10, 3, -21, 2, -6, 16, 6, -11, -8, 1, -10, -33, -44, -55, -39, -33, -16, -19, 10, 16, 19, 2, -11, 11, 28, 34, 34, 1, 14, 8, -4, -15, -9, -12, -38, -1, -2, -1, -11, -12, -23, -32, -5, -9, -4, -13, 10, 5, 5, -14, 13, 19, 34, 19, 22, -14, 11, -23, 19, -9, -17, -7, -28, 6, -13, 5, 10, 12, 7, 4, 18, 12, 10, 8, 2, -17, -3, 19, 14, 31, 44, 21, 30, 36, 26, 9, 3, 11, 15, -1, -6, -16, -13, 14, 4, 35, 17, 23, 17, 6, -5, 18, -10, 1, 8, 32, 52, 48, 49, 28, 33, 36, 18, 14, 9, 16, -3, -7, 11, -8, -30, -4, 9, 30, 24, 21, 37, 29, 17, 8, -9, 18, -16, 27, 38, 63, 27, 35, 52, 0, -35, -18, 19, 0, 18, 24, 17, -15, -34, -8, -14, -30, -2, 26, -6, -27, -5, -1, 27, 4, 22, 13, 5, 41, 18, 30, 56, 45, -8, 12, 3, 18, 11, 8, 23, 33, -5, -11, -10, -11, -17, -38, -15, 13, -13, -13, 23, -10, -7, -8, -21, -12, -27, -14, 7, 1, -10, 6, 19, -2, 18, 15, 8, 6, 13, -6, 12, 2, 7, -21, -1, 6, -11, -36, 35, 9, 1, -7, 2, 9, -31, -17, -16, 16, -1, -5, -2},
    {7, 1, 1, 8, 11, 13, 7, 0, 18, -2, 7, -3, 14, 8, 11, 13, 5, 0, 20, -1, 1, 7, 16, 1, -4, 9, 13, 20, 14, 11, 2, 9, 6, -4, 9, 4, -15, 15, 11, 11, 2, -8, 14, -4, 9, 5, 15, 15, -7, 10, 4, 2, 19, 7, 19, -4, 6, 18, -13, -13, -6, -6, 2, -11, 26, 41, 61, 41, -6, -30, -32, -32, -28, 21, 28, -6, 0, -12, -22, -2, -2, 4, 10, -5, 1, 21, 38, 35, 33, 17, 27, 21, 50, 86, 82, 52, 44, 16, 17, 18, 8, 7, 5, 38, 41, 41, 33, 38, 44, 25, 18, -5, 21, 6, 30, 37, -3, 21, 18, 44, 31, 40, 25, 31, 27, 21, 8, 30, 20, 17, 30, 27, 29, 40, 35, 32, 68, 56, 15, 12, 13, -1, 21, 35, -11, 19, 4, 17, 22, 5, 21, 31, 24, 22, 20, 6, 28, 35, 33, 19, 15, 33, 29, 48, 65, 76, 12, 4, 10, 12, 42, 25, 3, -3, -2, 7, 9, 18, 34, 31, 27, 32, 12, 29, 24, 44, 30, 25, 31, 22, 17, 29, 51, 47, 31, 24, -25, 18, 32, 23, 1, 3, -13, 12, 15, 30, 18, 13, 34, 27, 46, 34, 36, 32, 42, 26, 31, 35, 26, 14, 24, 20, 21, 20, -31, 16, 24, 32, 21, 7, -12, 13, 29, 19, 0, 4, -2, 6, 21, -3, 4, 10, 17, 3, 3, -1, 6, 13, -6, -14, 27, 2, -20, -2, 29, 23, 32, 3, 8, 24, 8, 9, -8, -25, -38, -54, -32, -36, -31, -43, -12, -26, -17, -27, -24, -10, -41, -16, 7, 16, -1, 7, 41, 28, 26, 4, 3, -2, 10, -5, -57, -63, -45, -52, -47, -51, -23, -30, -31, -45, -48, -37, -42, -40, -47, -10, 20, 14, 9, 16, 13, 25, 19, -7, -1, -12, -24, -47, -35, -53, -12, -2, -4, -20, 9, -12, -8, -23, -43, -47, -61, -36, -47, -38, 1, 11, -31, -4, 20, 1, -12, -15, -12, -34, -48, -28, -21, 1, 14, 13, 8, -6, 6, 5, 25, 16, 25, -17, -46, -48, -38, -36, 23, 35, -4, -7, 2, 39, -40, -23, -29, -36, -45, -11, 9, 7, 5, 18, 5, -6, 5, 14, 4, 15, 15, 21, 8, -13, -50, -19, 12, -5, 33, 19, 4, 23, -52, -35, 11, -1, 13, 24, 4, -10, 11, 9, 20, 2, -2, 6, -2, -3, 25, 20, 8, -21, -17, -18, 12, -3, 13, 21, 4, 58, -62, -30, -11, -17, 1, -10, 13, 3, -7, 13, -7, 9, -4, 5, 8, -1, 39, 25, -11, -9, 20, 1, 39, 22, -2, 9, 53, 55, -21, -12, -29, -42, -44, -15, -3, -9, 13, 20, 15, -3, -2, -7, 12, 19, 4, 6, 2, -2, 28, 32, 24, 25, 12, 27, 56, 59, -8, -21, -51, -32, -41, -36, -27, -43, -40, -10, -17, 0, -22, 2, 7, 16, -1, -10, -27, -15, 12, 43, 33, 14, 2, 36, 41, 77, 17, -13, -19, 3, -21, -16, -27, -33, -54, -35, 11, -14, 18, 28, 20, 11, -3, 7, -23, -24, -1, 38, 21, 3, -18, 41, 57, 36, 22, 0, 7, 20, -8, -13, -5, 11, -12, -6, 5, 11, 2, 21, 12, -7, 7, 12, -23, -15, 18, 27, 5, 8, 5, 29, 45, 43, 15, 17, 24, 11, 20, 12, 13, 37, 37, 39, 40, 20, 29, 25, 16, 14, 8, 16, 11, 33, 11, 17, 26, 25, -1, 34, 41, 57, 35, 2, 20, 32, 43, 30, 35, 44, 60, 43, 31, 43, 43, 29, 33, 17, 27, 22, 35, 28, 29, 23, 21, 2, -10, 17, 54, 64, 23, -2, -13, 18, 22, 29, 26, 44, 26, 24, 36, 28, 35, 28, 32, 35, 13, 10, 20, 47, 1, 0, 17, 11, 18, 2, 33, 65, 53, 20, 13, 16, 22, 20, 39, 26, 13, 19, 7, 14, 17, 16, 22, 23, 52, 21, 29, 25, 12, -14, 22, -2, 16, 7, 20, 56, 62, 38, 30, 60, 48, 33, 12, 9, 21, 25, 37, 16, 32, 36, 49, 20, 4, -1, 41, 23, 56, 15, 29, 18, 15, 11, -2, -2, -1, 26, 55, 60, 66, 51, 57, 30, 43, 16, 8, 13, 32, 24, 59, 37, 17, 5, 45, 22, -1, 7, 23, 7, 2, 14, 11, 4, 9, 6, -12, -6, -9, -9, 46, 37, 13, 6, -24, -20, -31, 18, 35, 45, 34, 28, 32, 3, 1, -5, 5, 11, -1, 3, 2, 21, 17, 20, -4, 11, -9, -5, 13, -8, -10, 8, -9, 0, 9, 14, 0, -12, 5, -27, -35, 24, 20, 18, 21, 17},
    {8, 9, -4, 13, 8, 4, 20, -3, 5, -5, 7, -2, 15, 6, 12, -9, 5, 12, 21, 9, 6, 3, 6, 6, 0, 7, -4, 11, 4, 15, -2, 1, 8, 14, 32, 17, 14, 14, 24, 44, 42, 39, 19, 56, 17, 42, 39, 22, 26, 31, 19, 4, 19, -5, 15, 17, -1, 9, 31, 32, 56, 23, 11, 25, 0, 4, 4, 35, 29, 67, 25, 30, 38, 26, 20, 48, 50, 32, 7, 25, 7, 10, 10, 0, -2, 16, 37, 34, 24, -3, 12, 16, -10, -14, -13, -7, 13, 42, 33, 17, 14, 26, 46, 24, 4, -12, -41, -19, 20, 36, -8, 17, 1, 15, 32, 15, 8, 7, -2, -22, -24, -26, -11, -4, 4, -5, 6, 13, 13, 26, 25, 7, 9, 18, 8, -46, -28, -29, 7, 18, -2, 1, 5, -17, -41, 22, 21, 0, 6, 11, 6, -2, -2, 18, 18, 18, 13, 24, 35, 15, -15, -11, -24, -42, -31, -19, -13, 9, 21, 2, 17, 3, -27, -2, 14, -13, 11, 6, 24, 21, 5, 33, 32, 37, 45, 26, 30, 26, 23, 42, -10, -38, -47, -51, -17, 3, 32, 13, 5, -20, -32, -8, 12, -2, 1, 14, 26, 17, 16, 19, 26, 13, 19, 29, 5, 19, 27, 18, 5, -30, -17, -7, -38, -24, 36, 42, 13, -25, -37, 10, 14, 11, 31, 15, 24, 8, 12, -6, 25, 14, -3, 4, 10, -11, 16, 4, 0, 2, 2, -43, -43, -10, 28, 48, -4, -14, -4, 28, 38, 41, 35, 33, 21, 22, 19, 16, 10, 29, 10, 27, 19, 15, 0, -9, -17, 11, 13, -41, -57, 2, 5, 39, 32, 4, -1, 9, 16, 19, 36, 34, 23, 24, 22, 5, 12, 20, 33, 41, 40, 20, 22, 19, 20, 14, 20, -5, -33, -5, 31, 37, 78, 44, 27, 16, 15, 9, 17, 24, 42, 36, 9, 14, -1, 22, 37, 42, 34, 13, 33, 30, 20, 33, 21, -19, -6, 7, 36, 16, 47, 40, 18, -6, 10, 3, 23, 15, 20, 30, -14, -31, -42, -3, 26, 29, 40, 14, 6, 18, 41, 57, 24, -28, -22, -10, 15, 23, 50, 22, 47, 28, 21, 20, 21, 17, 22, -20, -38, -58, -35, -1, 1, -5, 17, 0, 9, 19, 21, 39, 27, -29, -32, -6, 2, 26, 59, 7, 19, 10, 12, 7, 13, 7, -12, -29, -26, -42, -38, -2, -16, -1, 0, 13, 22, 30, 42, 46, 26, -21, -23, -13, -13, 36, 9, -11, -1, 28, 17, 10, -5, -35, -35, -40, -37, -37, -15, 12, -19, 5, -10, 0, 48, 29, 41, 16, 13, -4, -26, -5, 28, 2, 21, -36, 7, 35, 2, 8, 0, -8, -39, -48, -33, -26, -36, 3, -24, -11, -4, 1, 4, 18, 2, -5, -17, -23, -53, -1, 7, 29, -23, 11, -20, 15, -6, -13, 5, 5, 8, -5, -23, -28, -9, 12, -5, 5, 18, 27, 16, -5, 16, -24, -14, -21, -24, 31, 53, 21, 14, -20, -28, -15, -18, 9, 16, 24, 41, 18, -23, -39, -6, 10, 12, 43, 22, 26, 8, 4, 32, -30, -11, -21, -16, -23, 23, 47, 31, -21, 2, -16, -16, 3, 21, 32, 19, 22, 4, -17, -3, -6, 18, 10, 7, 30, 14, 27, -5, -6, 33, 12, -34, 5, 10, 3, -27, -41, 0, -15, 8, -19, 6, 13, 30, 46, 43, 23, 3, 5, 6, 14, -22, 1, 4, 21, 0, 12, 43, 50, -34, 28, 21, -2, -31, -34, -10, 3, 4, 7, -9, -4, 28, 25, 33, 17, 13, 21, 24, -11, -17, -4, 19, 13, 14, -16, 13, 43, 43, 2, 18, 12, -24, -17, -37, 0, -1, 16, 0, 1, 9, 8, 16, 19, 22, 18, 28, 7, 7, -14, 5, 5, 13, 28, 0, 10, 25, 0, -4, -2, -4, -46, -17, -7, 3, 23, -19, 16, 13, 21, -7, 6, 20, 26, -9, -1, -8, -15, -16, 17, 8, 38, 48, 1, -9, 16, 5, 11, 5, -1, 42, 69, 42, 33, 36, 28, 29, 1, -2, -25, -18, -14, -16, 15, -38, -27, -21, 9, -7, 24, 14, -12, 14, 9, 11, 20, -2, 22, 53, 61, 27, 25, 21, 5, -13, 32, 24, -4, -4, -19, -26, -41, -16, 3, 15, 54, 45, 26, 23, 4, -7, 2, 18, 9, 13, 0, -17, -14, 13, 43, 31, 22, 38, 25, 16, 39, 58, 15, 63, 39, 45, 38, 76, 86, 68, 10, 45, 40, -3, -4, 18, 3, 1, 20, 21, 14, 22, 37, 31, 29, 41, 27, 19, 47, 34, -1, 21, 36, 38, 8, 43, 24, 38, 5, 20, 15, 11, -3},
    {8, 6, 15, 1, -1, 13, 9, -1, 10, 13, -4, 20, 21, 34, 31, 31, 6, 4, 11, 6, 21, -1, -2, 13, 9, 8, 18, 9, -5, -1, 17, 0, 41, 6, 5, 23, 15, 24, 40, 10, 11, 9, -1, 36, 15, 13, 35, 51, 44, 14, 13, 22, -3, 8, 3, 0, 16, 21, 48, -28, 23, 23, 26, 43, 45, 68, 30, 11, 18, 84, 64, 88, 50, 29, 17, 45, 44, 42, 37, 38, 32, 23, 17, 7, 14, 20, 2, 25, 28, -8, 4, -19, -7, 20, -7, -19, -5, 23, 10, 38, 46, 29, 6, 11, -12, 25, 34, 34, 17, 29, -11, 13, 3, 12, -1, -22, 32, 30, 2, -12, 6, 14, 11, -13, 4, -11, -1, 2, 2, 28, 27, 25, 42, 44, 24, 78, 57, 50, 18, 17, 2, -5, 27, 1, -1, 18, -1, -8, 7, 27, 10, 1, 17, 23, 8, 11, 12, 3, 16, 13, 42, 55, 40, 65, 82, 58, -9, 19, 13, 10, -3, -21, -26, -47, -1, 3, 2, 11, 15, 5, 19, -8, 20, 3, 0, 2, -5, 7, 13, 28, 27, 34, 36, 51, 14, 0, 18, 20, -17, -20, -43, -36, -25, -18, 3, -1, 12, 3, 10, 23, -10, -2, 9, 18, 5, 1, 17, 22, 20, 7, 28, 34, 44, 14, 9, 15, 9, -14, -49, -10, 8, 15, 15, 12, 25, 33, 30, 31, 15, 15, -4, -8, 1, -6, 9, 14, 24, 14, 13, -9, 43, -10, 6, 9, 14, 11, -32, -8, -6, 11, 4, -5, 2, 22, 22, 36, 36, 4, -8, -13, -12, -11, -18, -6, 5, 4, -17, -33, 37, 9, 4, 0, -1, -10, -24, 6, 16, -10, 4, -2, 16, 7, 7, 39, 31, 6, -23, -41, -42, -9, -29, 4, -4, -24, -12, -9, 13, 27, 5, -17, 16, -12, -12, -7, 3, 5, -17, 17, -7, 9, 22, 19, 24, 17, -19, -47, -42, -15, -34, -26, -20, 5, 5, 22, 1, 50, 27, 0, 22, -14, -28, -38, -12, 0, 5, 21, -11, -27, 0, 5, 8, 9, 7, -26, -42, -31, -19, -8, -1, -4, 35, 49, 32, 49, 41, 17, 24, 0, -27, -33, -25, -18, 23, -9, -8, -13, -21, -3, 18, 31, 26, -22, -26, -5, 7, 32, 16, 27, 7, 5, 63, 30, 29, -14, 6, 12, -16, -39, -27, -23, 2, -6, -11, -20, 4, 19, 44, 35, 22, -13, -8, 18, 5, 20, 25, 19, -6, 7, 56, 35, 24, -6, -2, 25, -27, -37, -15, -10, -2, 5, -2, 25, 24, 60, 50, 22, 22, -13, -2, -10, -1, 8, 30, 30, 18, 25, 57, 35, 20, -10, 11, 20, -32, -20, 1, -3, 4, 9, 35, 36, 48, 54, 52, 35, 25, -16, -13, -7, 17, 5, 17, 11, 13, 75, 59, 49, 15, 8, 2, 26, -37, -37, -19, -6, 9, 19, 34, 61, 46, 17, 34, 20, -13, -24, -18, -1, 30, 38, 31, 25, 52, 86, 69, 29, 12, 0, -1, 3, -13, -34, -21, -3, 15, 35, 40, 39, 14, -3, 6, 21, -8, -41, -8, -9, 26, 33, 21, 5, 25, 77, 64, 33, 37, 3, 25, -17, -13, -30, 3, 12, 6, 53, 51, 51, 3, -3, 5, 10, 15, -6, -16, -16, 4, 0, 8, -7, 8, 69, 44, 26, 1, 9, 26, -31, -21, -12, 11, 7, 21, 34, 37, 31, 30, -19, 2, 7, 17, 8, 5, 16, 15, 14, 12, -2, 19, 18, 29, 21, 50, 7, -16, 5, 21, 12, 7, 29, 30, 35, 10, 18, 32, -8, 25, 15, 7, 15, 9, 31, 20, 36, 9, 31, 28, 12, -16, 7, 36, 49, 17, 4, 28, 54, 26, 15, 48, 37, 3, 29, 13, -3, 4, 8, 6, 6, 17, 26, 35, 43, 25, -13, -7, -8, -33, 6, 7, 15, 5, -27, 18, -9, -11, -12, -7, 3, 10, -13, 5, 1, -5, 0, 0, -17, 8, 26, 28, 16, 16, -30, -45, -43, -27, 20, 3, 15, 13, -62, -49, 5, 1, -11, 7, 12, 13, 12, 2, 9, 8, -13, -13, -37, 7, -14, -37, -30, -43, -38, 13, 29, 12, 19, 15, 7, 18, 40, 9, -10, -11, 9, -21, -9, 2, 19, -12, -51, -29, -36, -77, -74, -50, -67, -58, -35, -36, 9, 17, 7, 32, -4, 3, 8, 6, 16, -26, 0, -3, 5, 31, 7, -21, -21, -32, -43, -44, -21, -33, -36, -30, -17, -27, 1, -3, -3, -6, 22, 17, 9, -3, 18, -2, 14, 23, 9, 17, -4, 13, 2, 18, 0, 0, 1, 8, 20, 9, 0, 10, 22, 6, 5, -2, 11, 17, 11, 4, 15},
    {-4, 13, 1, 18, 1, 17, -4, 2, 8, 12, 15, 10, 19, 29, 42, 54, 1, 0, 19, 1, 14, 1, 2, -5, 18, 0, -1, 1, 7, 13, 13, -4, 36, 12, 37, 29, 13, 21, 24, 43, 47, 35, -9, 12, 47, 44, 30, 34, 34, 33, 8, 4, 7, 0, 19, 4, 8, 8, 31, 42, 54, 23, 26, 31, 74, 66, 61, 71, 49, 42, 43, 26, 7, 12, 11, 2, 34, 40, 40, 30, 23, -7, 19, 16, 14, 17, 1, 24, -17, 24, 16, -5, 36, 59, 46, 45, 25, 42, 20, 31, 23, 22, 7, -3, -13, -9, 10, 19, 6, -8, 3, 14, 15, 11, -22, -21, 19, 15, 11, 15, -3, 23, 8, 13, 9, 3, 1, 11, 9, 13, 3, 1, 9, -13, -12, -30, -43, -32, -16, 42, 18, -5, 7, -23, 7, -6, -16, -23, -22, -46, -10, 2, 0, 16, 9, 15, 29, 20, 17, 30, 11, -1, -26, -21, -37, -7, 35, 47, 11, 4, 3, 7, 17, -28, -48, -33, -54, -30, -27, -8, 7, -14, -2, 30, 36, 36, 37, 15, 0, 10, -4, -21, -33, -20, 10, 39, -15, 0, 2, -9, 26, -6, -27, -54, -50, 2, 9, -6, 13, 8, 1, 25, 25, 30, 21, 18, 6, 16, 13, -17, -6, 1, -4, 41, 29, 10, 21, 11, -10, -12, -43, -23, -6, 23, 25, 6, -1, -6, 18, 17, 7, 28, 15, 30, 16, 11, -3, 8, -11, -14, -13, -19, 19, -11, 1, 31, 4, -39, -14, -3, -1, 4, 23, 5, 6, 4, 8, 5, 11, 3, 23, 29, 16, 8, 11, 13, -11, -44, -26, -33, 18, 7, -13, 27, 23, 20, 16, 8, 7, 8, -9, 0, 7, 9, 27, -26, -16, -22, -6, 18, 0, 17, 6, 34, 14, -67, -25, -28, 8, 38, 29, 5, 5, 47, 32, 26, 16, 25, 9, 2, 21, -1, 3, -34, -41, -27, -15, -8, 6, 31, 22, 38, 19, -15, -17, -38, -5, 3, 5, 3, 18, 17, 29, 10, 19, 31, 7, 6, -16, 0, -5, -41, -34, -16, -11, 4, 26, 30, 47, 69, 62, -1, -30, -5, -26, 5, 5, 8, 13, 14, 11, 9, 22, 29, 39, -6, -21, 8, -2, -5, 1, -19, 13, 21, 10, 43, 50, 64, 51, 30, 26, 31, -8, -7, -20, 28, 0, 7, 22, 23, 12, 9, 10, 20, 9, 31, -7, 2, -3, -6, -5, 3, 12, 29, 23, 11, 47, 57, 75, 22, 11, -7, -7, 31, -16, 29, 19, 20, 1, 0, 20, 25, 37, 28, 21, -7, 16, -6, 15, 10, 7, 15, 26, 4, 42, 68, 22, 40, 9, -17, -1, 10, 3, 26, 9, 8, -2, 26, 40, 44, 30, 1, 18, 3, 27, 22, 17, -3, 13, 7, 31, 2, 12, 76, 58, 43, 15, -10, 16, 14, -10, 10, 14, 5, 21, 31, 36, 23, 22, -11, 2, 10, 25, -1, -27, -2, 9, 15, 21, -6, 4, 88, 25, 32, -2, 1, -17, 31, -2, -7, 9, 19, 25, 49, 25, 18, -20, -8, 19, 27, 14, -3, -7, 4, -1, 7, 32, 19, 26, 76, 3, 37, 8, 5, -5, -17, 0, -2, -9, 22, 12, 25, 40, -5, -16, -23, 1, 21, 11, 14, 15, 13, -3, 14, 43, 34, 9, 14, 23, 27, -1, 18, 24, 19, 6, -2, 8, 28, 28, 38, 17, 4, -15, -3, 14, 19, -10, -12, 10, -1, 20, 31, 13, 22, 21, 32, -11, 8, 1, 31, 47, 20, 21, 21, 16, 18, 12, 12, 24, 6, 11, 18, -3, 2, -1, -10, 9, 7, -4, 7, 18, 24, 20, 27, 15, 25, 2, 11, 37, 27, 21, 21, 38, 4, 31, 40, 13, 23, 19, 15, 12, 8, 10, -3, 3, -6, 4, 7, 21, 34, 52, 23, -24, 28, 9, 17, -3, -2, -29, -11, -6, -10, 23, 35, 6, -10, 15, 19, -2, 3, -10, -6, 3, 2, -8, 12, 42, 53, 58, 49, -19, 21, 19, 9, -2, -51, -38, -39, -8, -13, 33, 24, 9, 10, 14, 7, 8, 6, -18, -16, -8, -13, -10, 0, 28, 52, 48, 10, 6, 9, 16, 21, 27, -14, -24, 17, 18, 6, 4, -2, 4, 14, 26, 39, 7, 9, -7, -5, -1, 0, 27, 38, -2, 1, -2, 37, 20, 8, 14, 9, 16, 11, 51, 79, 84, 34, 40, 16, 10, 29, 60, 39, 28, 31, 22, -12, 11, 7, 27, 4, -20, 13, 23, 0, 8, 17, 9, 6, 1, 10, 7, -12, 35, 30, 15, 22, 36, 45, 30, 22, 25, -7, 28, 11, 24, 25, 21, -13, -6, -30, 11, 5, 13, 7},
    {5, 20, 16, 21, -4, 3, 6, -1, 17, 6, -2, 13, -3, -5, 19, -1, 12, 11, -1, -3, -5, 1, 13, -4, -1, 3, 4, 0, 19, 6, 6, 0, 5, -7, 13, 6, 3, -1, 11, -9, 0, -17, -4, -10, -23, -13, 9, -5, 4, -7, -3, 6, 11, 0, 18, -5, 16, 18, -9, 4, 5, 17, -2, -1, -6, 11, -8, 2, -18, -8, -13, -4, -20, -13, -23, -27, -26, -17, -1, 0, -1, 8, 2, 8, 18, 19, 13, 6, -1, -8, 13, -1, -19, -8, -30, -54, -30, -43, -103, -99, -73, -54, -37, -21, -14, -39, -16, -32, -35, -25, -25, 6, 15, 2, 18, 26, 11, -8, 5, 20, -18, -51, -57, -19, -5, 6, -13, -7, -4, -3, -6, 25, 22, 11, -1, -16, -45, -40, -12, -27, 6, 7, 35, 14, -9, 4, -6, -4, 6, -4, -15, -4, 24, -14, 9, 15, -20, -29, -32, -14, -8, -8, 9, 8, -12, -38, -36, -17, 21, -9, -2, 12, 14, 14, 15, 22, 13, 10, -14, 0, 24, 14, 8, -1, 6, 5, 2, -6, -5, 21, 22, 16, 18, -44, -23, -9, 38, 1, 14, 32, 19, 21, 27, 13, 24, 16, -3, -8, 23, 17, 29, -15, 9, 18, -9, 15, 2, -13, -2, 9, 19, -16, -2, -8, -11, 1, 14, 24, 28, 35, 26, 21, 28, 23, 0, 2, -4, 21, 26, 9, 2, 7, 2, 22, -3, 3, 15, 15, -4, -13, -19, -1, 21, 20, 2, 11, 2, 16, 22, 28, 18, -4, 4, 11, 26, 11, 11, 42, 12, 13, 3, -5, -11, 1, 8, -5, 15, -25, -27, 30, 22, 32, 12, -7, 4, 9, 9, 24, 14, 15, 9, 9, 12, 19, 40, 65, 21, 13, -5, 13, 0, -5, 9, 5, 6, 11, -15, 37, 23, 10, 61, 39, 44, 9, 9, 19, 14, 5, 34, 16, -2, 7, 45, 54, 50, 16, 12, 2, 3, 12, 3, -14, -14, -16, -49, 16, 36, 22, 43, 37, 16, -36, -3, 24, 36, 20, 19, -2, 28, 16, 28, 51, 42, 23, 30, -4, 7, 27, -3, 2, -9, 27, 37, 31, 47, 5, 25, 45, 2, -24, 7, 42, 32, 27, 23, 13, 37, 29, 50, 36, 47, 53, 16, -20, -5, 20, 5, -17, -20, 2, -23, -29, 6, 1, 24, 30, 24, -23, -16, -12, 2, 25, 22, 9, 36, 13, 38, 36, 49, 51, 31, 1, -4, 34, 26, 43, 24, 19, -7, -9, 15, -1, 5, 11, 26, -25, -45, -19, 12, 24, 20, 22, 42, 16, 13, 41, 54, 48, 11, -23, 5, 35, 58, 58, 26, 33, 19, 9, 7, 11, 14, 0, 26, -23, -33, -8, 17, 26, 19, 21, 17, 26, 25, 23, 53, 22, -10, -21, 1, 13, 13, 32, 2, -30, -46, 0, 19, 22, 12, -15, -17, -10, -27, -19, -48, -1, 4, 4, 10, 21, 29, 2, -5, -26, -53, -45, 3, -14, 4, 3, 9, -16, 30, -5, 10, 12, 4, -2, -12, -24, -54, -50, -51, -17, -32, -18, 9, 10, 5, -24, -63, -55, -70, -63, -36, -46, -43, -25, -18, -2, 47, 37, 40, 14, 12, 14, -2, -32, -33, -11, -21, -35, -19, -2, -3, -2, -23, -29, -43, -77, -82, -85, -65, -42, -55, -47, -58, -13, 30, 55, 17, 6, -22, -29, -39, -21, -16, -26, -31, -19, -19, -3, 1, -8, -9, -31, -22, -43, -55, -72, -44, -46, -28, -55, -10, 1, 24, 11, 23, 2, -18, -54, -6, 6, -11, -5, -20, 1, 18, -4, -7, -25, -7, -4, -22, -27, -21, -35, -15, -18, -49, -22, -18, 14, 26, 15, 23, 32, -6, -36, -5, 36, 3, 22, 18, 18, 12, -4, -9, -9, 9, 21, 23, 16, -4, -14, -10, -9, -7, 2, -30, -16, 26, 19, 0, -3, -44, -41, -14, 38, 34, 37, 23, 24, 23, 1, 20, 28, 13, 37, 33, 62, 16, 22, 7, -13, 9, -5, -10, -2, 39, -2, 14, 14, -38, -27, -21, 45, 17, 3, 6, 13, -4, -5, -25, -7, -4, -17, -13, 34, 31, 36, 9, 12, 23, 19, -21, 33, 30, 5, 3, 12, 19, 22, 40, 37, -9, -5, 4, 1, -12, -10, -26, -18, 3, 2, -13, -1, 14, -19, 8, 5, 17, 9, -12, 25, -2, 16, 15, 1, 12, 9, 45, 46, 78, 18, 10, -2, -3, -12, -8, -16, 11, 11, -3, -5, 8, 19, 6, 21, 21, 9, 17, 48, -1, -4, 20, 11, 3, 3, 1, 18, 1, -15, -19, -3, 48, 15, -2, 31, 15, 4, 37, 39, 23, 21, 19, 41, 56, 4, 18, 12, 3, 0},
    {19, 6, 17, 3, 16, 3, 5, 0, 1, 14, 4, 10, -3, 10, 17, 28, 20, 3, -3, 10, 8, 18, 5, 19, -5, -4, 14, 10, -2, 13, -2, -4, 0, -6, -17, -3, -3, -6, -11, 1, -12, 6, 6, 0, 9, -12, -4, -16, -20, -4, -15, 11, 14, -1, 9, 6, 6, 11, -36, -10, 4, 1, 7, -15, -12, -23, -16, -6, -32, -13, -2, 12, 10, 8, 6, 2, 15, -7, -26, -16, 7, 12, 5, 14, 11, 10, -5, -22, -29, 5, -16, -33, -39, -54, -31, -26, -64, -51, -11, 15, 23, 11, 5, -3, 7, -22, -32, -19, -11, 32, 5, 10, 2, 28, 4, -4, 46, 32, 11, -6, -30, -26, -46, -46, -34, -25, -24, 9, 19, 28, 31, 2, 17, 15, 37, -27, -10, 1, -14, 22, 0, 8, -5, 0, 58, 59, 20, -6, 27, 7, 4, -4, -6, -26, -25, 6, 0, 6, 17, 23, 21, 11, 34, 21, 12, 20, -38, 0, 15, 42, 1, 60, 58, 27, 7, 5, 12, 32, 15, 12, 18, 14, -29, -30, -20, 2, 26, 26, 21, 54, 25, 8, 7, -25, -14, -3, 33, 31, 43, 45, 67, 20, 30, 29, -2, 32, 23, 24, 21, 28, -2, -18, -24, -2, 18, 38, 41, 28, 28, 22, 10, -10, 12, 2, 42, 29, 52, 31, 75, 50, 17, 1, 15, 30, 32, 19, 35, 20, 7, -14, -36, 2, 30, 37, 41, 12, 26, 21, -9, -7, 13, -19, 8, 56, 35, 25, 55, 38, 2, 6, -12, 22, 23, 43, 30, 26, -14, -37, -44, -2, 34, 29, 54, 43, 19, 31, -10, -30, 4, -7, 0, 18, 49, 49, 15, 20, -9, -10, -2, 13, 11, 12, 16, -3, -29, -32, -28, 42, 29, 37, 43, 39, 55, 35, -20, -1, -46, 5, 9, 20, 58, 73, 35, 19, -12, 7, -7, 6, 11, 10, 20, -20, -45, -35, 14, 35, 19, 12, 28, 19, 75, 39, -20, 9, -49, -13, 37, 24, 49, 58, 28, 16, 3, 10, 11, -3, 23, 2, 12, -17, -53, -3, 32, 24, 8, -9, -5, 42, 42, 27, 52, 18, -27, 4, -4, 18, 40, 46, 53, 48, 17, -11, 4, 17, 25, 16, -3, -44, -11, 13, 11, 14, 11, -20, -3, 30, 53, 48, 53, 36, 16, 11, -9, -5, 37, 30, 41, 31, 15, 27, 11, 5, 13, 10, -17, -29, -7, 5, 19, 8, 20, 38, 28, 18, 40, 56, 29, 43, 41, 29, -12, -11, 21, 37, 41, 19, 16, 6, 21, 8, 5, -18, -10, -13, 11, 23, 20, 42, 32, 38, 35, 10, 51, 51, 18, 21, 88, 37, 22, -14, -3, 36, 48, 23, 7, 29, 14, -10, -14, -14, -22, 11, 16, 36, 24, 38, 23, 29, 32, 20, 20, 25, 20, 34, 66, 48, 4, -32, 43, 37, 31, 9, -5, 2, 26, -1, -12, 1, -3, 20, 22, 42, 15, 15, -3, 11, 19, 21, 37, 33, 25, 76, 48, 19, 29, -14, 19, 47, 17, -12, -13, -9, 27, 8, -9, -7, -8, 20, 10, 4, 7, 5, 18, 10, -17, 17, 31, 21, 42, 74, 33, 45, 2, 26, 20, 25, 18, 15, 6, 18, 17, 37, -3, 22, 20, 2, 22, 0, 7, 13, -10, -8, -5, 9, -7, -17, -13, 41, 52, -1, 9, 15, 33, 26, 27, -4, 0, 29, 25, -1, 7, 7, 9, 13, -6, -12, -16, -11, -10, -8, -6, 10, -31, -29, -12, -17, 33, -4, -3, 46, 33, 27, -5, 4, 3, 15, -3, 13, 8, 7, 10, 1, 6, -3, 10, 9, 2, -6, -2, -2, -18, -11, -21, -10, 6, 9, -1, 17, 57, 29, -8, 5, 4, -4, 14, -3, 10, 14, 20, 14, 2, 3, -3, 8, -4, 13, -5, 9, 18, -32, -5, -19, -9, 22, 20, -4, -12, 5, -1, 0, 26, 44, 8, -3, 3, 24, 12, 21, 9, 5, -4, -3, -10, -8, -30, 7, -12, -40, -21, -12, -25, 15, 18, 21, 16, 3, 27, 33, 52, 21, 14, -1, -15, 14, 11, 24, 1, 10, 22, -10, -22, -41, -36, -5, -7, -13, -14, 22, 7, 3, 5, 4, -7, -3, 45, 23, 27, 5, -14, -21, -8, 14, 0, 6, 0, 12, 47, 23, 5, -43, -47, -12, -9, 8, -31, 2, 4, -3, 9, 10, 10, -2, -15, 9, 17, 20, -13, -20, -7, -1, -2, 4, 0, 18, 4, 25, 30, 15, -6, 20, 48, 15, -12, 19, 14, 2, -1, 8, 21, -2, 11, 16, -2, -19, -13, 0, 4, -11, -1, 28, 4, -1, 16, 21, 25, 15, 18, 44, 52, 27, 6, 4, 16, 17},
    {15, 4, -2, 5, -2, 1, -2, -4, 16, 8, 14, 1, -11, -16, 4, 4, 13, 10, 11, 4, -1, 8, 21, 16, 3, 16, 13, 0, 3, 5, 7, 14, 2, -14, -16, -22, 5, -29, 1, -6, 9, 10, 13, 23, 25, 36, 4, 6, -12, -25, -10, -12, 9, 6, 1, 3, -5, 11, -19, 47, 43, -2, -2, -2, -22, 2, 15, 0, -8, -50, -67, -54, -19, -26, -21, -27, -21, -49, -33, -25, 7, 29, -3, -1, -5, 2, -26, 41, 50, 23, 8, 39, 67, 20, 32, 30, 18, -22, -35, -50, -63, -36, -35, -24, -19, -23, -34, 7, 13, 19, 32, 7, 6, 28, -12, 29, 38, 0, 39, 59, 19, 27, 21, 25, 2, -8, -2, -9, -31, -27, -4, -14, -26, -11, -2, 9, 26, 37, 28, -13, 20, 0, -9, 4, -7, 4, -2, 21, 21, -1, 28, 29, 14, 31, 19, -1, 7, 5, 25, 4, 17, 9, 13, 15, 52, 42, 25, 14, 6, 9, -17, -19, -36, -6, -6, 12, 44, 24, 39, 48, 28, 60, 51, 37, 40, 52, 60, 52, 39, 25, 7, -5, 48, 44, 14, 21, -7, 19, -27, -36, -47, -7, 12, 3, 33, 32, 31, 29, 39, 36, 39, 36, 47, 40, 37, 31, 17, 1, -11, 6, 34, 34, 7, 29, 5, 5, -19, -45, -22, 9, -7, -11, 29, 11, 23, 24, 25, 8, 38, 45, 54, 23, 27, 24, 18, 13, -6, -6, 9, 28, -21, 12, -4, 7, -2, 0, 1, -7, -2, -17, 11, 18, 15, 18, 4, 35, 36, 33, 15, 11, 20, 16, 4, -12, -12, -5, 2, 32, -15, 29, 3, -5, -14, 0, -17, -15, 6, -4, 11, 17, 2, 11, 17, 23, 23, -3, 6, 21, 20, 1, -11, 0, -14, -2, -19, -14, 15, 0, 4, 1, -11, -16, -21, 7, -2, 21, 14, -1, 0, 4, -12, 11, -1, 4, 5, 20, 17, 9, 6, 2, 9, 9, -29, -20, 26, -14, -16, 4, -15, -8, 13, 14, 30, 3, 4, 16, 20, -15, -39, -3, 18, -17, -16, 35, 36, 15, 25, 3, 9, 2, -79, -72, -5, -14, -17, 8, -16, 11, 30, 16, 1, 36, 4, 9, 6, -29, -21, 17, 15, -33, -7, 28, 12, 17, -3, 3, 5, 7, -26, -56, -28, -6, -11, 2, -25, 15, 45, 20, 23, 37, 20, 19, 13, -31, 0, -4, -11, -8, -3, 12, 20, 14, 14, 4, -4, 9, 8, -25, -16, 10, -6, 13, -6, 12, 51, 48, 8, 18, 15, 7, -2, -15, 2, 8, -23, -14, 1, 19, 17, 8, -2, 15, 6, 6, 29, -19, -1, 48, 9, 26, 41, 0, 53, 43, 25, 6, -6, -7, 5, 17, -3, 4, -8, -38, -16, 7, 9, -5, 22, 11, 25, 5, -1, -54, -10, 45, 3, 33, 24, 43, 13, 25, 17, 3, 7, 6, -1, 6, 12, 0, -15, 5, -5, 9, -10, 0, 16, -6, 9, -1, -8, -13, -11, 53, 11, 38, 30, 25, 15, 31, 29, -11, -2, 4, 17, 28, -7, -20, 3, 7, 18, 23, 13, 7, 4, 23, 29, 10, -10, -7, -17, -28, -22, 8, 27, 39, 31, 20, 24, 3, -9, -19, 9, 14, 8, -3, 1, 8, 6, 21, 24, 19, 3, 6, 22, 7, 0, -26, -2, -12, 12, 40, 30, 66, 55, 40, 13, 3, 4, 1, -11, -17, 6, 24, 2, 8, 33, 9, -1, 12, -7, -14, -2, -9, 3, 21, 1, 22, -11, 12, 56, 24, 28, 17, 11, 7, 22, 2, 10, -9, -7, -4, -9, -8, 10, 10, -11, -5, -19, -14, -10, -2, 18, 0, 1, 6, -16, -4, 29, 19, 8, -32, 7, 27, 36, 37, 13, -3, 14, 3, 10, -4, 21, -3, 14, -16, 18, -14, 34, 61, 39, 17, -12, 5, 10, 10, 22, 53, 35, 37, 4, 22, 33, 26, 38, 14, 5, -16, -19, -19, -10, 14, 16, 10, 26, 12, 47, 41, 55, 40, 0, 15, -2, 19, -1, 53, 73, 32, 24, 24, 23, 6, 27, -5, 7, -6, 2, 12, 9, 22, 28, 34, 28, 35, 35, 52, 58, -12, 5, -5, -2, 3, 12, -14, 22, 57, 25, 15, 28, 43, 39, 55, 43, 43, 24, 37, 46, 62, 38, 42, 38, 56, 30, 9, 32, 6, -18, 5, 7, 14, 1, 15, 37, 43, 52, 48, 21, 25, 41, 53, 47, 54, 94, 79, 56, 68, 49, 54, 52, 51, 10, 18, 18, -5, 18, 11, 10, 7, 6, 19, -4, -2, 27, 22, 32, 16, 36, 42, 46, -1, 31, 35, 21, -2, 22, 29, 3, -25, -18, -6, 9, 0, 9, 13},
