const int8_t fc2_weights[10][64] = {
    {45, 4, -108, -73, -32, 52, -21, 26, -79, 19, 10, 28, 60, -47, 33, -1, -36, -106, -67, 111, 64, 62, 29, 49, 61, -18, 9, 4, 73, -66, 64, 37, -52, -52, -4, 59, -9, -30, 65, -12, -41, 67, -28, -55, -61, -55, 62, 55, 1, 14, 55, 16, 55, 71, 66, 50, -8, 64, 27, 12, -4, -78, -10, -24},
    {-25, 98, 28, -48, 7, -19, 58, 41, 89, -33, -28, 60, -34, -36, -72, 88, 81, 6, 98, -3, -55, 62, 74, 9, -46, 70, -40, 19, 7, -26, 42, 108, 49, -22, 43, 69, 63, 68, 0, -27, 39, 34, 17, -23, 31, 63, 36, 48, 68, -18, -51, -22, 39, -46, -38, -72, -27, 27, -7, 28, 75, 76, -52, -2},
    {-7, 5, 3, -87, -40, -1, 49, -17, 75, 11, -74, 23, 30, 63, 83, -51, 31, 127, 47, -11, 16, -2, -12, -12, 9, 94, -16, -13, 31, 25, -11, -35, -38, 76, -55, 53, 43, -28, 68, 55, 72, 71, 53, 50, -36, 10, 75, 62, -2, 47, -28, 3, -43, 67, 72, -35, -45, -21, 77, 31, 55, -16, 42, 11},
    {-25, -63, 81, 114, -24, 35, 33, 69, -5, 63, 56, -70, 22, 30, -6, 51, 67, -16, 78, -77, 49, -27, -43, -33, -15, 66, 47, -52, -25, 20, 45, -78, -70, -73, 68, 41, -46, -13, 40, -7, 58, -43, -58, 39, 72, 46, -10, 31, -10, 56, -56, -42, 46, 55, 1, 62, -1, -27, 30, 15, -11, 45, 59, -8},
    {35, 34, -2, 13, 71, 76, -65, 58, -52, -45, -39, 62, 10, 67, -14, -19, 42, -49, 2, 59, -25, -36, 55, 48, 52, -5, -15, -7, -29, 56, -24, 55, -115, -38, -12, 35, -9, 11, -20, 14, -53, 9, -75, 82, 21, -14, 3, -24, -60, -43, 43, 75, -40, -23, 47, 3, 32, -31, 44, -108, 94, 48, 58, 50},
    {-39, -1, 78, 61, 36, -32, -35, 36, 20, -43, 43, -78, 61, -12, 10, -3, -69, -16, -41, -128, -1, 63, -40, -30, 50, -17, 68, -77, 53, 42, -18, 53, 126, 58, 101, -70, 124, 47, -5, 35, -26, -54, 70, -29, 33, -18, 20, -68, 39, -12, 0, 58, 40, 30, -26, 40, 16, 63, 46, 63, 61, 12, -17, -49},
    {-3, 80, -74, -63, -8, 60, 19, 54, -19, 29, 58, 3, -20, 75, -2, 8, -68, -37, -46, 58, -58, 76, 27, -42, 48, -81, 58, 68, 4, -81, -28, 43, 97, 69, 47, 71, -14, -46, 25, -7, -16, 31, 83, 7, -36, 75, -26, 39, 2, 91, 72, 27, 21, -77, 70, -20, -7, 15, 44, -53, 42, -52, -57, 55},
    {49, 21, -44, -29, -20, 58, -48, 8, 77, 65, -48, 1, -22, -46, -45, 100, 28, 76, 29, 45, 10, -1, -13, 57, 30, 60, 11, 58, 59, 65, 69, 48, 47, 22, 32, 33, 70, 16, -53, 3, 97, -22, -14, -40, 40, 67, 74, -34, -62, -47, -50, 10, 36, 56, -12, 61, 1, -30, -36, 60, -6, -55, 54, 73},
    {-27, -95, 27, -123, 56, -26, 36, -32, -36, -11, 46, -7, 28, 37, 37, -46, 15, 38, -24, 16, -7, -12, 69, 67, 38, -80, 16, 34, -107, 18, 63, -77, 11, 0, -66, 5, -7, 43, -63, 45, -104, 54, 45, 11, -9, 51, -57, 34, 58, 38, 31, 50, 55, 55, -93, 33, 70, 25, 7, 4, -73, 68, -37, -72},
    {57, 62, 58, 82, 59, -21, 67, -54, -70, 71, 58, 55, -37, -19, 31, -9, 40, -123, -58, 23, 65, -53, -54, 51, 49, -77, -37, 58, 20, 64, -1, 38, -23, -32, -42, -74, -31, 52, 38, 58, -93, 42, 43, 47, 70, -60, -18, 68, -41, -35, 43, 0, 21, -37, 40, -21, 18, 2, -52, 52, -51, 6, 43, 34},
};
const float fc2_scale = 0.005119;
const int fc2_zero_point = 18;
