const int8_t fc2_weights[10][64] = {
    {17, 52, 40, 33, -40, 40, 14, 11, 1, 65, -20, 47, 65, 27, -75, -8, -42, 13, -34, 56, -33, 41, -20, -54, -27, 69, -36, 58, 8, 40, 37, 50, -27, 37, -57, -49, -30, 58, -9, 8, -42, 57, -53, -16, 32, 32, 37, -41, -20, 17, 83, 48, -56, 17, 73, -34, -90, -75, -20, -80, -30, -3, -51, 12},
    {6, -4, 54, 91, 9, -50, -6, 51, 37, 4, 80, -20, -54, 65, -52, 38, 13, -12, 60, -42, 32, -41, 23, -16, -14, 36, 73, -30, 78, -8, -49, 8, -38, 53, 32, -13, 11, -36, 127, 10, 53, -23, 39, -34, -5, 75, 48, 52, 85, 43, -25, -16, -25, -9, -9, -52, 36, 53, 48, 48, 28, -44, -62, 33},
    {6, -26, 26, -4, 6, 71, -18, 50, 64, -40, -42, 49, 50, 0, -18, -20, -48, 70, 68, 38, -2, 45, -39, 0, 56, -27, 42, 59, 18, 46, 15, 87, -13, -28, -49, -41, 79, -36, -79, -5, -38, 43, 61, -51, -17, 8, 34, 37, 105, -12, 36, 66, 116, 4, -39, -10, 27, 31, -28, 54, 63, 22, 10, -19},
    {-19, 34, 48, 51, 29, -29, -10, 41, -32, 43, 78, 0, 38, -30, 54, 7, 66, 67, -28, -44, 61, 40, -48, 5, 54, 2, -63, -17, -68, 20, 46, 21, -23, 34, 25, 52, 47, 26, -20, 10, 60, 27, 54, -31, -22, 72, -95, 60, -29, -17, 50, 11, 0, -39, -23, 93, 81, 42, 4, -30, 31, 34, 98, -105},
    {-80, -37, -16, 73, 70, 3, 39, -49, 71, -24, -21, -40, -82, 78, 20, -17, 48, -5, -26, 50, -83, 43, 31, 71, -38, -22, 25, 3, 76, 74, -25, -57, -33, -50, -60, 42, -15, 69, -33, 0, 1, -42, 1, 64, -8, 32, 94, -8, -53, -22, 1, 39, 32, 64, -2, -88, -12, -20, 26, -39, 7, 74, 9, 7},
    {85, -11, 51, -25, 72, 23, 37, 11, -34, 19, 82, -19, -1, 41, -14, 54, 6, -74, -66, 67, 39, 12, 3, 34, 87, -1, 5, -33, -24, -81, 40, -22, 121, 10, 85, 41, 34, 31, 88, -5, -20, 35, -16, 61, 77, -72, -70, -53, 15, 46, -33, 57, 25, 1, 86, 79, 35, 46, -32, 60, 45, 42, -76, 14},
    {-50, 53, -24, 4, -69, 50, -42, 75, 0, -22, -28, -78, -12, 61, -57, 31, -38, -78, 28, 47, 87, 31, 50, -31, -44, 26, 46, 58, -57, -12, -38, -57, 41, -29, 0, -38, -55, -29, 1, 2, -1, 62, 65, 67, 68, 56, 10, -4, -39, 65, -38, 43, -55, 50, 12, -61, -93, -12, 27, 38, -62, 68, 44, 79},
    {51, -11, 71, 17, 58, -6, -12, -30, 14, 50, -64, 52, 65, -23, 59, -59, 54, 16, 67, 25, 72, -15, 54, -18, -5, 71, 55, -41, 59, 60, 12, 64, 91, 68, 69, -36, 81, -27, -15, -1, 50, -43, -3, 20, -35, 10, 40, 36, 54, -37, 14, -43, 62, 41, 73, 26, -38, 5, -27, 1, -43, 25, 28, 3},
    {41, 45, -62, -19, -70, 50, 48, 43, 50, 43, -82, 35, 50, 26, 8, 59, 28, 0, 29, -41, -6, -16, -44, 46, -76, -71, 15, 22, -97, -25, -9, 3, -38, 59, 39, 64, -73, 11, -48, 35, -8, 66, -17, 60, 44, -47, -31, 32, -95, 53, -10, -52, 47, -33, -128, -59, -49, -10, 48, -6, 53, -17, 50, 33},
    {-3, 42, -61, -67, 5, -17, 61, -27, 26, 38, 48, 74, -9, -34, 50, -21, 12, 49, 25, 15, -48, 49, 56, 30, -23, 33, -31, 60, 49, -4, 72, 40, -25, -25, 51, 47, -103, 38, 78, 54, 70, -26, 20, -19, -25, -55, 34, -79, -70, 41, -10, -33, -96, 58, -19, 27, 53, -40, 38, 63, 1, -43, 53, 76},
};
const float fc2_scale = 0.005723;
const int fc2_zero_point = 19;
