const int weights2[10][64] = {
{-16,2,-16,-71,-28,-60,100,-32,-52,-41,9,-69,54,14,-95,-105,65,-99,79,-40,75,33,86,-118,23,-103,-100,35,-35,9,19,79,-88,103,2,64,68,-63,-16,-44,17,26,43,-96,4,32,76,-102,-66,37,-119,82,-60,81,15,-77,-82,-53,-40,-72,-24,21,66,8},
{15,-47,-49,15,-52,66,-30,-106,33,21,-95,23,17,-69,-35,-11,-63,87,-102,92,-55,-116,-55,-100,107,73,-18,-89,67,-98,-34,-25,-63,26,-23,-92,-61,-69,-83,76,-121,-63,-29,60,-114,69,16,-96,64,-100,-25,47,23,-61,-9,96,-41,54,-71,93,-53,-3,-92,7},
{-72,-45,99,40,6,10,42,-79,-70,-28,85,18,17,-75,18,89,98,58,18,59,96,69,7,45,-5,-55,20,-25,-88,23,-64,-94,53,73,53,-48,11,-104,-55,-12,-82,83,33,6,-78,46,-97,-63,-57,-76,-83,-58,86,77,-31,-59,50,-59,16,67,71,90,-43,-88},
{57,61,-53,-54,-15,-93,-86,6,-62,80,-36,11,70,-73,69,-83,5,83,40,-71,-13,-96,-91,-4,61,4,55,-63,-111,88,-71,28,54,-77,65,-75,-50,-67,-45,-64,-57,-34,-93,-15,85,56,-88,0,53,-15,87,94,4,83,-87,28,18,-22,80,-22,101,-14,44,0},
{31,-9,-75,-104,-54,-61,23,-38,-55,-21,-87,8,-35,45,39,-54,14,13,3,-80,-3,104,77,34,53,-86,36,38,94,-88,35,-64,77,9,-58,-21,-96,80,-61,-4,-64,-72,78,-116,2,-84,-7,100,-42,93,-13,-91,24,-20,67,60,73,46,54,-11,-60,-113,-121,-110},
{69,44,-54,45,-47,-103,-127,-60,64,8,32,-43,50,100,-74,79,-63,-84,73,-112,-10,41,43,-20,-74,96,-107,24,-71,-67,69,-77,73,-119,-4,97,-34,-14,16,-118,60,-17,93,-79,-27,52,4,6,83,-39,101,-13,-114,9,-76,2,-88,-39,20,37,-51,-76,3,61},
{80,61,75,-16,-5,6,27,-35,16,50,-37,28,73,49,-15,3,56,53,-65,-4,90,35,-58,42,-109,-33,-5,97,1,0,-42,-73,-84,18,-116,75,63,-118,84,-63,-34,-54,-16,57,-98,-104,33,49,22,69,-112,-95,-22,-82,27,-23,-64,67,-24,-89,-88,72,-107,-61},
{22,-100,-16,55,-20,-30,69,-14,-27,16,-102,-23,3,23,99,102,-80,35,-112,-55,-117,-16,-109,27,-6,-75,84,-77,-15,-16,44,80,-63,31,71,18,61,-16,67,81,51,-9,-3,-51,81,46,21,-95,-111,-50,-78,-87,-30,-92,40,-28,102,-51,-110,-94,50,-105,22,45},
{-98,56,0,58,-17,77,-115,55,60,77,-94,5,30,-103,-22,-22,-97,-89,6,-5,-87,33,73,-58,-68,29,-68,-7,59,32,-8,-98,69,2,3,-13,-95,73,49,83,-11,83,36,-15,27,-25,-63,-16,-8,-5,-47,-50,-54,19,-124,-95,-80,51,-17,77,-74,37,71,-59},
{-4,-66,-101,-47,35,73,-6,65,75,-98,-70,-123,-59,65,9,-92,21,45,-1,38,-64,-55,50,100,-7,-67,71,4,-44,-108,-74,-21,52,-31,95,-40,11,55,66,-21,51,-55,-78,-115,-11,-60,91,18,-103,43,22,-80,36,29,27,77,-26,-37,68,40,-90,-75,39,-1},
};

