const float weights1[64][784] = {
{0.028710332,0.009143255,-0.02963421,-0.009465333,-0.02049109,-0.0111859655,-0.006984741,0.033535674,-0.00899925,-0.005825422,0.013408112,0.03281148,0.02769356,-0.011766238,0.0143942395,0.012855823,-0.018987192,-0.011326935,0.0062024086,0.03393324,0.010736998,-0.03364954,-0.019040465,-0.033398718,-0.032289382,-0.02070653,0.019411527,-0.0035773688,-0.018700553,-0.028371455,0.011935166,0.034294285,0.03479479,-0.025872804,0.023765232,0.004118917,0.041505404,0.041724045,0.045946892,-0.004616775,0.027661776,0.0247321,0.041115977,-0.0026528775,-0.027378323,0.0059330254,0.029056778,-0.016184777,0.030794086,0.010785433,0.018513061,0.020347098,-0.031050744,-0.004269583,0.030199924,-0.03070705,0.008555749,0.008340418,0.0394798,-0.011508478,0.024513736,0.040474325,-0.013650341,0.0017702065,0.02558711,0.051842734,0.027685331,0.025921442,0.05281687,0.012324944,0.010774349,0.008655377,0.016628454,0.05686318,0.021039143,0.037917223,0.019061869,0.026106652,0.04058991,-0.01121414,0.029412068,0.030525314,0.0075243674,-0.0067991065,0.029429087,-0.018888658,-0.013115583,-0.021174043,-0.015725125,0.0026326324,0.03909947,0.013225363,-0.021407342,0.023630707,0.03676679,0.010406676,0.032512974,0.056191295,0.05460152,0.05147081,0.01029314,0.03578137,0.06030721,0.060432624,0.04292608,0.030924495,0.011721707,0.03542676,-0.0060149906,0.0029708962,-0.0024232066,0.025714317,-0.022365192,-0.0065084053,-0.0031656688,0.020086963,0.059886977,-0.004664955,-0.0019078627,-0.013934176,-0.013747366,-0.0044618524,-0.0068183197,-0.034721363,-0.0023767247,-0.033793405,0.033022087,-0.004586872,0.00584585,0.014537972,0.013497655,0.06270741,0.011190291,0.0045425743,0.060910534,0.07984538,0.04958857,0.04850744,0.01842874,-0.040690307,-0.0023668155,-0.008777994,0.0036961022,0.03798197,0.04027988,-0.017654598,0.0075135394,0.024189545,-0.020004151,0.022685915,0.0009299352,0.003217109,-0.029086193,0.009207303,-0.0043579973,-0.015865047,-0.0037140779,-0.0009303856,0.035868715,0.027915997,0.03449243,0.02897425,0.041459296,0.022872163,0.08128937,0.055919535,0.006953756,0.00884095,-0.005476224,0.025535539,0.023580797,-0.021485457,0.04656506,0.014098669,0.018459393,0.017481182,0.031930428,0.017269062,-0.009977562,0.009380095,0.025305536,0.013628275,-0.00095035206,-0.0072860643,0.01697655,-0.0195113,-0.021837818,0.01737276,0.0071299635,-0.012420071,0.04388423,0.031745862,0.08524314,0.02112567,0.05423219,0.012451698,0.025667274,0.0048509287,0.0156098055,-0.0043640765,0.04938261,0.0028421578,-0.029459575,0.014591223,-0.020548735,-0.017224662,0.026597328,-0.026320139,-0.004908825,0.02603603,0.02011174,-0.013260263,0.00083086366,-0.028139183,0.0021294306,-0.05813869,-0.028916104,-0.035403248,-0.027859636,0.035536636,0.04767856,0.058916524,0.026703658,0.014425704,-0.004948622,0.00992473,0.009902872,0.03412331,-0.020705525,-0.021552797,-0.0049747396,-0.033915173,0.015218282,-0.046672516,0.0059372615,-0.024770727,-0.032022625,-0.0079142945,0.007728624,0.016581545,-0.004892141,-0.0014207521,-0.04154939,-0.0068974914,-0.034285095,0.00038598644,0.0134525485,0.025998073,0.06017105,0.019324282,0.034459136,0.016057152,-0.01164882,-0.0020504175,-0.00029895635,0.016807022,-0.019625325,-0.022247296,-0.023030939,-0.028421205,0.0041419123,-0.029969126,0.007424413,0.015802808,0.004441142,0.041698754,0.00068337243,0.038924444,-0.030655613,-0.041013513,-0.04400301,-0.01753995,-0.030768871,-0.048960526,-0.009310943,-0.008831858,0.07110853,0.053960886,0.029441968,0.040967125,0.036275078,-0.0082805175,0.0057508503,-0.017101036,-0.03513619,-0.03376419,-0.045381647,-0.009923148,-0.016484797,-0.040174656,-0.028383693,0.020822085,0.016077962,0.034634795,0.070298694,0.038230244,-0.022883372,-0.012681608,-0.02433634,-0.02538503,-0.013207425,-0.024735492,-0.076737784,-0.05301146,0.011285984,0.010697993,0.014952043,0.029664112,-0.014317422,0.01978207,0.021015804,-0.00055706274,0.009875616,-0.061608255,-0.053342905,-0.0070346347,-0.029930385,0.004047251,-0.00983812,0.041343864,0.059921302,0.074769594,0.04926188,0.005383546,-0.040752582,-0.022742078,-0.026042115,-0.04780386,-0.08401302,-0.088337265,-0.030760441,-0.04962495,-0.030685231,0.00860794,0.009382115,0.04420419,0.035624053,-0.0318027,-0.0058955443,0.039056633,0.00014895141,-0.046467472,0.02373203,0.00167871,0.005729735,-0.0034563185,0.05169903,0.08295398,0.061068445,0.04322259,0.0008315745,-0.021169407,-0.016882373,0.020806689,-0.007839645,-0.06630294,-0.046053644,-0.03864768,-0.007159639,-0.0117987245,-0.036957137,-0.033901855,-0.040527582,-0.014080126,-0.007482703,-0.019344691,0.027682515,0.05365182,-0.0224577,-0.008520109,0.024824494,-0.0035154002,0.041091003,0.0337846,0.08000741,0.045822658,0.06725339,-0.02015799,-0.022183472,-0.019101905,0.0013572468,0.03318079,0.020468943,0.015797,-0.028616333,0.018981716,0.012717152,-0.022635752,-0.015211272,-0.013790273,-0.01604618,0.014809223,0.04124727,0.02635491,-0.019302705,0.018633595,-0.0096882675,-0.02661928,0.041449007,0.008416373,0.057578098,0.038329184,0.049125604,0.0014449658,-0.015500658,-0.009908996,0.019233491,-0.00809557,0.039208863,0.038419712,-0.016128926,0.0021923701,0.023286331,0.009383429,0.04257358,-0.013918047,-0.005831535,-0.05757885,-0.014341275,-0.030926753,0.032843,-0.028279066,0.03518953,0.025186507,-0.014320075,-0.020948714,-0.006866312,0.020210559,0.006303246,-0.0049129142,0.0236858,0.03190085,-0.01824586,-0.016609699,-0.043870885,0.0021060372,0.017645571,0.019231014,0.017944207,-0.0028505723,0.050694637,0.01341439,0.03119781,0.03939785,-0.0049918485,-0.018355202,-0.05797004,0.020929482,0.003442885,0.035221316,0.01498969,0.025150558,-0.023011062,0.0009834733,-0.048640274,0.0035630737,-0.0065690977,0.018822037,0.014645505,-0.016875627,-0.04407359,-0.01013634,0.006747063,0.009166548,0.00088332966,0.03895872,0.01592317,0.05135064,0.018881125,0.016766604,0.017545274,-0.014556417,-0.027918728,-0.0754767,-0.07539804,-0.015653009,0.002294549,0.04355934,0.0404467,0.014257801,0.011635134,-0.0365314,-0.023358153,-0.012592158,-0.067644894,-0.020617012,-0.034982216,-0.06538914,-0.057127696,-0.051750217,-0.0057063964,0.027617684,-0.032915365,0.023027679,0.034326177,0.037806652,0.0045480393,0.02494306,0.036541153,-0.031701088,-0.029838756,-0.072899684,-0.014065991,-0.006939071,0.011863478,-0.0015572304,-0.01803304,-0.010991486,-0.03464626,-0.028063495,0.007609849,-0.025259916,-0.038861927,-0.06371271,-0.023391116,-0.06731782,-0.058823496,-0.051473882,-0.018922126,0.048800137,-0.0100146625,0.009132649,0.025798773,0.0023397713,0.018871795,0.0123101985,-0.012782736,-0.002876718,-0.06023001,-0.0472737,-0.038104363,0.018825857,0.03981563,0.041555073,0.019550918,0.04234248,-0.03645455,-0.027852543,-0.005293941,-0.03056973,-0.0021618954,-0.030165434,-0.03242113,-0.033011302,-0.032662444,0.028790379,0.018556815,0.03739941,0.053409226,0.048535537,0.02049179,0.0067933276,0.0363191,-0.007367699,-0.011715157,-0.0038461084,-0.003925538,-0.044285316,-0.018120013,-0.008499972,0.0077226036,-0.00869782,-0.024142,-0.008284178,0.017426902,-0.039089676,-0.010922838,-0.014047289,-0.015456838,-0.011225154,-0.019583667,0.037290502,0.021129869,0.058274448,0.018514456,0.020430699,0.018870749,0.017401466,0.013883408,0.017589951,-0.011278155,-0.012866661,0.017886303,-0.013827228,-0.0034478644,0.011016246,0.01672241,0.009055357,0.013050276,-0.031594004,-0.008817462,0.004994046,-0.03170006,-0.023341794,0.005778135,-0.054706287,-0.018217767,-0.005339079,-0.03278373,0.032857925,0.047135446,-0.0020663792,0.01860991,0.053897668,0.036138058,0.03933747,0.036921,-0.008356731,0.011984783,-0.048814107,-0.015049685,-0.009139657,-0.03548922,-0.05538394,-0.019095736,-0.029322889,0.02858438,0.021743482,0.010791483,0.032560617,0.025469871,0.0055392194,-0.029232537,-0.043142296,-0.02330197,-0.031004801,-0.033112727,-0.015965445,-0.032447215,0.030046137,0.03846765,0.02895553,0.023583245,-0.0005932598,0.017475503,-0.009223516,-0.0025537238,-0.02419157,0.009085258,-0.0054509104,-0.027410017,-0.051136266,0.03649794,0.02408145,-0.016282542,0.012194259,0.030316014,0.034163646,0.024097722,0.024487723,0.012562171,0.003286999,-0.014177822,0.008705075,0.031516545,0.02935143,0.0028225037,-0.038021438,0.018352915,-0.024677614,-0.0039201523,-0.021301314,-0.042628564,-0.045781065,-0.027840128,-0.008687649,-0.033152837,0.008829667,0.014209366,0.009012178,-0.022186827,-0.024317198,-0.0027712712,0.010307717,-0.020274406,0.033990867,0.058381785,0.04533351,0.014354309,0.023692401,0.024238175,0.040485498,0.043952633,0.036002666,0.013491118,-0.020146647,0.027680987,0.038135756,-0.025005067,-0.029564051,-0.008522087,-0.04618851,-0.006735388,-0.05774683,-0.004046976,-0.00067642354,-0.037113503,-0.016599225,0.0036705297,0.029885609,0.014638233,-0.020086844,0.04059559,-0.0043195575,0.0071514347,0.027802434,0.019862887,0.010005685,0.055649694,0.07710342,0.070774935,0.0793385,0.066614754,0.040453944,0.029225742,-0.00798537,-0.00051781524,-0.030870646,-0.0059849136,0.0029939504,-0.056191415,-0.019902082,0.0020948346,-0.023433235,0.022177462,0.0012174377,-0.007450906,-0.0064412956,-0.007348938,0.021556523,0.010182917,0.039553154,-0.034659214,0.01888103,-0.021566926,0.02882168,0.0061903824,0.009139372,-0.023637746,0.03685679,0.014026618,0.030978229,0.0039555184,0.013363794,-0.028419372,-0.052423898,-0.035535,-0.015362326,-0.022974152,-0.009213786,-0.005145529,-0.0033344096,-0.034613777,0.012219509,-0.018979777,0.028978433,0.006849898,0.016052315,0.02365889,0.023833744,0.0031134854,0.016335001,0.036617115,0.011180512,0.023086632,0.010207722,0.029223869,-0.019385152,0.0043875435,0.04261088,0.053805076,0.018346151,0.02344461,0.008813898,-0.011681123,-0.017649464,-0.0010281603,-0.021881765,0.045001514,0.0266711,0.020081904,-0.022603802,0.014725354,-0.0007617474},
{0.006490554,-0.031947654,-0.019510312,0.004356274,0.0073046857,0.032976564,0.017796393,0.024366405,0.00405599,0.028060783,0.021518428,-0.0065877694,-0.01882116,0.014977397,-0.028793458,-0.023322972,0.0026342657,-0.0077660684,0.019751647,-0.02122915,-0.026414068,-0.020091027,-0.019961644,0.023165444,0.010144873,0.020661522,0.012219195,0.01749075,0.024128046,0.026177432,0.02788724,-0.0012776895,-0.025176298,0.0049855337,0.03591973,0.024389498,0.04913394,0.034160286,0.006538157,0.0052852286,0.0072668004,0.01667376,0.003729871,0.017997425,0.016903326,0.025274124,0.06213974,0.048377827,0.0041877422,0.010453822,0.018992597,0.008761981,0.017340861,0.029444717,-0.032808807,-0.016181475,-0.01275992,-0.0066333967,0.005432959,0.0037641828,-0.025318163,0.038028438,0.041296884,0.057243485,0.03333704,0.042415895,0.07150795,0.03771282,0.045363706,0.007586015,0.018951926,0.007628096,0.01978503,0.07234606,0.023307744,0.03331971,0.031120297,0.03441708,0.08400496,0.049577236,0.010960566,-0.019954177,0.029004741,-0.023822905,-0.029561087,-0.032280937,-0.021052703,-0.0076230755,-0.0075222757,0.018155647,0.031011913,-0.004810649,0.04691769,0.013608126,0.00082966185,0.07756065,0.028721826,0.032205544,0.0060980404,0.07221245,0.051935937,0.064696,0.098422416,0.067090556,0.06576538,0.050462075,0.07101909,0.054046996,0.032773815,0.043520153,0.030012311,-0.03256447,0.031119412,-0.013027706,-0.026399756,0.038841926,0.014336402,0.04455787,0.017702706,-0.0017510763,-0.009214898,-0.0095625855,0.003983167,-0.02413583,0.035401467,-0.0037854903,0.026428059,-0.0025126531,0.010389744,0.051782437,0.013474722,0.029992577,0.03296643,0.012232767,0.041704196,0.062966906,-0.0004906023,0.040668953,-0.0012437105,-0.011940725,-0.028337011,0.0053233462,0.0037260454,0.00899222,0.047288205,-0.034255974,0.02134914,-0.01880835,0.00011082238,-0.0024463444,0.022383714,0.026553191,0.020702807,-0.0028767812,-0.0014444434,0.036176644,-0.00025860014,0.06390713,0.056393538,0.052246097,0.013375371,0.04089499,0.028238509,0.051436223,0.038803868,0.024758067,0.010089504,0.045308564,0.034837674,0.044550143,-0.01440911,-0.0280104,0.023221115,0.0074331705,0.0046007102,-0.044409398,-0.014521206,0.029963559,0.010070214,0.034496896,0.015239176,0.04196979,-0.0060836016,0.018489717,0.019142756,-0.014349145,0.016811606,0.027473878,0.021610994,0.03577725,0.030955525,0.05779334,0.045644198,0.04999024,0.038540095,0.050656762,-0.007272168,0.036491778,-0.009676199,-0.013486344,-0.011893673,0.0060823057,-0.03163491,0.019393148,-0.01638313,0.014423367,0.030495467,-0.016803341,-0.032331824,0.017782832,-0.005114144,0.00041684165,0.0039362563,0.002106964,0.035578907,0.035066273,0.013862324,0.01015134,0.05799862,0.08062351,0.111079805,0.051783793,0.018959902,0.053541142,0.025699439,-0.0033126029,-0.05645653,-0.008998987,0.0062090447,-0.005031711,0.007842006,-0.0055022542,-0.0136037,0.021241419,0.01977124,-0.025634108,-0.015691968,-0.0045081116,-0.042201847,-0.011518837,-0.037240904,0.0041052285,-0.025835797,0.0026239387,0.013687217,0.013337019,0.014348122,0.031745095,0.06484708,0.10435757,0.065292366,0.048945263,0.014094296,-0.036200397,-0.02432639,-0.019327324,0.024527421,0.015497967,0.026893193,-0.019124972,0.037197143,0.043927267,0.020840924,0.028966805,-0.025310326,-0.051006462,-0.043034196,-0.020559559,-0.059583608,-0.05690664,-0.021719411,-0.000944001,0.044132147,0.0070539364,0.015746212,0.080609724,0.07119906,0.06806819,0.03233865,0.009160486,-0.012750837,-0.014287172,-0.059752457,-0.018279431,0.02292503,0.02544168,-0.006075904,0.029880704,0.04284148,0.032505002,0.008392293,-0.008670035,-0.0094155455,0.009405421,-0.030246023,-0.037625536,-0.036675222,-0.02229927,-0.03208811,0.0030274522,0.0186477,-0.009412117,0.0654598,0.049807563,0.049214415,0.06088172,0.04109995,-0.031838205,-0.03176419,-0.01706588,-0.032458093,0.008789353,-0.02164683,-0.025071984,0.015730016,0.034597944,-0.015886983,-0.011720407,0.008046446,0.033949237,0.041769143,0.028264305,-0.015784062,-0.012176216,-0.031124227,-0.022533942,-0.055081215,-0.0062485724,-0.00831214,0.005195069,0.05175687,0.06324147,0.05553875,0.051884245,0.01814267,0.007988502,-0.0065300073,-0.02471989,-0.016919497,-0.065239675,-0.040465306,0.006761105,0.028624974,0.038822375,-0.015148256,0.0016968165,0.02410109,0.029023046,0.03767382,0.053104848,0.020663243,-0.012958624,-0.0131920185,-0.009466828,-0.019879065,-0.015972447,-0.02863233,0.019799145,0.046076965,0.07891584,0.075159945,0.022562632,0.0131180445,0.0014332071,0.0180943,-0.030584427,-0.002345701,-0.045544777,-0.012225527,-0.035283826,0.00856657,-0.012310599,0.023122393,0.01967272,0.04500087,0.058482286,0.09725007,0.0625078,0.041506276,0.0120620215,0.006206497,0.016873829,0.00094029325,-0.041788913,-0.027542328,-0.0088401465,0.028918248,0.06942468,0.052011207,0.014138114,-0.051954485,0.02293111,0.013855152,0.020838572,-0.028862871,-0.04304426,-0.08570451,0.004301627,-0.032849867,-0.009130062,-0.012497076,0.02062971,0.06560386,0.032385346,0.040305346,0.034576625,-0.004338791,-0.015710108,-0.038189657,0.01228138,-0.043136712,-0.04078139,-0.016483493,0.0023809266,0.051056877,0.0460842,0.03618246,-0.011113231,-0.02082922,0.00445198,-0.0032579608,0.013750948,0.024717104,-0.029190173,-0.035851374,-0.031027451,-0.02673931,-0.029554754,-0.034620415,-0.009776081,0.023267584,0.06740032,0.06810069,-0.0012414344,-0.005600896,0.0035103294,-0.043328848,-0.063373335,0.000304458,-0.005031901,0.006086852,8.6033135e-05,-9.965689e-05,0.008881344,0.030860597,-0.026704017,-0.010222501,-0.014545719,0.020002827,0.010362296,0.043712128,0.027311647,-0.070741296,-0.049568873,-0.023649683,-0.037073486,-0.03267107,-0.013889856,0.027195921,0.00036684307,0.02785448,-0.033801645,-0.024033943,-0.032937784,-0.019662641,0.009007056,-0.012581012,0.053202327,-0.004422289,0.04073907,0.03719818,-0.006669016,-0.01820559,-0.020979906,-0.014601671,0.007955584,-0.01355325,-0.009905731,0.009734269,0.019888628,-0.038024325,-0.050937776,-0.0021648847,0.020160094,-0.020766629,-0.005749608,0.03106813,-0.021216089,-0.040449865,-0.01056911,-0.034063462,-0.020623542,-0.010182338,-0.0155595075,0.05513676,0.01125657,0.02891984,-0.004380566,-0.0053986823,0.014664225,-0.026768802,-0.053512096,-0.049818378,-0.034736626,-0.0059465384,-0.018961895,0.038689807,0.038223635,0.030192038,0.044919174,0.037162352,0.0013589817,-0.0015244968,0.013636843,-0.031624828,-0.014045344,-0.003143665,-0.015990298,-0.04813962,-0.032870833,0.024079433,0.038773984,0.025205556,0.060177762,0.048454918,0.013227439,-0.006366917,0.02475644,-0.014190303,-0.052185338,0.0022221473,0.016956402,-0.0030105815,-0.033439927,-0.00919672,0.03341965,0.024067428,0.0064412914,0.05670581,0.07562531,0.01596192,0.017912585,-0.014945745,0.030028837,-0.010783193,-0.033624616,-0.0026307928,-0.0072931503,0.04372612,0.045045283,0.03345913,0.03938499,-8.2188286e-05,0.046145078,0.011771055,0.013961366,0.0050332425,-0.08328821,-0.052756947,-0.041862495,0.020036101,0.02217587,0.021159317,0.041810337,0.021917893,0.030351914,0.0644435,0.054251507,0.028108843,0.029485656,0.029708171,0.012264374,0.021256717,0.00939385,0.0389483,0.02728534,0.008227,0.036843088,0.043048218,0.034817904,0.052574072,0.036028877,0.027224606,0.0094629405,-0.06309416,-0.041908704,-0.012401778,-0.006373906,-0.00034451837,0.020800741,0.05735799,0.039403863,0.0014394065,0.013500108,0.03558549,0.011995523,0.008514807,-0.010771285,-0.018927572,-0.0119153075,-0.0007516554,0.048585337,0.02082942,0.039558943,0.017907903,0.04728329,-0.0034776079,0.029962573,0.013194631,0.024841733,-0.017745217,-0.0073900255,-0.057016782,-0.059533827,-0.027380124,0.017792325,0.0026855152,0.019598061,0.023946792,0.035156034,-0.025470514,0.020732006,0.04181805,0.0039446536,0.025151756,-0.01264147,0.030180283,0.04670926,0.032585543,0.064872056,0.057330016,0.033609163,-0.01229695,0.034373894,-0.015141634,0.018565055,0.025635028,-0.026026398,-0.028230118,-0.053887796,-0.012774235,-0.0028157963,0.0015444933,-0.004692251,-0.00837223,0.009687905,0.029702697,0.014723474,0.0019521157,0.021547666,0.00975139,0.037408117,0.019241292,0.038313154,0.04620063,0.038725104,0.0247572,0.0925712,0.023081439,0.0427537,0.005321259,-0.017084045,-0.019469533,0.0167888,-0.013116113,-0.0062491335,-0.032228965,0.0024933093,-0.056386,-0.02725967,-0.03742974,-0.012624009,-0.021258267,0.0105750775,0.028182086,0.036714163,0.0041704015,0.0129273925,-0.02368697,-0.014968715,-0.0007357375,0.054913335,0.06513616,0.080103986,0.059868503,0.06401937,0.082120635,0.07070305,0.056138217,0.02989067,0.005799162,0.0016266122,-0.026734231,-0.03962075,-0.019137615,-0.025837412,-0.0027544857,-0.048280496,-0.004756879,-0.022240486,0.02692755,-0.02581321,-0.0022502728,0.0068579894,-0.005965159,-0.0043421797,-0.031567074,-0.041903783,-0.028523957,-0.033561006,-0.033358254,0.0042323195,-0.031410575,-0.028988749,-0.028010339,-0.028466137,-0.008788854,-0.05672245,-0.014429338,-0.0099578425,-0.042527474,-0.051744174,0.015246784,0.0018745286,0.017613297,0.02275976,0.0052379873,0.013816149,-0.0120503185,-0.008162286,0.016289383,0.024545679,-0.013263215,-0.053547334,-0.05874236,-0.06735189,-0.04524843,-0.081354536,-0.0739702,-0.037089616,-0.041277695,-0.08753785,-0.11227757,-0.04586002,-0.07170828,-0.061621334,-0.08024175,-0.08105971,-0.031777844,-0.028851118,-0.041289896,0.008711791,-0.024778713,-0.0033306412,-0.0032765442,-0.031897865,0.014145996,0.031398054,0.03222386,0.027757283,-0.024941396,0.023765473,-0.045223884,0.017287374,0.017087894,-0.049794555,-0.07171364,-0.07470956,-0.025356706,-0.05285461,-0.027596686,-0.013412691,-0.007405509,-0.056727067,-0.021522984,-0.03712947,-0.014954268,-0.01071278,-0.0077052787,-0.010410005,0.022216402,-0.0073946677,0.02780442,0.018325308},
{0.03099087,-0.014994141,-0.026321327,0.017820189,-0.031696223,0.0077841925,0.031567954,-0.0033297923,-0.0017116326,0.009209735,-0.033163417,-0.005753415,-0.008109327,-0.010721706,-0.008598676,0.01897199,0.025932658,0.02345453,0.006226561,-0.014678602,0.014038415,-0.0064898646,-0.028334146,-0.030602828,-0.0026491499,0.032493778,0.011068796,0.024434917,-0.022188826,-0.03384122,0.004567257,-0.0041077435,-0.025713438,0.024406845,0.038677327,0.027332937,-0.002391873,0.03407454,0.036604524,0.007182918,0.04064704,0.060935143,-0.024294669,0.04536268,0.0066592316,-0.006021634,-0.00087970326,0.025182743,0.033365045,-0.020099072,-0.0035693056,0.017328743,-0.022301747,0.02352999,0.008952482,0.007895466,0.0060750037,-0.034161728,0.015833149,-0.019657394,-6.491698e-05,-0.009734597,0.039635655,0.03767608,0.022144003,0.037748706,0.07028621,0.06247265,0.0696186,0.045552697,0.0436743,0.07265533,0.0069589047,0.057264425,0.04095413,0.00028929848,0.020574113,-0.0044692145,0.007746231,0.0061208345,0.016755888,0.03813888,-0.01495028,0.00044350117,-0.023500945,0.034210093,-0.0001992303,-0.008014744,0.014133406,-0.021577189,-0.00455762,0.028394498,0.04103785,0.074259385,0.028459987,0.06988581,0.060838237,0.04805357,0.017663894,0.06468139,0.040856212,0.045820683,0.053368464,0.03102592,-0.003648833,0.036832735,0.009934898,0.008964225,0.040840235,0.007281792,-0.021750258,-0.01566408,0.00474129,-0.0033550728,-0.02412029,-0.036692053,0.0077955774,-0.03656678,-0.022417862,-0.0047421404,0.019219324,0.024141539,0.035049442,0.016787067,-0.007516549,0.057376105,0.035030656,0.033797864,0.014645898,0.009209799,0.032570582,0.032987222,0.016069837,0.016670529,-0.03802444,0.0042509856,-0.02475017,0.02876517,0.016173722,0.02558914,0.019738296,0.032326903,0.03226878,-0.0048421873,0.010293268,-0.002936814,-0.008047586,0.04229004,0.02035957,0.06546507,0.026644148,0.0048243147,0.029907424,0.013736855,0.0018456279,0.060053185,-0.006090118,0.043732684,0.012495943,0.04470853,-0.032474704,0.020676024,-0.022501508,-0.005538762,-0.009216184,-0.025354458,0.0035686952,0.045924626,0.034661926,-0.013528937,-0.006651857,-0.03640292,0.012282261,-0.047404848,0.033435185,0.017905783,0.04254908,0.0012592898,-0.004115805,-0.0029883857,0.01964365,-0.00751418,-0.00025128556,0.009102144,0.051796757,0.045124456,-0.0071397745,-0.019375794,-0.040724635,-0.033164203,-0.020189637,-0.0636548,-0.047213297,-0.003591258,-0.02319113,0.00571614,0.02868412,0.027286695,0.030030318,-0.012242641,0.007396404,-0.009575004,0.042217053,-0.0012240863,0.012895051,0.006495985,0.039611045,0.011867781,0.037386194,-0.017334318,0.005062965,0.01633532,-0.01746034,-0.04071786,-0.031569123,0.010091753,-0.031230286,-0.0144354515,-0.04168543,-0.055060014,-0.002141904,-0.014441848,-0.014328246,-0.021525688,0.022602117,0.012164317,0.00823484,-0.033592284,0.008786186,0.046809837,-0.025800547,0.01569074,-0.01346677,0.007640539,0.0021734328,-0.006619886,-0.008244217,0.038984876,0.009908012,0.023065558,0.011872481,-0.036646985,-0.052992336,-0.03348906,-0.014112733,-0.0152111,-0.010631113,-0.00855551,-0.059055407,-0.013856356,-0.0037145717,0.014494016,0.014427891,-0.00095609284,0.05012994,-0.03371201,0.0113551095,0.00591414,-0.0064678616,0.002909091,-0.014932645,-0.011012723,0.046913452,-0.0051886374,0.023421267,-0.018904485,-0.020307798,-0.023392107,-0.051318727,-0.025982413,-0.022725163,-0.02722522,-0.028107591,-0.0035230063,-0.015233799,-0.0041396953,-0.05904929,-0.020634482,-0.03192046,-0.00072543614,-0.019133154,0.015421747,0.016834596,0.009027517,0.015919823,-0.033084363,0.02091207,-0.003589273,-0.043077447,-0.010068868,0.025818743,0.0045294934,-0.01090462,-0.02883158,-0.02264743,-0.038095772,-0.015613687,-0.061358407,-0.050472822,-0.021205826,-0.030528758,-0.022938944,0.02077464,-0.007850708,0.008051464,-0.010767747,-0.04212289,-0.02065561,0.033041093,-0.017726483,-0.02374964,-0.03786601,-0.047349714,-0.036227483,-0.021366265,-0.03020821,-0.056891434,-0.06394517,-0.0269911,-0.060766682,-0.010854545,-0.008814653,-0.06631614,-0.041351456,-0.074463665,-0.04036864,-0.041448113,0.007936137,-0.00868754,-0.009186665,0.051743794,0.056094494,0.04890227,0.011299998,0.012809525,-0.01817152,-0.015710408,0.028778661,0.020688979,-0.05924664,-0.0736379,-0.020717405,-0.030568194,-0.07197517,-0.023315312,-0.060774922,-0.038067456,-0.06972914,-0.01809156,-0.047954787,-0.07619337,-0.034628365,-0.0031387452,-0.013751327,-0.021030813,-0.023971576,0.001716571,0.04529322,0.047096267,0.03881369,0.09159355,0.02066698,0.017748144,0.031549513,0.0011257646,-0.00872433,0.026891338,-0.05315684,-0.0471713,-0.080760874,-0.059834648,-0.049639933,-0.0488486,-0.040466417,-0.03583691,0.014730701,-9.955011e-05,-0.036493804,0.017317979,-0.0372241,0.0041391714,-0.03445626,-0.009846791,-0.03720874,0.00044948538,0.03883337,0.04699427,0.08409695,0.08471375,0.059153274,0.03910535,0.029470382,0.010728765,-0.008470213,-0.026817326,0.005179729,-0.09462081,-0.067688294,-0.05182001,-0.044889525,-0.021624893,-0.007328644,0.034908574,0.020872949,0.008172533,0.03221667,-0.0076027624,0.03431621,0.03786932,-0.00091678987,-0.026291244,-0.015870482,0.005315386,-0.025943952,0.018812967,0.038202778,0.042388298,0.071415894,0.01792717,0.02153697,-0.032311365,0.03036453,0.006859715,0.010026151,-0.040167328,0.0074787433,-0.014831996,-0.038857542,-0.011710409,0.009061749,0.059810605,0.0791266,0.04673065,0.051212806,0.023849497,0.041508533,0.027229924,-0.03538625,-0.016192716,0.025313502,-0.0069504315,-0.021116272,-0.018144349,0.031395026,0.051551018,0.060220074,0.01940362,0.047448322,0.0432144,-0.030759994,-0.032245893,-0.018493721,-0.0329068,0.022669716,0.021083534,-0.0008765852,0.04271536,0.0050379382,0.05542038,0.0677603,0.026743233,0.026704896,0.048468463,0.0002658069,-0.020769324,0.023788454,0.015452129,-0.023344373,-0.018051572,0.04442567,0.018767728,0.02289618,0.020479757,0.060062625,0.039263647,0.008859421,-0.014164384,0.021154093,-0.017431881,0.022349821,0.00893585,0.03711444,0.0132405,0.043999273,-0.0006696084,0.01145686,0.07385032,0.07665666,0.027067823,0.0211505,0.015421101,-0.0071155992,-0.024496416,0.0032127039,-0.016560787,-0.008977212,0.015417929,0.0027901274,0.00021311892,0.013496889,0.07298955,0.038155925,0.017362313,-0.010177611,0.008844811,0.023599148,0.003394396,0.037762824,0.010516921,0.018614106,0.0019745342,0.053983796,0.047314648,0.03931569,0.0686933,0.02083458,0.06883444,0.0076022632,0.019204339,-0.007991472,0.0054988745,-0.0073753027,0.028480172,0.0018726031,0.0017617586,0.047021087,0.042262126,0.055762466,0.0469879,0.056917243,0.008640039,0.024626782,0.010055148,0.008971505,0.008278885,0.013837014,-0.02301406,-0.0029235159,0.02446975,-0.004648854,-0.0007769039,0.014717544,0.0757675,0.06401729,0.033082895,-0.005919762,-0.005829355,-0.006335779,0.048965,0.047648244,0.048464794,-0.015867691,0.03778498,0.041454203,0.06552659,0.06885396,0.045554638,0.050002977,-0.0006185603,-0.024529608,-0.0028228634,-0.016018627,-0.01764621,0.019506846,-0.0051969006,-0.025339069,8.300847e-05,0.016289385,-0.007227084,0.04567787,0.05023296,0.042244386,0.0036153595,0.027583368,0.054597832,-0.00816687,-0.0056007737,-0.019154863,-0.0070673316,-0.0010291286,0.014372422,-0.0016275914,0.029415062,0.058256127,0.060264733,0.019305868,-0.020083865,-0.031062426,-0.009566658,-0.016304055,-0.029259207,-0.011174681,0.014470039,-0.02043787,0.030025529,0.0063574472,0.026538033,0.006039132,0.060182635,0.031337384,0.011439959,0.014239301,0.039911285,0.05448533,0.020784587,0.018041411,-0.008031233,0.036703296,0.0343913,0.007214895,0.013737052,0.013219388,-0.0035760612,0.05641513,0.009038832,0.0058981515,-0.01567439,0.029200565,0.029270427,0.015319983,0.036945496,-0.016289856,-0.0095969895,-0.00025800464,0.03356701,-0.012437209,-0.016156713,0.018733867,-0.0008070512,0.014262046,-0.015978467,-0.030547153,0.0010582984,-0.029790612,-0.028899105,0.037436444,0.023522131,0.038614314,0.051495418,-0.010025009,0.041041147,-0.020936755,0.029644279,0.013852243,-0.002221329,0.008846236,-0.041434642,0.0013510032,-0.010602153,0.0105151525,-0.043812748,-0.037132647,0.007422822,0.016196424,0.00819648,0.01282104,-0.044065267,0.0073867566,-0.027226351,-0.06316613,-0.018069247,-0.07109397,-0.019065183,0.004877041,-0.0087324735,-0.009985877,-0.012872698,-0.016714325,-0.006705115,0.01510187,-0.0309414,0.0071100425,0.02463552,0.03193869,0.0014287761,-0.051462725,-0.0519225,-0.040026143,-0.0423764,-0.017220708,-0.022375954,0.003715331,0.010419425,-0.0018339738,-0.0022376303,0.014792413,-0.055372573,-0.04031501,-0.063280314,-0.027239334,-0.014497071,-0.0318523,-0.06372152,-0.031846926,-0.016469171,-0.011426336,0.013812958,0.039642777,0.02411106,-0.027285041,-0.014730667,-0.023456821,-0.014765273,0.0057894057,-0.008156608,-0.012962722,-0.03406381,-0.04729499,-0.012394326,-0.07275339,-0.017238764,-0.056063104,-0.03505947,-0.04613078,-0.025878757,-0.033157807,-0.072240464,-0.009370378,-0.06502273,-0.011064849,-0.034767322,0.0028079718,-0.029079832,-0.01997865,-0.0031626483,0.040149726,0.02412408,0.023200627,0.0054418957,0.0012531579,-0.027054103,-0.009997189,-0.0083516035,-0.024087956,0.007987591,-0.03284623,-0.03886599,-0.04810949,0.016346306,-0.050228532,-0.05577378,-0.0020808736,-0.04692273,-0.042399317,-0.014460837,-0.054961856,-0.033599284,0.006714585,-0.03561691,-0.0027896573,-0.014937216,-0.007854907,-0.02043348,0.00970283,0.031778593,0.020184506,0.00031516384,-0.028113225,-0.0005290977,0.031767115,0.036359474,-0.020887481,-0.001097144,0.0051619643,0.017592613,0.026636336,0.008694016,0.03278449,0.029655812,0.017271753,-0.00984673,-0.016820535,0.017604612,-0.0007994513,0.0034199317,-0.014328881,0.0071974243,0.0060666404,0.0086633535,0.0067670345,0.007108093,0.026524698,-0.022954486,0.033413507},
{0.013338873,0.027246706,0.025431383,0.028160935,-0.007219302,-0.008590665,-0.006386987,-0.0030607837,-0.015239695,-0.030862873,-0.021832122,-0.027542252,-0.012188494,0.03918589,-0.0046672476,0.0002223998,-0.0039426684,-0.029698815,0.003759031,0.034159433,0.01516412,-0.010194285,-0.015846211,-0.01572442,0.034683384,0.016742706,0.017363816,-0.0045707272,0.012040394,0.024837967,0.010249019,-0.0124763,-0.006025672,0.00944279,0.025017105,-0.017623222,0.052617494,0.03406214,0.043187883,0.0040580137,0.02698392,-0.0034388585,0.03292795,0.0332332,0.024818696,0.030111026,0.016357642,0.0432774,0.007569889,-0.02162124,0.0026252577,0.006841045,0.005783439,0.026260206,-0.02328702,0.0005477071,0.0050054323,-0.0064522712,0.02107246,0.02954134,-0.0047345576,0.036663383,-0.014781664,0.016986726,0.04918583,0.0071965507,0.05537631,0.057439037,0.079500526,0.042201836,0.043836888,0.01421563,0.0441292,0.003592812,0.053971313,0.011716782,0.016349811,0.014148382,0.0067764907,0.027209317,-0.004152752,0.012714278,0.0275363,-0.00386792,0.010221112,0.025865117,-0.03497762,0.022352966,0.028537828,-0.0060146763,-0.013004975,-0.007829625,0.03820145,0.032966767,0.024578827,0.0045180153,-0.0027634597,0.027521456,0.012075316,0.029098507,0.0019949714,-0.00970661,-0.003451706,0.011373567,0.027673857,0.046729397,0.031558998,0.0073014284,-0.008075804,-0.014330323,-0.009793067,-0.016086822,0.007292407,0.0019208987,-0.01681844,0.007943513,0.0079427855,-0.054301836,0.015877731,-0.006195762,0.003177306,0.009914732,0.0018212778,0.033868253,0.025755052,0.038517784,0.03294901,0.061861664,0.02195578,-0.005752281,-0.0052029407,0.021020334,-0.008711077,-0.0148789175,0.019612586,0.01643927,0.015769212,0.034446906,0.030973395,0.0040502544,0.008338239,0.034650765,-0.013572802,-0.028960414,-0.0064171767,-0.011746215,-0.028423827,-0.014359559,-0.0083611375,-0.016526956,-0.029146751,0.039301857,0.030540032,0.0019803343,0.034924697,0.017950743,-0.007779166,0.009126422,0.034248885,-0.020268722,0.04157382,-0.010957468,0.021863535,0.015734637,-0.026326837,0.04234703,0.011711419,0.0036155288,0.028249465,-0.00010992243,0.0019015709,-0.005958151,8.3637766e-05,-0.004754137,0.026505956,0.0032578434,0.035410844,0.03568332,0.032478694,0.053155452,0.012334024,0.002757423,0.030504629,0.04609327,-0.021394433,0.029137155,0.0013492417,0.01713227,0.01584849,0.038140535,0.002244537,0.02628603,0.017198935,0.057850994,0.03598315,0.039299216,-0.0121931955,0.030037347,-0.024268486,-0.030626707,-0.029305609,-0.005130282,-0.009452643,0.007621003,0.05102834,0.053590477,0.022531958,0.03542446,0.019338707,0.009082459,0.03927363,-0.00411796,0.007824044,0.010511738,0.03885243,-0.0019581274,0.04221883,0.04607103,0.0457451,0.038692765,0.04486005,0.055420496,0.011135868,-0.013698784,0.03127764,0.0058670826,0.013920542,-0.0139547875,0.00890805,0.0029739672,0.06362826,0.0658072,0.041477483,0.02348278,0.011440488,0.049467772,0.046047952,0.046479184,0.027577652,0.033586796,-0.009269636,-0.014225223,0.028976861,0.013287808,0.03281884,-0.0063236547,-0.0010464666,0.056402568,0.02883912,0.04379295,0.0062685893,0.049142938,0.007965341,0.027762454,0.010227575,0.025620645,0.0027825905,0.023678068,0.04742288,0.05441102,0.059080306,0.0042805457,0.066789225,0.02096455,0.04886007,0.033189863,0.048005324,-0.0038502906,0.028637083,-0.00034817716,0.0033499482,-0.020815585,0.017871495,-0.0051844926,0.030308312,0.016628496,0.076489516,0.078117415,0.032469023,-0.01081925,0.03521326,0.042983424,0.032906733,0.034852855,0.039116085,0.010157558,0.009964395,0.04772888,0.018657397,0.0628011,0.019325683,0.05257362,-0.012847994,-0.010334369,0.04834756,-0.02597675,0.020129148,-0.012820487,-0.028782237,-0.028547894,-0.015272308,-0.034062188,-0.0127268545,0.009353799,0.034464046,0.051733527,0.0653114,-0.010592001,-0.011459143,-0.0062037297,-0.011488675,-0.004790303,0.037925806,0.049889166,0.027371744,0.031722836,0.02474266,-0.011694558,0.019133626,0.0024367548,0.0010913409,0.028236235,-0.0195544,-0.0049728723,-0.027530259,-0.044429827,-0.024159031,-0.007626887,-0.025360133,-0.0065666013,0.0046447637,-0.022850432,0.061435215,0.076910615,0.022787372,0.034914628,-0.00081065454,0.050662477,0.031106133,0.017898286,0.04225875,0.029471362,-0.0338153,-0.024686396,-0.053551413,-0.025428815,-0.047847867,-0.0573281,-0.039852105,-0.040049165,-0.006384,-0.058746565,-0.020282561,-0.039516214,-0.034177214,-0.03742749,-0.06241248,-0.03042366,-0.039028656,-0.05818667,-0.028019086,0.040738013,-0.0072823814,0.027773444,-0.0029082089,0.017182384,0.029085869,0.015111237,0.015317861,-0.00026143587,-0.062962174,-0.022516893,-0.046193548,-0.01901297,-0.089189865,-0.024671694,-0.052727073,-0.015321792,-0.0015607664,0.0072408477,0.011612923,-0.0043628938,-0.018804183,-0.0063899145,-0.033912454,-0.065570764,-0.06599681,-0.055007696,-0.011184192,-0.015450852,-0.008470584,-0.0043295617,-0.026009707,-0.009346216,-0.01636433,-0.0061972267,-0.0043467362,-0.049700815,-0.02799843,-0.07605363,-0.0473934,-0.0766211,-0.056713063,-0.030919062,-0.020454014,-1.3795237e-05,0.012568198,0.022258105,0.0045836885,-0.021262342,0.026773231,-0.032934435,-0.03485021,-0.012869633,-0.044839382,-0.059259217,0.0056917127,0.03472986,0.00749879,0.012911617,-0.016254207,0.012827548,0.02291355,0.018329618,-0.043236107,-0.039255437,-0.06544159,-0.02065975,-0.02349851,-0.054231122,-0.044608034,0.0045907283,-0.005211081,0.0033464609,0.06034163,0.044809677,-0.014035942,-0.029021323,-0.0060597337,-0.04292864,0.012808477,-0.046913967,-0.040412746,-0.020319998,0.02293294,0.059082016,0.07203636,0.016988069,0.018586813,-0.0421741,-0.042344313,-0.006378371,-0.014871183,-0.018101998,-0.049065936,-0.028775325,-0.05586934,-0.032771617,-0.031254668,0.038728308,0.04913653,0.023581374,0.01555196,0.0110994745,-0.009650104,-0.01601105,-0.019258099,-0.028605191,-0.0059585883,-0.029046014,-0.020464491,-0.02062953,0.03244504,0.06672403,0.03483709,-0.006209949,0.03142301,-0.0033957858,-0.033645835,-0.037000284,-0.0017610093,-0.056105442,0.02091404,-0.034102038,-0.02573178,-0.011775954,0.014944722,0.014542655,0.045646373,0.019487564,0.033568062,0.024055805,0.030885864,0.024830725,-0.0065986775,-0.0132933995,0.010647527,-0.04984952,-0.026677515,0.036902677,0.07816166,0.028578313,0.078005984,-0.0034696695,-0.0244082,-0.006554959,0.014244049,0.012438565,-0.046942156,0.012633777,0.008115684,0.031095268,0.024719946,0.037290577,-0.01733367,0.0384227,0.001955656,0.033980217,0.032141566,-0.010250726,-0.023704883,-0.020798476,-0.0037722387,-0.008326824,0.009888574,-0.010895468,-0.027129436,0.025658777,0.05233319,0.0575353,0.010969071,0.02683411,-0.002875615,0.026432335,-0.018360902,-0.03350273,-0.044941712,-0.026618194,0.014942036,0.0312418,0.038564038,0.03305226,-0.012584216,0.029144065,0.023694927,0.053545356,0.0055738385,-0.024702737,-0.021893134,-0.0318205,0.026570957,-0.017190361,0.00393728,-0.030733246,0.05173853,0.07027928,0.037148226,0.051245432,0.031943202,0.028072303,0.00088417536,0.0144871,0.022191204,0.014158486,-0.00931556,0.010421596,-0.014584573,0.051566917,0.047832284,0.011576614,0.030817252,0.017438248,0.0204723,0.027565904,0.01857101,0.015981954,-0.004544994,-0.009810712,-0.02421535,0.011321693,0.012864264,0.0009228099,0.05703076,0.059459075,0.01368466,0.04752513,-0.017970776,0.014938307,0.002719884,-0.00031084588,-0.017826037,-0.051295247,-0.019083302,-0.008907858,-0.008356864,0.021304648,0.02108912,0.006885525,0.015373012,-0.0055218986,0.038180817,0.0085628955,0.03140369,0.0020655107,0.008375979,0.010777194,0.030635918,0.030740708,-0.0069255596,0.006649664,0.057519596,0.07410316,0.04228333,0.031117314,-0.00810338,0.021176899,-0.02535922,-0.007918772,0.009153602,-0.03295104,0.01085087,0.0077353776,0.03322626,-0.0045229313,0.018827,0.004369326,0.03579249,-0.020866144,-0.009699768,0.02959984,-0.0004229788,0.026604036,0.010616612,0.021885125,-0.009239191,0.008687589,0.029336773,0.011697849,0.00084181095,-0.002817192,0.016557418,0.0059584407,-0.019954266,-0.016952563,0.021278378,0.020829594,-0.007506904,-0.01791467,-0.0513722,-0.0047188047,0.010996899,0.010689335,-0.005455287,-0.03681529,-0.02059733,-0.00984686,0.031196386,-0.016677303,0.00031081022,0.015102188,0.010222155,0.041846894,0.021710202,0.043243002,0.048517905,0.013409732,0.020038623,-0.00039105603,0.0053560534,-0.0005376112,0.019852048,-0.02406676,-0.018188447,-0.023419121,-0.0019837457,-0.019192042,-0.055066094,-0.033489622,-0.046825327,0.01007437,-0.044246677,0.010132908,-0.00954744,-0.017926963,0.010070903,0.01305828,0.019156668,0.011237641,-0.011703459,0.005035087,0.0009790786,0.009366662,0.023999466,-0.030299334,-0.031756602,-0.041079037,0.024685694,-0.013299851,0.021891238,0.021705467,-0.029283563,-0.03316447,-0.029815977,-0.006422487,-0.013384501,-0.012324706,0.015236882,0.0350969,-0.01881345,0.035503928,0.041990746,0.053820737,0.015440686,0.025034491,-0.0007019481,0.0056306953,0.055190172,0.002304037,0.022595998,0.04144501,0.0058526127,-0.022366202,-0.014918967,-0.028366854,-0.021110168,-0.024098262,0.037420135,-0.011738778,-0.010633652,-0.020983655,-0.019004785,0.021953396,-0.02786922,0.013408645,-0.015815716,-0.00015977533,0.048171703,0.02448879,0.029552627,0.0471585,0.0633167,0.051833484,0.02026248,0.0249776,0.068672776,0.05101789,0.012339027,0.054930422,-0.011734652,0.008993832,-0.029081503,0.0058786403,0.003985767,-0.025776446,-0.019937832,-0.01850844,-0.011038909,0.007272729,0.012102958,-0.011519326,-0.0029588602,0.013121234,-0.0002222336,0.003743962,0.004905557,0.03510502,0.012792541,0.043231077,0.014886429,0.0032627056,0.018155595,0.052269924,0.046051733,0.054878492,0.04208864,0.04578759,0.006348017,-0.00843321,0.00023505426,0.0026837634,0.01475631,0.027698003,-0.001760832,0.008921066},
{-0.009945359,-0.025444176,-0.0055840868,-0.024473991,0.0013334241,0.0018671709,0.008376514,-0.017902171,-0.028457673,0.0061106,0.0122103905,-0.03118961,0.015070287,-0.011396262,-0.006809328,0.030467436,-0.026293088,-0.024220651,-0.0033027276,-0.011642793,-0.023251994,-0.019758383,-0.029776,-0.0029240295,-0.010186217,-0.013905321,0.03091275,-0.035412576,-0.030347522,0.0023716688,-0.013595254,0.026923701,0.016166084,0.027733829,-0.004818265,0.014905271,0.044505972,-0.009204251,0.0074832453,-0.0072069583,-0.018692417,-0.02637779,-0.021618161,-0.017826306,0.019221086,-0.0024169616,0.040567026,0.0045279725,-0.0067200447,-0.015289049,-0.0059533743,0.03637618,-0.020366205,-0.0006322648,-0.019619454,0.010322154,0.0018335369,0.028224453,0.018892836,0.00945206,0.027104348,0.010385417,-0.000117636715,0.02668972,0.020539781,0.023784755,-0.010345212,0.033179205,0.038059503,0.0050685694,0.012393644,0.048180554,-0.011343893,0.031779427,0.0017925586,-0.003666809,0.04605682,0.03344969,-0.012068487,0.019738572,0.043940604,0.01054683,-0.029712453,0.0055658566,-0.0007554506,-0.031784683,-0.008525663,-0.006588124,0.015127889,-0.015482883,-0.00931844,0.0060162786,0.012628273,0.018274974,-0.018192515,-0.0062610744,0.040599976,0.012402901,-0.022289194,-0.0018437315,0.0016737978,-0.01782688,0.009294287,-0.021172054,0.007604152,-0.033070482,-0.012865776,0.0029599683,-0.028461998,0.013011572,0.0036546155,-0.0026692196,-0.030461505,0.02923645,-0.00017685925,-0.0042739417,0.020648645,-0.01704113,-0.016125387,-0.011501673,0.014707837,0.036986187,0.020273171,-0.0017586653,0.037291396,-0.0053325486,0.0167768,-0.030705018,-0.0010218872,0.013145883,0.019782165,-0.018778298,0.024591193,0.01137735,0.003934663,-0.026805742,-0.02149639,-0.012423835,-0.032971982,0.023907198,-0.0040397346,-0.008623187,0.012428499,-0.01231764,-0.027017152,-0.0015981734,0.018812045,0.005616459,0.0059114425,-0.02200429,0.0042468663,-0.005885537,-0.0002915527,-0.041213326,0.021782631,0.0015092464,0.02124501,0.017516196,0.023967527,0.007698171,0.015155288,-0.026270146,-2.7414906e-05,0.0096199885,0.0052163512,-0.027147565,-0.031958144,0.03888603,-0.012865629,0.0024216597,0.014820259,-0.023457363,-0.03595948,0.014242296,-0.030167708,-0.019378273,0.013500068,-0.02975654,-0.0014738758,0.018873775,-0.01729141,-0.03466408,-0.025022706,-0.019382669,-0.0381078,-0.030573284,0.00534734,-0.020391142,0.0138585735,-0.028758252,-0.041463338,-0.029324409,-0.0002971875,0.017358847,0.022064423,-0.016084004,-0.03363966,-0.022604251,-0.0318463,-0.012355154,-0.0049800295,-0.023407154,0.015669432,-0.019624835,-0.02603307,0.003213375,-0.03724591,-0.019680792,0.02641524,-0.02803275,0.024569543,0.00025636886,-0.0119419275,-0.02334619,-0.03964163,-0.022975456,-0.0327977,-0.039282035,-0.0053738765,-0.0100886645,-0.0042688823,0.023381837,-0.019363564,-0.010921164,-0.022149777,0.00048716276,-0.006208375,-0.027807275,0.0048966743,0.01832834,-0.002840248,0.023712771,0.009554945,0.008541755,-0.016891466,-0.034295246,0.014399106,-0.021900322,-0.016210238,-0.022881113,0.011597294,-0.04438574,0.01964785,-0.009381408,0.008785254,0.008382792,0.0024770556,0.0066115367,-0.010513935,-0.03839473,0.014600635,-0.018882776,-0.02613366,-0.019314028,-0.01825498,-0.018170673,0.021963801,-0.029540552,-0.01841347,0.011784619,0.022895575,0.013289702,0.017493432,-0.0254401,-0.0025896041,-0.00044354703,-0.0004910724,-0.030163052,-0.03570827,0.006325819,-0.028137531,-0.0048317593,-0.00045224486,0.02323498,-0.008832629,0.020536773,-0.02175689,-0.02802336,0.009228454,-0.0513285,0.017911868,-0.025101935,0.011632793,-0.022548335,0.007348177,-0.004630996,0.029700382,-0.030462762,-0.027040666,-0.007066639,0.02052576,0.0066566947,-0.03498517,0.023764715,0.011312384,-0.027733136,0.02380071,0.016423665,-0.026516816,0.0205244,-0.014574182,-0.036755282,-0.012324981,-0.034297105,-0.011916573,-0.051922876,0.019663889,0.011293879,0.016527079,-0.02776983,-0.009678877,0.012672522,-0.015588355,-0.020454902,-0.0040870276,-0.014783983,-0.00797615,0.012525145,-0.010423165,-0.041332062,0.005793847,0.0016116536,-0.017767537,-0.008736117,0.005859492,0.022707764,-0.03595723,0.0020431685,-0.029801356,-0.027577143,0.013922424,0.020173777,-0.023576561,0.00021592631,-0.028459609,-0.0043257354,-0.009950105,0.0057903426,0.0051703965,0.0051040226,0.017720383,-0.0060137887,0.026925433,0.013042602,-0.027734118,0.014571734,-0.0015964371,-0.046657518,0.01127281,-0.0146272825,0.005006739,-0.030292539,-0.0317335,-0.0038322809,-0.01089946,-0.031413525,-0.0036733234,-0.012440658,0.0128911175,-0.025230441,-0.03547558,0.029659064,-0.010008491,-0.027293911,0.019302728,-0.00041134184,0.017805686,0.02333202,0.002568961,-0.015573177,-0.028409326,-0.031600595,0.0053718444,-0.022619136,-0.016647762,0.015367017,-0.02125073,-0.027362777,-0.016946906,-0.038314,-0.004506829,-0.028770901,0.016473183,0.0012362854,0.010934467,0.013538182,0.026428245,0.010032772,0.029448625,0.03280649,0.037617892,0.024974138,0.02317481,-0.015929118,-0.034284163,0.014018946,0.014658044,-0.0243788,0.0111264335,-0.018194351,0.021737421,-0.013362459,-0.015301045,-0.03564683,-0.015358198,-0.03837559,0.01218024,0.007283582,-0.009284451,0.025804063,-0.0118887555,0.019295622,0.027252352,-0.020156601,-0.0008253802,0.036232483,0.01341507,0.012887692,0.042525876,0.027585357,-0.0041859606,-0.0012493043,-0.042217914,0.022610273,0.035162184,0.027212292,0.0064877216,-0.030240599,-0.034118693,-0.028593248,-0.004016514,0.02585633,-0.031558592,-0.0155047,-0.04479503,-0.004242149,0.024161994,0.012001871,-0.015931703,-0.019038796,-0.0042599626,0.028831393,-0.02192235,-0.02798469,0.033479847,-0.030932285,0.04610459,0.006264359,0.020986527,-0.0097876415,-0.020326467,-0.009682257,-0.010601415,0.03110279,-0.032814078,0.020720558,-0.021291107,-0.0091791535,0.007538519,-0.019172655,0.02636871,-0.018060787,0.024281763,-0.011092659,-0.011216231,-0.02472453,-0.039093666,-0.03969586,-0.0035463267,0.019633302,0.017593335,0.031722095,0.0068633356,0.00012568822,0.059573162,0.012301256,-0.0030875334,0.0049655773,0.03323542,0.04661412,-0.013162456,0.025127934,-0.012928789,0.0019581497,-0.028570317,-0.007865877,-0.008494785,0.025552243,-0.019589802,0.018399877,0.018928919,0.019179003,0.024284884,-0.023977937,-0.04121787,0.0044918736,-0.029479967,0.001760864,0.025383284,-0.0074227955,0.0180934,-0.00977588,0.029473947,0.0106206965,-0.017849496,-0.004960886,0.021939965,0.011577523,-0.000536535,0.0027951011,0.03276134,-0.026139047,0.021343011,0.0042924397,0.02310457,0.028087845,0.014028846,-0.0011890086,0.017672405,-0.04000451,-0.010544871,-0.006256047,-0.025409784,-0.028676435,-0.011646814,-0.0022527033,-0.01824459,0.011066255,0.03503429,0.036123578,-0.00066244893,0.027223943,-0.02777648,-0.02978511,0.0062884865,-0.006456708,-0.003619745,0.023320092,-0.032171246,-0.029547386,-0.028246894,0.002397248,0.0045600263,0.021361157,-0.006674625,-0.009856096,0.015705535,-0.012031589,0.023608215,0.002751132,0.04770773,0.028189277,-0.007522316,0.03753003,-0.019942777,-0.023426699,-0.00093520794,-0.022891937,-0.0037296128,-0.00874978,0.021130247,0.023479119,-0.026489623,0.037908975,0.008804659,0.028281061,0.007223524,0.029262017,0.0029917986,-0.002570389,-0.025649698,-0.026329698,-0.036195725,-0.04349552,0.021277398,-0.01278844,-0.02494973,-0.0093344,0.035511743,0.032210786,-0.01582781,0.034366418,0.00039220447,-0.02509673,0.014348827,0.0068922113,-0.007957765,0.00062892016,-0.0043499884,-0.005168995,-0.026216438,0.011381508,-0.02337302,0.039272767,-0.0069285436,0.020127213,0.0018073815,-0.036310356,-0.007786778,-0.037855744,0.015862785,0.023921238,-0.0368443,0.0017469383,0.016591258,-0.0070425016,-0.037276093,0.027724473,0.0026616752,-0.00018392838,-0.015026737,0.030286968,0.010044862,-0.008636742,0.018010894,0.028365867,-0.0003894495,0.00912366,0.02286672,0.012655574,0.007891952,0.018000841,-0.03999756,-0.01823494,-0.01763142,0.0027190892,0.0016469536,-0.038036995,0.018458325,0.013705727,0.0079831295,-0.036452275,-0.019351345,-0.025543083,-0.010845034,-0.018397005,0.0307371,0.02875636,0.0124605335,0.027675997,0.022427984,0.01696541,-0.0071556442,-0.02247111,-0.03303378,-0.004727185,0.029931,-0.00952396,0.03508824,-0.010544293,0.012766086,-0.006824816,0.0178635,0.009238891,0.0055537256,0.008261036,-0.016555082,-0.009641212,0.012686313,-0.011828885,-0.020503838,0.015051576,0.013580986,0.026433717,-0.008277254,-0.007583988,-0.008897312,0.007859675,0.0074162935,0.017534878,-0.0066006654,0.021248665,0.009336531,-0.020635247,-0.015810987,-0.022127282,0.006406206,0.001646779,-0.048828244,-0.034824938,-0.030818077,-0.020693138,0.0213268,-0.030971795,-0.006443362,-0.005150893,-0.024750216,-0.026872868,0.024341121,-0.015916772,0.018748239,-0.01895779,0.016993327,-0.006711527,-0.004918422,-0.008286604,0.021736914,-0.02171739,-0.03174601,7.0456954e-05,0.03425121,-0.0056094103,0.036414225,-0.009255757,0.025534432,0.034768175,0.0054294416,-0.018651754,-0.021281056,0.021269541,0.014671321,0.02934286,-0.0059276135,-0.015547989,-0.020503122,0.039010957,-0.0020147173,-0.007586842,0.00050967385,0.063084975,0.047493972,0.012870688,0.028694995,0.025312688,0.03139017,0.023151442,0.0078120343,0.011937845,-0.009702768,0.013141888,0.027661432,0.028457101,0.017262168,-0.014663829,0.0010771407,-0.02728724,0.024251852,-0.0024676314,-0.012967972,0.01034799,0.014992435,0.013707787,0.0021282798,-0.010393562,0.024440482,-0.011701932,0.008554704,0.059936054,-0.014807708,0.044665884,-0.014525019,-0.014730005,0.024887476,-0.006842861,-0.021556033,-0.028285867,0.011976119,0.003684274,0.0040165274,-0.01194461,-0.0062804846,0.0031906737,0.02580844,-0.025113383,-0.00039942382,-0.02451863,-0.03143652,0.0075112125,-0.0002201225,-0.027451798,0.013518414,-0.026124122,-0.014387326,-0.027220927,-0.007393216,-0.042248424,0.03937275,-0.01621827,0.00086908403,0.018493338,-0.009068081,0.026820818,0.030309156,-0.016882041},
{-0.03333123,-0.022617469,0.0034088069,0.016776614,0.0057839965,0.01219179,0.03012006,-0.019720554,0.011635181,0.029674867,0.0010779075,-0.010592525,-0.024126628,0.012023926,0.0012327904,0.0061082426,-0.007876209,-0.02685719,0.010118741,0.02722449,-0.027262421,-0.018569564,-0.00054543786,0.024841812,0.001729216,0.004105398,0.033009157,-0.015730701,0.014339359,0.016774058,-0.012914556,-0.006709827,0.01976528,-0.02803881,-0.0050018397,0.030484423,-0.016169172,0.041497245,-0.012346524,-0.00812658,0.037636586,0.004317167,-0.013803057,0.044557076,-0.0072196713,0.034625884,0.037133154,0.035341818,0.019805532,0.04271658,0.006499539,0.028840348,-0.025835259,0.02398878,-0.035064258,0.02420483,-0.016098356,0.014689851,0.028811606,-0.019190958,-0.02917759,0.024565581,-0.002562253,0.026742807,0.0021906225,0.010502941,0.017037505,0.04751277,0.0576453,0.06775841,0.057174716,0.0714871,0.012498214,0.037124783,-0.0069067697,0.019482033,0.003178396,0.0125341695,0.033673313,-0.023429912,-0.021335913,0.034645643,0.026373588,0.00058826804,-0.013253434,-0.02324964,-0.008970763,-0.017550085,-0.021866832,-0.0213258,-0.0048966804,-0.023799835,0.024168756,0.024724435,0.05627741,-0.014829353,0.021181542,-0.0058141183,-0.017105926,-0.021534935,-0.023431392,-0.0015409396,-0.031044614,-0.04258189,-0.0070684804,0.005859913,0.022675984,-0.024433848,-0.04056517,0.018847877,0.0025884202,-0.015782034,0.012141446,0.0044860886,0.030583128,0.0073398706,-0.010888614,-0.019761212,0.0027894205,0.009575185,-0.016151763,-0.022225643,-0.016244628,0.011080654,0.054856297,-0.00815432,0.011594132,0.020895427,0.0083858585,-0.017430805,0.0059381016,0.008827977,0.008950555,0.014140843,-0.053936567,-0.022843804,-0.039608844,-0.039043374,0.023454212,0.023055179,0.017330639,-0.007193391,-0.0037758518,0.0027523693,-0.040698543,-0.0082311,-0.014228231,-0.01344087,-0.033187,-0.055961777,-0.021933822,0.016934946,0.008126526,0.063642114,0.02153854,0.033250142,0.039374616,-0.03067924,-0.037076525,-0.017239932,-0.037045978,-0.023218336,-0.03338106,-0.0040163025,-0.060711283,-0.052449353,-0.017540155,0.014053861,0.0003607614,-0.036789615,0.012459891,-0.016407693,-0.013518693,-0.009241921,-0.06678787,-0.07147238,-0.013651344,-0.0125839915,0.008097198,-0.018458525,-0.0022128467,0.018472247,0.035336167,0.018924473,0.019077573,0.016080862,0.034844458,-0.008663765,-0.015073254,0.009989652,-0.050022155,-0.026882526,-0.060171973,-0.054679044,-0.011267851,0.010097403,0.020385412,-0.016312562,-0.028004128,-0.023473833,-0.011054313,-0.013950184,-0.05805066,-0.06341761,-0.049477067,-0.029592192,-0.01884598,0.015248373,0.019950481,0.022366533,0.02224586,0.030457135,0.008362971,0.019616581,-0.00033444367,0.022810193,-0.028835747,-0.034067422,-0.051339436,-0.072038695,-0.017570563,-0.06948944,-0.040969748,-0.016009137,0.018897668,-0.049914416,-0.00904092,-0.06786921,-0.05036998,-0.07682107,-0.055654354,-0.06665574,-0.026130117,-0.017645273,-0.021742942,0.011995459,0.028600106,0.0077019013,0.068265885,0.034057647,0.011272713,0.034584217,-0.027850224,-0.042478107,-0.014019909,-0.026800994,-0.018478585,-0.025772491,-0.031005368,-0.028630571,-0.007211703,-0.0063953064,-0.0012385851,-0.05604964,-0.0318741,-0.05261235,-0.014590752,-0.019123359,0.012295401,0.000377912,-0.007636408,0.04658706,-0.011049721,-0.002234832,0.006686123,0.0031842524,0.03933854,0.015563291,-0.023905078,0.00747574,0.005805232,-0.033858728,-0.0005902828,-0.0033553569,-0.041831512,-0.014918476,-0.09134323,-0.061424445,-0.04222829,-0.0007221654,-0.021830877,-0.047558457,-0.065850504,-0.0533315,-0.0070924577,-0.0071396497,0.0066456543,0.062051136,0.0063123335,0.0019031061,0.0052688317,0.00396779,-0.0089251865,0.011088113,-0.0020699338,0.040939912,-0.03242956,0.01439582,-0.03413705,0.008801478,0.003826588,0.019276595,-0.020943752,-0.03965242,-0.041558154,-0.088298984,-0.057272803,-0.010635456,-0.00045802302,-0.0071432046,-0.023506183,-0.0038030683,0.0076498417,0.036290247,0.005911039,0.0497412,0.041300807,0.061305456,-0.0010089652,0.017584454,-0.009887479,-0.0003815184,0.04679919,0.013447753,0.025774425,-0.023491671,0.01710053,0.0030730406,0.065072395,0.0494973,0.055115316,0.044565864,0.024392447,-0.049742166,-0.013596356,-0.013424119,-0.03742085,0.024851194,-0.031042198,-0.048107598,0.0067868507,0.02434441,0.0205166,0.02965575,0.04033886,0.021614542,-0.030617636,0.00079891726,-0.058271155,-0.0046632844,0.051375322,0.05385855,0.02672564,0.014385089,0.04566897,0.031038385,0.06851562,0.061044417,0.061920676,0.026684877,0.029845579,-0.017288657,-0.017161913,0.02410205,-0.00072298665,-0.015375863,-0.03944025,-0.027720317,-0.00805918,-0.024220482,0.0071908655,-0.02823757,0.014776758,-0.032851174,-0.06057135,-0.06027647,0.016055986,0.07151786,0.058151055,0.040568426,0.045757033,-0.006004339,0.05754653,0.012796311,0.029193386,0.020202221,0.039020505,0.014627202,-0.004477622,0.03996914,0.034920447,0.035811424,0.028445186,-0.008301851,-0.04101937,0.01872724,-0.023784358,-0.0025666915,0.0125501035,-0.0069474815,-0.0149307875,-0.028417235,-0.019005692,-0.04560113,-0.022838553,0.05467484,0.075457625,0.06618946,0.03813389,0.020387938,-0.008687082,-0.008010467,-0.009678738,-0.029691163,-0.023262678,-0.04427471,-0.016843403,0.034482095,0.002699474,-0.022406798,-0.0021880297,0.024516948,-0.04862295,-0.029294996,0.022424271,0.0042567784,-0.005241049,-0.028994765,-0.03548283,-0.0073249657,0.0039391047,-0.015606288,0.0409361,0.056878284,0.056920707,0.024680514,0.009729976,-0.009888497,-0.02932722,-0.054646343,-0.04708628,-0.013745638,-0.020622954,-0.04358226,-0.06666624,0.01649074,-0.01081684,-0.0017848602,0.013032673,-0.029839996,-0.017506793,-0.0060304,0.012201519,-0.03741827,-0.06891316,-0.035690002,-0.0037164583,-0.0041328846,0.05225351,0.05201205,0.04224351,0.028549643,0.0052932305,0.024649853,-0.015341095,-0.04096665,-0.062719345,-0.027643027,-0.07351538,-0.08910728,-0.041701164,-0.04046794,-0.049530543,0.010573935,0.033839006,-0.021729695,-0.0050296956,0.008486543,-0.024563437,-0.03759054,-0.018076058,-0.054317746,-0.041152295,-0.020522535,0.023045015,0.031192182,0.030702872,0.06285784,0.044787757,0.06879309,0.028808085,0.008600901,0.0063707125,-0.032095622,-0.026927423,-0.056148484,-0.019893207,-0.065690786,-0.023105152,-0.03570667,-0.016952746,0.044633914,-0.0026748478,0.008205617,-0.015334406,-0.042152654,-0.0071472665,-0.038431883,-0.06445736,-0.06285034,-0.025822964,0.0070656454,0.05206537,0.06651681,0.05493517,0.067926005,0.037548292,0.054666687,0.0009417784,0.022202259,-0.04983413,-0.046923727,-0.03971009,-0.01734053,-0.040452868,-0.019553531,-0.01412197,0.0038459343,-0.0141523825,0.037509788,0.020087909,-0.006077883,-0.011574419,0.013599404,-0.016510496,-0.07349449,-0.05636487,-0.027964909,-0.034488842,0.007810928,-0.00196034,0.012163459,0.06282245,0.037536126,0.0466033,-0.017303923,0.008821326,-0.03462407,-0.03889103,-0.009584771,-0.019089814,0.009300728,0.021901743,-0.0021247063,-0.0039816126,0.033143885,0.021955524,0.032235365,0.007885093,0.02628321,-0.007239806,-0.035296112,-0.052761182,-0.059833277,-0.075768284,-0.061478686,-0.025849408,-0.043618064,-0.0010835053,0.015250904,-0.016395608,0.027697813,0.022267275,0.028100085,0.007988574,-0.015333897,-0.03867337,0.02390136,-0.032903165,0.006211614,-0.020804172,0.03502306,0.027527802,0.013139309,-0.0058189686,0.03450083,-0.025626065,-0.015977116,0.0032603065,0.023821393,-0.044256948,-0.04935023,-0.058878034,-0.048188627,-0.0056258948,0.013996467,0.01602043,-0.023068069,-0.021988079,-0.011033633,0.012605535,-0.0038147825,-0.0068223435,0.02383825,-0.018608464,-0.027997233,0.02611221,0.02926985,-0.0038858557,0.0004806003,0.03864304,0.002442508,0.019156018,-0.0037440339,-0.039635275,0.004023906,0.011742266,0.030755384,-0.015496909,-0.053442977,-0.04829383,0.013624306,-0.003072777,0.0020580962,0.016856618,-0.033217635,0.016009916,-0.01863575,-0.02012981,-0.01741785,-0.007205576,0.039003678,0.019274699,-0.011883886,-0.02201888,0.035671405,-0.018329447,0.007296774,-0.0030856906,0.020462872,0.014531409,0.035487033,-0.035958886,0.010669206,0.024554914,-0.032009978,0.017201886,-0.03173016,-0.017196517,-0.030817818,-0.0110911885,0.0079379985,-0.022588424,-0.019606212,-0.0013013063,-0.009778707,-0.013268344,0.0053541255,0.030464888,0.005758697,0.046055287,0.015890174,0.0022427475,0.0040496555,-0.0149366865,0.019718217,0.042374887,0.055970106,0.0032400808,0.0112500675,0.0110645285,0.026303863,0.0032600465,-0.015949506,-0.016620316,-0.051419944,-0.050701987,-0.019304512,-0.050756183,-0.047909416,-0.020353183,-0.046154287,-0.029826824,0.022022448,0.00883448,-0.038206007,0.017159218,0.014379423,-0.014844428,0.027836569,0.001402748,0.053722538,0.018218914,-0.0012177766,0.04360413,0.048729982,0.02387449,0.010584927,-0.026534168,0.0018386629,0.03073627,0.012775967,0.018895926,-0.045318928,-0.008054276,-0.030516984,0.02057502,-0.017647514,-0.0038340946,-0.038569517,-0.007013397,-0.0010389071,0.02297392,-0.033257913,0.0019128331,0.021545386,0.0006606184,0.060243666,0.013581669,0.0038974956,0.025265394,0.014075606,-0.0069746817,0.04919211,0.0090235425,0.018133216,0.01775818,0.0057686316,0.022709465,0.017727487,-0.015777636,-0.014416116,-0.022664126,0.023235207,-0.012638275,0.012698045,0.04620824,0.057514858,0.016650602,0.016536726,0.039550845,0.058339145,0.02251789,0.0329198,0.05291365,0.035462447,0.050012782,-0.0026527084,0.046731345,0.051450472,0.027331663,0.0032236513,0.0025943315,-0.010037907,0.025360389,-0.023329161,-0.021171903,0.0036300507,-0.03138444,0.01771955,-0.00984572,-0.03907535,-0.027143093,0.019232629,0.018673468,-0.024122603,-0.03690558,-0.0009674081,0.020765262,-0.010095465,-0.026388036,-0.0040192804,0.006441362,0.0031557123,-0.028586378,0.029542234,-0.013975262,0.032786917,0.027849918,0.004903003,-0.008613515,0.008456508,0.0039556073,0.011395621},
{0.030958267,-0.027110705,-0.030887213,0.011554522,-0.035175275,-0.02559782,0.02008949,0.01875171,0.03149783,-0.016454458,-0.007537489,-0.012296042,-0.0180363,0.03692624,0.035391696,0.01895418,0.019777793,0.020111302,0.0014078149,0.0141808055,0.015638582,0.013358197,0.01783492,-0.017843077,0.01832191,-0.0083923,0.004914795,-0.026022281,0.02252423,0.014884004,0.0023490533,0.026300188,-0.008684417,0.020325935,0.029554283,-0.011336479,0.0493507,-0.008464504,0.042482417,-0.00932868,0.03156505,0.029212967,0.015112959,-0.0008903955,0.021821136,0.046618354,-0.009000188,0.023060642,0.04104842,0.027399085,0.023938283,-0.026292596,-0.020399759,0.0042112814,0.018340614,0.025541672,0.035448212,0.008784039,-0.013241017,-0.022791538,0.019456403,0.014307501,0.04423171,0.002016883,0.0483378,0.05855015,0.031628273,0.0050093606,0.040331542,0.05840338,-0.00023366798,0.0039043967,0.025182884,0.031058148,0.006072226,0.020334693,0.005226583,-0.007210073,0.03865152,0.01836147,-0.0071896645,-0.005540761,0.004399619,0.023593253,-0.02643754,0.010438664,0.03509916,-0.033294033,-0.020454943,0.005775808,0.009847829,-0.009001184,0.04398746,-0.017337378,-0.018047083,0.03262043,-0.014940175,0.028764464,0.007175069,-0.0066033094,-0.018730905,-0.030079741,-0.02544927,0.041507334,0.0006229972,0.033251587,0.011763626,0.0095993895,-0.007590763,0.02314475,-0.010589143,-0.0002169226,0.023192756,-0.021104733,-0.0101944115,-0.016184477,0.03199397,-0.025752485,-0.009565612,-0.010114114,-0.01839164,-0.039055217,0.016275126,-0.0036332288,-0.026362924,-0.00081324205,-0.023961034,-0.025260644,0.005742463,-0.022641357,0.02236028,0.020217938,0.026446398,-0.025799341,0.00394026,-0.002390243,0.022375131,0.0016924106,0.018131016,0.020194368,0.0065584695,0.02514136,0.020142322,0.0009380521,0.0040149405,-0.015970802,0.015592677,-0.0075008115,-0.025061961,-0.007256695,-0.006017943,-0.013822709,-0.034872256,-0.0019063485,0.00015849568,0.041029677,0.017729523,0.032592453,-0.0045354953,0.045840673,-0.0018745494,0.012223179,-0.026279096,-0.00015416903,0.013137025,-0.012599789,-0.063837305,0.007167302,0.029875701,-0.019922208,0.0017553862,0.047106985,0.035704296,0.042140145,0.016124006,-0.0041462854,0.018044928,-0.009665624,-0.023159819,-0.0039879666,-0.04458836,0.018592604,0.006503322,-0.00913054,-0.015710518,0.044881836,0.02728594,0.0012088962,0.0039406293,0.017599821,0.012166817,0.0053006387,-0.03929202,-0.07403804,-0.051771823,0.011381125,0.0068894844,0.030778509,0.051411163,0.056382585,0.015577808,0.042094205,0.042027492,0.016154222,-0.012886315,-0.0054736896,-0.027056528,-0.005222575,-0.018973041,-0.04536991,-0.019978596,0.0024051494,0.0068990183,-0.014016649,0.027976606,-0.0058938987,-0.00065749936,-0.009101558,-0.012811688,-0.014834225,-0.06786163,-0.0740389,-0.023565084,-0.027679082,0.029458273,0.017791431,0.046564758,0.057584815,0.007202279,0.049004793,-0.024995005,0.01816887,0.013577124,-0.028496813,-0.01427076,0.009340439,-0.034198135,-0.007118197,-0.0069783614,0.03114858,0.038473606,-0.015484953,-0.0160926,0.0082781855,-0.00078332995,0.0032358407,0.03247189,-0.024953876,-0.038843587,-0.065213986,-0.08303993,-0.044989258,-0.020000393,0.052812487,0.024776708,0.041838508,0.021100795,0.040419795,-0.033796877,-0.037208714,0.00515099,-0.037360556,0.03725829,0.0062325234,-0.0193118,-0.021284232,0.010466047,-0.008850457,0.0041466937,0.014289935,0.03034035,0.0049215876,0.03843712,0.0026448828,-0.024168495,-0.008876235,-0.030165674,-0.09644295,-0.087222524,-0.01404493,-0.0031290238,0.021977618,0.050302137,0.03867022,0.028037628,0.008798159,0.010631316,0.0025581843,0.010477641,0.030363373,0.008993124,0.025346374,-0.005640111,-0.005353924,0.011157862,-0.041641336,-0.034619294,-0.0017413893,0.06018821,0.024717683,0.031412374,0.010167622,0.061230812,-0.012464255,-0.06417817,-0.05131377,-0.073192894,-0.025652856,0.03525221,-0.006470217,0.06375641,0.07264058,0.022811089,-0.02095713,-0.035900705,-0.04040409,0.01222767,-0.03574733,-0.018496042,0.008083698,-0.03170165,0.009928067,-0.017049298,-0.07822096,-0.06608766,-0.021114584,0.06203875,0.030215498,0.053058807,0.05228691,0.08811914,0.033305094,-0.026014244,-0.085809246,-0.050663866,-0.027736122,0.037871,0.054831322,0.043462697,0.0059805554,0.028177306,0.018043304,0.012523444,-0.011924297,0.00038236706,-0.010724355,0.020186387,0.037331656,0.030972335,-0.046367254,-0.06947326,-0.10381433,-0.06543365,-0.002463761,-0.014184391,0.021503357,0.029053034,0.04659617,0.051393136,0.06069358,0.07001188,-0.028126305,-0.04330662,-0.017557558,-0.035241768,0.043404695,0.047312576,0.025444305,-0.010128175,0.027527416,-0.023762038,0.03907903,0.03526951,0.010345635,0.044712577,0.024904707,-0.021449221,-0.08469094,-0.103747346,-0.07481864,-0.06976454,-0.00805569,-0.038508426,0.03097765,0.016094578,0.02701096,0.031773515,0.08926918,0.036261976,0.011259204,-0.0068316143,0.017084276,0.0046272604,-0.020025771,0.026087577,0.04155262,0.0532014,0.03323636,0.06384694,0.05538541,0.050649762,-0.009185019,0.020704798,0.021902869,-0.06891112,-0.049890332,-0.044252552,-0.04595311,-0.055306256,0.023617098,0.02740099,0.038616408,-0.0074761934,0.009986709,0.03755224,0.07066959,0.040468924,0.05870393,0.028216336,-0.021151183,-0.018439565,0.0027410812,0.0149405375,0.015446792,0.0031403787,0.051742204,0.018585343,0.027331501,0.02364319,0.02662198,0.043432735,0.012121823,-0.014946358,-0.080489546,-0.05846447,-0.027760519,-0.0282669,0.015045028,0.013570754,0.003304547,0.04661169,0.045030374,0.03309097,0.07409625,0.015772086,0.022494463,0.040639985,0.02040365,0.021804387,-0.013769434,0.025236735,-0.016117413,0.01895719,0.06228936,0.057591658,0.06941585,0.062425457,0.035720993,0.039180286,-0.04310914,-0.054716613,-0.08166848,-0.060978122,-0.019903397,0.02582533,0.07510366,0.04976587,0.03872793,0.047029536,0.021654777,-0.0046063093,0.02715598,0.013366117,0.042177003,0.050210178,0.05940409,-0.017088989,-0.033868495,-0.038876902,-0.0042729843,0.00727007,0.0074273064,0.0164884,0.048594207,0.046096943,0.01910916,0.013296942,0.0045590005,-0.07249869,-0.044772115,-0.061354022,0.038470328,0.026745481,0.040972233,0.017239984,0.023965364,-0.015624833,0.032867055,0.020572256,-0.037153672,0.006041762,0.023318699,0.009292487,0.007582414,-0.0054268804,-0.019356225,0.019491203,-0.0018973525,-0.035697047,0.0007072618,0.0086570885,0.037146345,0.017696245,0.04535298,0.059904963,-0.03425069,-0.06437464,-0.02939477,0.005628373,0.04491875,0.056602407,0.018662566,0.058187712,0.025443228,-0.009261899,0.026451759,0.024047667,0.0023752109,0.008286459,0.065307215,0.05455567,0.018993739,-0.01476786,-0.018291114,-0.04492924,-0.009977,0.02387786,0.027689755,0.010077491,0.020329513,0.029038562,0.01850806,0.02957601,-0.027176447,-0.055082045,-0.045410726,0.013440021,0.021241253,0.034753803,0.038902927,0.023334298,-0.032253455,0.025086237,-0.016824225,0.0059752767,-0.03263783,0.026563909,0.03497514,0.035874575,0.018954175,0.014594449,0.013477528,0.024330785,0.006791113,0.032109022,0.031231271,0.0061685657,-0.02341723,-0.034170598,0.013879108,-0.015664818,-0.027889738,-0.007893517,-0.0008370163,0.023376737,0.040964033,0.0069792485,0.011040043,-0.024208954,0.0102383755,-0.00096734124,-0.02669284,-0.020082822,-0.0062136357,-0.030727958,0.00596561,-0.019912818,-0.037063614,0.0016064233,0.0011682776,-0.01695497,-0.037941642,-0.00956076,0.0068463804,-0.03189197,-0.040485654,0.005154421,-0.017713694,-0.015798127,0.007954011,0.009409732,0.032049306,-0.014122932,-0.02711221,0.0046464107,-0.018822752,-0.04539188,0.007014708,-0.053099167,0.00371574,-0.014804849,-0.03209137,0.0014455549,-0.027149802,0.044684425,-0.0005365406,0.017650137,-0.00817776,-0.01502035,-0.031022778,-0.0060248054,0.0014856828,0.03842403,-0.0076819835,0.033208214,0.0009886845,-0.014213511,0.017599177,0.049534287,-0.014793482,0.015446557,0.023319036,-0.021838743,0.011888375,-0.0036696799,-0.020209052,-0.009062399,-0.04673705,-0.0434846,-0.037657086,0.018843008,-0.0035768687,-0.028210638,0.036992572,0.0038290962,0.018196711,-0.01871953,-0.04622073,-0.01676921,0.019636989,0.03610509,-0.008778235,-0.014723884,-0.026489155,0.02190781,0.045553032,0.025980406,0.01572486,0.025974175,0.0527041,-0.017880986,0.022463653,-0.013915836,-0.031146407,-0.0113978,-0.0045678075,-0.016064303,-0.052864954,-0.03177187,-0.03844282,-0.027792975,0.010316785,0.009931778,-0.027043961,-0.036125418,-0.036886007,-0.018072847,-0.008940041,-0.02518586,0.017665314,-0.025236025,0.012911033,-0.034732852,-0.0039251433,0.012182864,0.000550607,-0.008625404,0.0078736795,0.012598866,-0.022780383,-0.010837815,-0.011402444,-0.039942037,-0.038478598,-0.064145885,-0.067498125,-0.040084418,-0.016250502,0.032062232,0.028045038,-0.03358154,-0.021436986,0.0075339633,0.03764697,0.01174019,0.03008835,-0.037704643,-0.014707135,0.003369951,-0.01841166,-0.021616846,-0.030511105,0.02845983,-0.0022052855,0.01064744,0.0027830307,0.019860316,-0.02451514,0.0066592237,-0.014177514,-0.05878166,-0.03855961,-0.036965255,0.001256485,0.013663173,-0.008418578,0.028632736,-0.01959961,0.015657669,0.010246664,0.0113459835,0.011467537,0.024346301,0.020326443,0.0031908662,0.0022942775,0.03929625,0.00013638212,-0.0026181552,0.018022645,0.024434349,0.049715642,0.043648567,0.043151002,0.05290162,0.06841576,0.005355829,0.05043538,-0.014666479,-0.035372626,-0.021194248,0.014506277,0.02244706,0.008186339,-0.0126769375,0.029618928,-0.029714858,-0.015682912,-0.008851997,-0.009183684,0.030934425,0.0040853973,-0.007857894,-0.008989687,0.02867897,0.042053692,0.019241285,-0.022098368,0.03251805,0.061103743,0.004195763,0.06338,-0.0010068493,0.040567357,0.042834125,0.0067436006,-0.03498129,0.027359987,-0.004656437,0.022005007,-0.026609221,0.016687972,0.017806688,0.019561496},
{0.030890176,-0.033441257,-0.028216649,-0.0007759929,-0.005344932,0.008857664,0.006944882,0.009374564,0.0074336575,0.0031912583,-0.0121865235,-0.019351287,-0.023671439,-0.021249384,0.01586828,0.008540095,0.0041710823,-0.017673038,0.0104003,0.0006172657,0.02011863,0.00874298,0.027669009,-0.024768097,0.013531711,-0.008233752,0.00676844,-0.014547804,0.011240845,0.017819166,0.03140808,-0.0021474832,-0.021482108,-0.025879383,-0.013579685,-0.0115324,0.036006927,-0.018202262,0.016216489,-0.019994562,0.027070865,-0.030796083,0.019404072,0.010220593,-0.022961551,-0.027075931,0.006078126,0.014142396,-0.014848207,-0.016471418,0.006249617,-0.02573881,-0.015532099,-0.0011269195,0.0056872373,-0.028152958,0.03422936,0.027375432,0.002305107,-0.01832862,0.029434426,0.02351451,-0.0027296764,-0.0021225791,0.0073717996,-0.0016384689,-0.018481648,0.039633382,0.009705595,0.021139167,0.018355995,0.017819062,0.016747164,-0.0069006914,0.028503986,0.0003982794,0.012809607,0.006749156,0.037176035,-0.015749138,-0.017086847,0.023948684,-0.034197792,0.029866774,0.0057619684,0.00022160157,-0.004526063,-0.027084691,0.036803406,-0.009284687,-0.023887476,-0.02124156,0.011745,-0.009372559,-0.022509156,-0.0076822187,-0.03503098,-0.012253098,0.009613176,-0.02758282,-0.007704902,-0.0124486545,-0.018276256,-0.007610597,0.031093294,0.025422381,0.017815242,-0.01168884,-0.012111963,-0.0048390683,-0.028832087,-0.015572506,0.012527807,0.035952345,0.017038621,-0.032622587,0.01988422,0.011751591,0.019374723,-0.029998092,-0.03165257,-0.00038723001,0.0048104157,-0.0026266358,-0.033293985,-0.041820727,0.008416929,0.010262809,0.009533853,-0.044174068,-0.03988071,-0.044984695,-0.0554079,-0.049647104,-0.038881876,-0.032546975,-0.032772176,-0.022174215,-0.0013621482,-0.0094601,0.028274039,-0.033995923,0.011800032,0.039156925,-0.021408495,0.014410245,0.0061287237,-0.016059829,-0.010851069,-0.026994819,-0.011882715,-0.010687227,0.019269606,0.009260705,-0.008530472,-0.010096524,-0.023091732,-0.0025760932,-0.065695465,-0.0022324624,-0.0028433814,-0.08099575,-0.04639002,-0.079417564,-0.05981564,-0.013305686,-0.039714538,0.035924572,0.026369253,-0.029043445,-0.017055247,0.0032765463,0.0013775455,0.013399727,-0.0088235345,-0.002674348,-0.030725054,-0.015594804,0.005554454,-0.0025170057,0.03398037,0.0652235,0.023717936,0.022410981,0.05233794,-0.0019559693,-0.0024759176,-0.017826978,0.0070759654,-0.036049645,-0.03742704,-0.044759884,-0.049862847,-0.0009790726,-0.020765727,0.02102015,0.025812311,0.0073046945,-0.02089617,0.02318965,-0.055217165,-0.054115083,-0.0038793294,-0.014368201,0.020276673,0.020536244,0.0010624387,0.03966525,0.034788672,0.060724426,0.018345872,0.026397724,0.078485444,-3.1167147e-05,0.0172882,-0.04515137,-0.03317176,-0.0028742738,-0.027353736,0.001385894,-0.04724568,-0.063350104,0.0061388,-0.012346764,0.019135242,-0.0137533555,-0.034783877,0.0012201347,-0.049077496,-0.0217003,-0.05121721,0.0067165443,-0.03481422,0.013720067,0.042414475,0.016253246,0.01966162,0.0011355304,0.050254755,0.028176013,0.06509945,0.011778945,-0.011756068,-0.019002115,0.03681984,0.028207596,0.0066070263,-0.001738835,0.008081909,-0.0021678037,-0.039264802,-0.033280954,0.023429826,-0.05569919,-0.030822769,-0.052176163,-0.0049510305,-0.012191293,-0.027529486,-0.009604512,-0.011068266,-0.014447164,-0.008799504,-0.008669789,0.013021535,0.003282012,0.0035573554,-0.010631497,-0.021800233,-0.03331786,0.03027826,0.037240196,-0.0029614025,0.020190205,0.052496415,-0.029680029,-0.0010256832,-0.052154846,-0.011068238,-0.03716733,0.012861959,0.004039771,-0.037695177,-0.018187419,-0.05096317,0.02929789,0.007653706,0.040571865,0.022510463,-0.010339626,-0.0012368774,0.020263223,0.024688678,0.018162124,-0.029904928,-0.027476769,-0.022334663,0.008311937,0.041717373,0.049921624,0.041281123,0.04636986,0.06586394,0.035584293,-0.01712074,-0.040899605,-0.041011266,0.0035586033,0.026442708,0.012355694,-0.06757887,-0.009910587,-0.005047176,0.015535765,0.038442213,0.018651767,0.018487586,0.0015994157,0.022509994,0.0348616,0.010850752,0.005883614,-0.0006588117,-0.03193251,-0.014425728,0.040964026,0.0589565,0.05448064,0.06016937,0.055877,0.01911306,0.008282181,0.031220915,-0.012879058,0.032480054,-0.016717507,0.019850265,-0.024323625,-0.0017772662,-0.050391708,-0.019857459,0.031793553,0.047066946,0.009564778,0.04156374,0.04647744,-0.0013758047,0.016512731,0.036464214,0.03222594,0.03530194,0.018274628,0.021646703,0.048230436,0.034173697,0.05606494,0.042250674,0.08425577,0.05595134,0.07829001,0.0014183816,0.004041118,0.019880487,0.002602124,0.015733957,0.006651391,-0.02993124,-0.029387033,0.025585482,0.042946536,-0.008319453,0.025196128,-0.01697838,-0.010172347,-0.014133973,0.029079346,0.031246727,0.06506325,0.03183838,0.012275956,0.036511656,0.06700729,0.07112629,0.06674134,0.014829556,0.030147316,0.01470889,-0.03702781,-0.009765987,-0.037069842,-0.027282936,-0.020086156,0.013917221,0.018856395,-0.024305612,0.005318203,-0.00056905847,-0.034120005,-0.0022821666,-0.054028343,-0.01224238,-0.050602864,-0.04151158,0.04203028,-0.0017458409,0.0361791,0.040599544,0.032230366,0.023970148,0.05896014,-0.005925836,-0.015718192,-0.04422476,-0.00208515,-0.05634162,-0.058546074,-0.016325094,-0.038425103,-0.0020712956,-0.016562471,-0.0032255265,0.018631212,0.00035471775,-0.030416599,-0.011592347,-0.024495013,-0.01602279,-0.019534009,-0.02673365,-0.03949947,-0.023480022,0.019578695,0.03734468,0.022922134,-0.030902917,0.017209364,-0.00067759724,0.0048111314,-0.025303671,-0.020502593,0.0013593866,-0.04866398,-0.0041534924,-0.026379159,-0.065817386,-0.052092787,-0.030554002,-0.019315438,-0.027032504,0.035306297,0.032097336,0.022770166,-0.0071251653,-0.06338314,-0.0076153576,-0.009866839,0.030006068,-0.013133162,0.036265623,0.03718808,0.032201644,-0.018300874,-0.009781451,0.003767635,-1.5984187e-06,0.010930484,0.020345537,-0.030152336,-0.023008082,-0.04256566,-0.06391212,-0.0475752,-0.0730826,-0.038882203,-0.069094606,0.0076049236,0.021321094,0.03223393,0.036739074,0.0037028152,-0.017123716,-0.006499072,-0.05298438,-0.0048882416,0.02200928,0.042361956,0.022012455,0.04706606,0.0011399246,-0.042719748,-0.059747934,-0.04150213,-0.0026882763,0.050363015,-0.031576958,-0.011767573,0.008024296,-0.009478413,-0.05556269,-0.035460643,-0.06759539,-0.061420668,-0.033494003,-0.0092172325,0.024489162,0.022688514,-0.0066410624,-0.04260752,-0.02598126,-0.005304806,0.0055230167,-0.03859764,-0.0032197756,0.030264933,-0.010794699,0.03711932,0.0013448241,-0.050095487,-0.0073703523,-0.032759864,0.0017675754,0.047161523,0.0006562978,-0.013323122,0.010831146,-0.04101749,-0.01457562,-0.07476835,-0.050190773,-0.040714078,-0.03403702,0.0064318986,0.0104635535,-0.018795984,0.037783533,-0.003834815,0.0077818735,0.023913346,-0.049566817,0.011334786,0.013024484,9.661892e-05,0.014897625,0.0033839263,-0.039342064,-0.05399651,-0.048837125,-0.0418559,-0.007235267,-0.0038364956,-0.0015982903,0.0112531325,-0.017633237,-0.01728592,1.4650429e-05,-0.010963353,-0.047252197,-0.07100468,-0.059262056,0.020605508,-0.007980373,0.017885039,0.010890961,-0.026245188,-0.004498919,-0.012426184,-0.010120796,-0.01322275,-0.015161849,-0.0018394481,-0.047995362,-0.044694528,-0.013993283,-0.022068698,0.0053861607,-0.005605091,-0.036833577,-0.03780086,-0.03675792,-0.0019023584,-0.045492545,-0.006785165,-0.01268466,-0.030165976,-0.06630947,-0.020930167,-0.025988571,-0.0039210715,0.010584165,-0.020362409,0.026409104,0.014362387,-0.007846343,-0.022220641,-0.00086854375,-0.03474849,-0.023552835,-0.060337003,0.005596675,-0.011814155,-0.034738824,-0.019956253,0.020110168,-0.011549741,-0.018489415,-0.011508906,-0.0068872953,-0.0048625246,-0.005466385,-0.060609765,-0.018312156,-0.061262503,-0.054545067,-0.04622424,0.004086101,0.025634378,0.008154027,-0.00019052814,-0.0037762728,0.011893371,-0.022821246,-0.002388116,-4.5119268e-05,0.010042482,-0.032886915,0.009287524,0.00632438,0.030312048,0.04726715,0.008095482,0.05327287,-0.03350487,-0.03407799,0.0026830286,-0.045104668,-0.04192095,0.00030728127,-0.036926378,-0.01618058,-0.053657368,-0.0011773783,-0.030961335,0.0051023355,-0.022839831,-0.010588625,0.012765,0.030699903,0.029335748,-0.03884555,-0.041040543,-0.042012002,-0.028992021,-0.031197602,0.028690191,0.023304835,0.02715806,0.011977489,0.06633112,0.009854363,0.035991553,0.027423732,-0.00945932,0.030067392,-0.039151933,0.014264332,-0.007981982,-0.02670287,-0.002791097,0.0071837306,0.015314343,-0.013529829,0.006493028,-0.014801409,-0.028719256,0.02520545,0.05464741,0.01970769,-0.03466077,0.0012007933,0.03635648,0.052350063,0.039890494,0.047757898,-0.0063796025,0.037809875,0.0034353216,-0.008808964,0.042481907,0.014898618,-0.014585517,0.020838512,0.039530784,0.051401634,-0.010868377,0.021022277,0.015174963,-0.03270142,-0.0028037,0.016506448,0.021917464,0.009683827,-0.012473316,0.004978058,-0.018503048,-0.0065573915,0.01541522,0.034011334,0.07206294,0.039477475,0.05430573,0.046776515,0.016906688,0.027631197,0.04054181,0.05429859,0.046788923,0.07166038,0.060166866,0.032143638,0.06861296,0.08001833,0.056622718,0.043091778,0.015918415,0.022204747,0.0045739315,-0.029093511,-0.029056048,0.033359434,-0.022066211,0.015144783,0.024604116,-0.014654859,-0.014885287,-0.007947331,0.0057968968,0.023653107,0.025279894,0.0035517279,-0.0034634462,0.016889213,-0.0004367913,0.037484907,0.053868994,0.04567811,0.0076047746,0.050326806,0.040645696,0.024906764,0.04727884,0.033674266,-0.028575333,-0.026116017,0.009050195,-0.02836259,-0.018174764,-0.019742459,-0.011093489,-0.0006648813,0.03296089,-0.010131953,0.0141777145,-0.021812156,-0.040070333,-0.009417912,0.0078060944,-0.03705211,0.009524331,-0.008054463,-0.052853767,0.015401122,0.015656715,-0.0037763668,0.017725367,0.009761184,0.016911997,-0.017735653,0.009948412,-0.041389324,-0.0090689985,-0.022167267,-0.012463255,0.01543046,0.0087594865},
{-0.024518443,-0.012737994,0.021791931,0.0045036166,-0.027116742,0.0315898,-0.028079774,0.030848674,0.024904648,0.001754978,-0.005903176,-0.021455532,-0.017927216,0.0030425296,-0.010756835,-0.0070674783,0.029961439,0.031866718,-0.012038585,-0.008522562,-0.02791647,0.010116982,0.006103201,-0.0142546855,0.03389427,0.029416094,-0.02424812,0.010146797,-0.031526368,0.0063681053,-0.001202528,-0.02843169,-0.007747094,-0.015977632,0.007498745,-0.016624888,0.03539715,0.037968088,0.014751569,0.005174298,0.0010454042,-0.005729196,0.03934777,0.0060744192,0.0062967357,0.007526551,0.040575866,0.03655207,0.02224425,0.020902483,-0.021416863,0.019796222,-0.00741521,0.0036037567,0.025655825,-0.022734175,-0.013723532,-0.0157695,0.0044742473,-0.0030823236,0.028113548,-0.018282948,0.022966009,-0.009049859,0.03128629,-0.011156317,0.03141556,0.029812673,-0.015513661,0.0063279616,0.021466756,0.00023648051,0.027730742,0.05082521,0.006103911,0.02875205,0.056901943,0.04265657,0.046064876,0.04420951,-0.017711407,0.0166699,0.021550205,-0.014716022,-0.019544965,0.012917659,-0.027718235,0.004499129,-0.020563036,-0.023691963,0.020835165,-0.005969817,0.0038782828,-0.043989304,-0.02922841,-0.02067857,-0.030930348,-0.0030397843,0.03765735,0.038963486,0.022839352,-0.006503627,0.03731971,0.0382636,0.05210179,0.012795488,0.0787374,0.014450026,-0.01600505,-0.005820684,0.013747575,0.0062904065,-0.006172142,0.016757663,0.03105731,-0.016722638,0.011437976,-0.014631829,-0.006212197,-0.05554521,-0.071701795,-0.036724266,-0.04715896,-0.015120553,-0.020712491,0.0136495335,-0.005506069,0.028958293,0.036501918,0.014550152,-0.006715577,-0.0069891997,0.040661894,0.028441379,0.053195927,0.058633547,0.028708419,0.03915096,0.01949,0.01982424,-0.0060905265,0.006102873,0.00044135505,-0.0007421752,-0.018017147,-0.021436477,-0.0785299,-0.027622512,-0.0057385396,-0.004479238,-0.011751629,0.015519442,-0.028060334,0.01795555,0.025145018,0.03066525,0.019272776,0.0025962328,0.002274354,-0.00650363,0.014784369,0.01211729,-0.015788253,0.0070411987,0.04559047,0.015828481,0.03007824,0.037850525,0.001917473,-0.040459473,0.009256745,-0.052551966,-0.050165303,-0.06958636,-0.06881325,-0.02840449,-0.060527854,-0.050811373,-0.02360537,-0.009476655,0.03339823,0.037938923,0.060609873,0.04737324,0.040854692,-0.022505993,-0.008799488,0.0011229931,-0.027901715,0.009895978,0.023653911,-0.0073044794,0.061520297,0.03011584,0.040160388,0.006490205,-0.018980565,-0.013759758,-0.039176416,-0.060771536,-0.05649067,-0.07355783,-0.070424564,-0.027317997,-0.03334743,-0.00073832495,0.012605745,0.012755253,0.027103242,0.0075636073,0.046239264,0.082407914,0.046685968,0.013794617,0.0366941,0.00947393,-0.0027474205,0.027310854,-0.046145923,0.02843703,0.0691113,0.05180362,0.013265679,-0.008002661,0.0032186536,-0.011870951,-0.062126577,-0.07376967,-0.043729194,-0.07355411,-0.017182965,-0.028801844,0.015772285,-0.027607072,0.017162684,-0.026275046,0.037207197,0.022698276,0.072752886,0.0370444,-0.026368905,0.0051807137,-0.050245814,-0.019751575,-0.044731658,-0.027157234,-0.04689035,-0.006300961,0.093045056,0.08502984,0.026168209,0.019290186,-0.037265405,-0.027232492,-0.006021113,-0.06748178,-0.05082246,-0.044775784,-0.008835388,-0.016361559,0.003938483,-0.012743598,0.03487959,0.03718607,0.03608633,0.07905678,0.047669753,-0.012976654,-0.059494797,-0.041946974,-0.07016721,-0.055453885,-0.026860703,0.02239537,-0.015875315,0.06614638,0.11862842,0.07062026,0.059374057,0.042685956,0.022528665,-0.004514389,-0.044977717,-0.07514858,-0.019443888,0.0037104394,0.010221042,0.026618134,0.070172325,0.018989606,0.057595845,0.045319192,0.09193271,0.029358605,0.038115915,0.0005824234,-0.087571844,-0.08566437,-0.031824715,-0.024951683,-0.03210143,-0.015566877,-0.012857091,0.036958616,0.10233733,0.07853927,0.039431997,0.011253303,-0.044608936,-0.016774762,-0.055444863,-0.009408457,-0.004676585,0.058993638,0.07801964,0.044109683,0.08411409,0.076993406,0.068101354,0.08675761,0.020986114,0.06135616,0.03525111,0.011235663,-0.018400058,-0.024372473,-0.04877479,-0.0023998069,-0.011421439,0.03974842,-0.019959992,0.014089933,0.058881667,0.021410815,0.015083662,0.037406646,-0.01268727,0.016914256,-0.0079960935,0.019483434,0.0073390054,0.05148993,0.06883158,0.083232544,0.03230377,0.025924996,0.025530273,-0.011782925,0.024603719,0.05325708,0.076612055,0.026093896,0.016731396,0.004481175,0.0292072,0.031156655,0.04646855,-0.0027989598,0.017958904,0.0017366355,-0.055060726,0.010538167,0.02481915,-0.028573574,0.019193852,-0.04187703,-0.04982121,0.015598535,-0.0013865642,0.014801412,0.010233081,0.035498742,0.032676723,-0.018820085,0.029684177,-0.005676418,0.04992877,0.07429302,0.048536234,0.050996974,-0.031037753,-0.01998815,-0.016487017,0.021658894,0.036520228,0.025943024,0.0017061273,-0.048267584,-0.06630962,-0.014198879,-0.055104088,-0.021670403,-0.012908475,-0.009233122,0.0020034893,0.028300326,0.0050442987,0.023472106,0.028569188,0.0026851874,0.007126894,0.025474414,-0.02749814,0.022456504,0.031620007,0.013538286,0.021109696,0.00161496,0.041181594,0.010170201,0.020980401,-0.014572619,0.026509428,-0.010584631,0.00759446,-0.08140929,-0.06533067,-0.055360336,-0.07158302,0.008589224,0.019300802,-0.032034867,-0.04034149,-0.025547853,0.018968929,-0.033817917,0.0042194873,-0.03828089,-0.015790327,0.0016700599,-0.028476028,-0.015324505,0.0031677417,0.0024037573,-0.0029444431,0.0017570606,0.000200984,-0.024335168,0.0053638313,0.0004593563,-0.035257787,-0.05017056,-0.015684359,-0.033158317,-0.067622684,-0.062823586,-0.027068103,0.008184815,0.019634377,0.015442814,-0.051117998,-0.00013144918,-0.053577375,-0.06332657,-0.01273386,0.007269575,0.007435244,0.0031508573,-0.0016973836,3.1361512e-06,0.0028287943,0.0039737276,0.02050095,0.015032566,0.0142339915,-0.02212865,-0.018334985,-0.011071638,-0.02944222,-0.008923974,-0.058940403,-0.016324686,-0.07444776,-0.061530188,-0.08252258,0.0010743238,0.027732493,0.017499201,-0.011249093,-0.03700206,-0.02797396,-0.040700536,-0.05245701,-0.02988537,-0.012870604,-0.024769181,0.040291853,0.01801716,0.007848319,0.0033606815,0.0004652665,-0.018747946,-0.046243746,0.0056662364,-0.033203468,0.013942311,-0.012064919,-0.041308254,-0.020757372,-0.015041288,-0.071310446,-0.08625809,-0.040077742,-0.037656825,0.005611989,0.01624685,-0.040684942,-0.029661609,-0.040162574,0.0017342501,0.012515117,-0.0070244027,0.021433016,-0.018318042,0.01669181,0.037753817,0.015600996,0.0056516365,-0.027908867,0.010890575,-0.007710253,-0.0100380145,-0.008397673,-0.012801802,-0.017443942,-0.03948332,-0.01961368,-0.0396222,-0.049847,-0.076609105,-0.019677846,-0.026589748,0.001915877,0.012632292,-0.0025722294,-0.038203705,0.004550692,0.009437076,0.019252721,-0.0036683443,-0.017953906,0.04127097,0.0052285325,-0.003716627,-0.0014293772,0.03702799,-0.033724446,-0.00024751638,-0.014780009,-0.002844636,-0.027468262,0.02435658,-0.022341631,-0.0034439263,0.00041807574,-0.02780036,-0.05141298,-0.0042913,-0.0540454,0.005492272,-0.006622055,0.022104857,0.012747661,-0.037201833,-0.014117111,-0.0405552,-0.02653309,-0.00024642856,0.033423517,-0.035282586,-0.00043636336,-0.024713872,-0.015475384,0.00920111,0.016013255,0.0033421374,-0.024301358,0.022136843,-0.0035168196,-0.0072641606,-0.0012088736,0.0238533,0.018133549,0.0071742674,-0.040766012,-0.03817709,-0.026024947,0.0042089033,0.039259575,0.029648798,0.004482943,-0.027158067,-0.011610895,0.0042120917,0.01578483,-0.02784538,0.013273226,0.026731733,-0.032291256,0.00666077,-0.00922262,0.0032536394,0.0203529,0.03434707,-0.032634363,-0.019509649,-0.004213373,-0.0019459351,-0.012133302,0.029861853,0.009557674,0.03521382,0.028792415,0.010812688,-0.010869274,0.025181256,-0.011076283,0.011326209,-0.050978392,-0.0156732,-0.012033791,-6.8061076e-05,0.0060819658,-0.022582889,-0.008367512,-0.033128776,-0.028416136,0.023214156,-0.007581655,0.043984197,0.037035063,-0.020660454,-0.014323564,0.028600741,0.025413822,-0.005331891,-0.020829206,0.04020772,0.040033456,0.035665754,0.016916279,-0.0143622095,-0.01779534,0.023081975,-0.0073657124,-0.019748485,0.008586674,-0.024697527,-0.040954836,-0.029705027,-0.009973694,-0.045422383,-0.013697003,-0.0076754973,0.018216038,-0.026026636,-0.018696027,-0.0034947835,-0.015073587,0.03496364,-0.011212742,0.030950895,0.023165759,0.011253073,0.03889371,0.036236547,0.021140423,0.007978132,-0.030329613,0.029603332,-0.02314232,0.014032007,0.024383176,0.004514409,-0.033170577,-0.001583924,-0.025320757,-0.039831985,-0.056558613,-0.03869431,0.0048041414,0.02100879,-0.028839773,0.0016395579,-0.00446591,0.0072882595,-0.008688877,-0.00605137,0.03930274,0.024905376,-0.002783056,0.017903762,0.050868466,0.04172018,0.025846649,0.04033419,-0.016957965,-0.034848865,-0.01417376,0.023357805,-0.006082701,0.004928274,-0.028976519,0.0047398387,-0.026699727,0.025452103,0.023168316,0.026782302,0.03997887,0.043875508,0.016456472,0.046392906,0.035277296,0.005960812,0.017877754,0.021451997,0.06520173,0.075310685,0.050705757,0.037041415,0.056980103,0.026852274,0.010326962,0.04299399,0.023690991,0.022174263,-0.0020022595,-0.027255975,0.00039059776,0.014782834,0.029288894,0.015332902,0.0047672642,0.033224512,0.011197127,-0.006048823,0.026422512,0.061808493,0.035503753,0.036803555,0.02249618,0.056969494,0.06561256,0.046460755,-0.0018089135,0.0029533547,-0.0048529105,0.04171435,0.026499338,0.021640284,0.026460167,0.017613158,0.009604732,-0.028372778,0.015599035,-0.025216674,0.019244915,-0.012796245,-0.00735062,0.013939892,-0.02348731,-0.031308144,0.014425892,0.005137995,-0.03311669,-0.018717116,-0.015514402,-0.02712933,-0.001748974,-0.03825004,0.017443439,-0.00597302,-0.048133932,-0.03550482,0.010869522,0.024453755,0.042950414,0.006913253,0.024119802,-0.021424128,-0.030929903,-0.03315857,0.0027556547,-0.007794274},
{0.021336617,0.015276901,-0.016038295,0.023619674,-0.018002102,-0.0015037529,0.033460207,7.171291e-05,-0.031158764,0.004683116,0.030207917,-0.033652678,0.016899722,0.009328792,-0.0028095252,0.0062061604,0.033203315,0.017143017,-0.0018497622,0.0067886245,-0.012752304,0.030988524,0.028554313,0.0054652863,0.02763999,-0.026219986,0.027290478,-0.010599648,0.010624682,0.015310578,-0.012657468,-0.0161918,-0.024647966,0.028601725,0.0125493,0.037156627,-0.006734082,0.010166606,0.047270857,0.028665422,0.048508078,0.010492494,-0.015251347,0.02504664,0.015825171,-0.0077212946,0.026388753,0.009352184,0.034990482,0.009256816,0.03555116,-0.00096952583,0.02490682,0.011177344,0.010798846,-0.022887988,0.029773947,0.021565396,0.012692852,0.0076056076,-0.026942283,-0.0066836327,0.0082693985,0.0016350739,0.051080484,0.024582412,0.041683745,0.051224425,0.020148488,0.034174882,0.048387654,0.02052512,0.03027458,0.046196196,0.03585321,0.013185811,0.05868189,0.029669281,0.03980256,0.025852013,-0.016059604,0.011574795,-0.0030683195,-0.001426352,-0.03470821,-0.008643708,0.031167528,0.017384546,0.02726357,0.03314025,-0.0062955907,-0.018696003,0.026069725,0.013572473,0.03859788,0.028862033,0.031536605,0.036694366,0.027537212,0.034909002,0.011508756,0.020120395,0.040924724,0.017493496,0.03851018,0.035042647,0.016457848,0.0142209465,0.03831007,0.018112794,-0.013623435,0.032349687,0.028319504,0.0019608238,-0.032657806,-0.004570738,-0.0077370987,0.053438347,0.027545806,0.013532206,-0.016128048,-0.012823927,-0.00937368,-0.009288093,-0.014632127,0.034075245,0.0077935765,0.0216201,-0.0148107335,0.0333436,-0.00029616948,0.04494294,-0.0066111367,0.025268912,-0.021442203,0.028579568,-0.021865873,-0.025622737,0.012299944,0.03541198,0.02916567,-0.035228014,0.037657123,0.037059087,0.052662134,0.019126473,0.028179672,-0.0037624328,-0.022036904,0.038530506,-0.02662009,0.029558405,-0.02631746,0.030222299,0.013639212,-0.013537477,0.03729557,0.046381816,0.040850453,0.040386684,0.031289972,-0.017077025,-0.012527948,-0.032877892,0.03346785,0.014602932,-0.003884675,-0.012919996,0.009411697,0.035292327,-0.009924158,0.046409186,0.049682364,0.013660124,-0.010079936,0.038720686,0.045518607,0.021312298,0.001206561,0.010683954,0.014222346,-0.033369154,-0.026741702,-0.0063653933,0.02514616,0.019277882,-0.031015644,-0.005521831,0.0002625627,-0.015092475,0.04388913,0.020525731,0.036772374,0.0388974,-0.019614719,0.03715649,-0.023485862,0.019394832,0.02733244,-0.0032339767,0.055688933,0.013655064,0.057371162,0.057178203,0.06704987,0.028316546,-0.002861398,-0.0136810895,-0.028192269,-0.047821034,-0.027961547,-0.013026606,0.010654858,-0.021822007,-0.003168735,0.009891829,0.034172952,0.0184759,0.022019884,0.023708496,0.05639871,0.027630078,0.021667968,-0.015904719,0.0025239713,0.0026756648,0.010551028,0.0136202285,0.05919284,0.063754626,0.008437716,0.02829587,0.028781157,0.03474921,-0.009276764,-0.010048326,0.024717111,0.009549408,-0.019001601,-0.0435751,-0.040537085,-0.02745097,-0.014327172,-0.011732808,-0.024427002,0.0055424455,-0.0071877777,-0.009527467,0.040528856,0.043606617,0.03982211,-0.008797338,0.007618216,0.041360386,0.03104666,0.041486923,0.05792442,0.044516463,-0.0009884626,0.04889638,0.013042141,-0.020600338,0.014233816,-0.046054304,-0.029611127,-0.025579805,-0.03288329,0.011040373,-0.032847837,-0.012151398,-0.02179308,0.002688828,0.025683297,0.010757866,0.04117006,0.026458845,0.03319418,-0.0056824265,0.03044454,0.021445436,-0.02061174,0.009828589,0.033381518,0.027967386,0.0591261,0.04845818,0.03215529,0.031052278,0.022263324,-0.00666789,-0.029821832,-0.032352716,-0.042933755,0.040350802,-0.0063295467,-0.020022621,-0.010261871,-0.025113175,0.017842123,-0.01654287,-0.001681641,-0.0015792919,-0.013333748,-0.008047403,0.037493885,0.001534832,-0.02437892,0.0068378504,0.022821276,0.046338912,0.017425235,0.016396973,0.001072766,0.037039764,-0.00817538,0.029858531,-0.03555341,-0.010283287,0.017912297,-0.012868433,0.032626703,0.035922244,-0.00065908977,0.033152983,-0.0014944761,0.026042301,0.0007304663,0.0030276894,-0.029279254,-0.030340128,0.037844274,0.00023680436,-0.004546222,0.052411925,-0.0007385749,0.018316435,-0.005891372,-0.0074633653,0.047348574,0.056102324,0.027962267,-0.027925622,0.0031430323,-0.009487355,0.0074020224,6.0569557e-05,-0.053140122,-0.014656455,0.03265731,0.011680589,0.05214369,0.03199164,0.004170246,0.041949432,0.0065491386,0.010333169,0.012732508,0.028563589,-0.011866028,-0.013657809,0.0077914586,-0.015151042,0.01323237,0.014951566,0.018190447,0.03931577,0.032669716,0.016052036,-0.009189117,-0.04310792,-0.03922671,-0.046478894,-0.055506725,-0.012741215,-0.028553838,0.028604612,0.04793555,0.01923293,0.01598566,-0.0019357292,0.05003333,0.031042948,-0.035990834,-0.0112068495,0.009222023,0.0028595233,-0.04009067,0.025454137,0.017217109,0.012160976,-0.0463321,-0.01125718,0.030435866,0.017629549,0.047373626,0.018458623,-0.049633726,-0.06475974,-0.009280498,-0.06342361,-0.049225625,-0.038925502,-0.040207874,-0.019783637,-0.01007699,0.057346813,0.05877169,0.03140835,-0.020334657,0.0062169204,0.011906089,-0.030011455,0.000422144,0.020452844,0.02261966,0.026936587,-0.018123792,0.018964978,-0.031197844,0.014453878,0.038606633,-0.008194363,0.014763865,0.03533684,-0.020041203,-0.011189711,-0.02921601,-0.05017176,-0.016122457,-0.004932933,-0.01429276,0.004728254,0.05016494,0.06750055,0.011680771,-7.6238604e-05,0.023268152,-0.041524798,-0.017998416,0.024631558,0.015004932,0.0213915,-0.014666662,0.021419194,-0.0076437723,-0.010634742,-0.07143839,-0.044212013,0.031489007,-0.008988991,0.04259613,0.003481912,-0.029119784,-0.020094214,-0.045097273,-0.04912139,-0.020703524,-0.045670953,-0.039629538,0.026776178,0.042786494,0.04398329,0.0032959257,-0.015971992,0.0012892159,0.001855361,-0.008250122,0.0022941085,0.020819936,-0.014178162,0.010414529,0.020565394,-0.033190325,-0.041271437,-0.018204633,-0.017868193,-0.020619359,0.0009637445,0.016339011,-0.014628988,-0.032302104,-0.011616968,0.0063448213,-0.03517698,-0.028144695,0.0069086202,0.033157926,0.046200313,0.049280375,0.016418833,0.0117350975,-0.0017340684,-0.003381819,0.008470451,-7.7434335e-05,-0.013945214,0.02828126,0.016343936,0.020041699,-0.01760861,-0.052397676,-0.079939425,-0.06649544,-0.029813701,-0.014307691,0.034947578,0.027381366,0.05466756,0.03091636,-0.02823164,-0.035084922,-0.010028014,-0.023372453,0.047284365,0.014706084,0.040115755,0.031604324,0.002645506,-0.037259836,-0.0139170755,-0.0023092213,0.010179758,0.04563216,0.031949453,0.026196165,0.035029713,0.021768216,-0.05107729,-0.013884661,-0.017542146,-0.004862155,0.0059430543,-0.016093032,-0.007816436,0.016108723,0.030485049,-0.011863377,0.030483427,0.023086507,0.03406761,0.049048685,0.010502215,0.05751783,0.046269774,0.0013878786,-0.00093309116,-0.026316479,0.01485565,0.00039320491,0.047708243,0.015403557,0.020878192,0.03874966,0.013493696,-0.025702331,-0.029351331,-0.048214376,-0.0072991196,-0.005923855,0.010421434,-0.025060276,0.013729767,-0.009761981,0.0388582,-0.0022736301,-0.028208593,-0.018505143,0.013878609,0.048643637,0.02116596,-0.008940335,0.0033801175,0.025927803,0.018577537,-0.009065075,0.03319874,0.0212843,0.01977808,0.025444154,0.032600205,-0.004125431,-0.034586076,-0.0059296843,-0.04799748,-0.007143494,-0.05224016,-0.033078205,-0.022877485,0.015322053,0.009706429,0.05324407,0.010041087,-0.024842683,0.0059715337,-0.027509112,0.033513337,0.029130125,0.019107122,0.002714479,0.027734779,-0.006547222,0.0059590796,0.043966096,0.01740402,-0.00042695506,0.013034682,0.039210357,0.015266242,-0.014960652,-0.045704555,-0.029149413,-0.036993824,-0.06773081,-0.008779155,-0.034373537,-0.014640891,-0.014498462,-0.009412791,0.044635467,0.0050268616,0.0020934572,-0.014125502,0.019810675,-0.0078209285,-0.0013939488,0.022567986,0.02726271,-0.019765109,-0.005683749,0.017399743,0.054792855,0.007206568,0.033714056,-0.005741655,-0.01945563,-0.012360102,-0.012441358,-0.040584583,-0.06493763,-0.03655613,-0.07383818,0.0031338134,-0.02971107,-0.02262576,0.03415038,0.0003852887,-0.013153314,-0.0046045375,0.027317515,0.026764097,-0.0016473675,0.012359385,-0.026442299,0.01598684,-0.015047255,0.009866243,0.041736376,0.05926904,0.033747055,0.060702242,0.00086819613,0.005408587,0.0027620117,0.023340805,-0.045190305,-0.0155076245,-0.0650793,-0.024558451,-0.007304454,-0.041016694,-0.022255467,-0.0046682106,-0.01068441,0.0033567336,0.012372067,-0.0051463423,-0.0007517385,-0.022694398,0.035330612,0.00167057,0.02244948,0.025745425,0.04717975,0.004400571,0.055105295,0.008138529,0.018015012,-0.005554773,0.032423675,-0.03254665,-0.03250295,-0.03138643,-0.04093141,-0.052942943,-0.020621791,-0.045680895,-0.031247167,0.022532672,-0.010087371,-0.004373397,2.5515046e-05,5.2379713e-05,-0.0007681929,0.046144877,0.0073211757,0.014372392,0.01236842,-0.0008578751,-0.01862717,0.01734569,0.00666072,-0.0017831338,0.0044466765,0.013256769,0.012819152,0.016088618,0.0064745136,-0.006920034,-0.047843404,-0.050243553,-0.016555693,-0.011613022,-0.036810968,-0.02416036,-0.025907231,0.030762075,-0.0282315,-0.0062035536,-0.0034906524,0.008818005,0.018284393,-0.03324924,-0.031933933,-0.030481946,-0.0256408,0.013655694,-0.034805182,-0.026813963,-0.020811174,0.0086972555,-0.053010255,-0.042657327,-0.006836966,-0.02129568,0.012636412,0.022939209,-0.023495752,-0.039526783,0.025363645,-0.016549282,0.019096175,0.010034576,-0.0123169795,0.020756857,-0.0025765386,0.018442964,-0.025285713,-0.0053373193,0.023082785,-0.024105763,0.029838229,0.034742106,-0.010304847,-0.0017158267,0.043528266,0.020546945,0.010846204,0.01933273,-0.0043966486,0.003022542,0.013717188,-0.014506874,0.05597383,0.054633986,-0.00502515,-0.0003075766,0.021359595,0.0024265212,0.026434079,-0.006780456,0.018090654,0.013378701,0.007270724,0.025527585},
