const float weights2[10][64] = {
{-0.02961306,0.004674069,-0.030091664,-0.13448733,-0.053619586,-0.11290409,0.18914762,-0.060698576,-0.098906584,-0.077592745,0.01617813,-0.13039283,0.10221054,0.026538568,-0.17926662,-0.19914247,0.12193633,-0.18784183,0.1500764,-0.075527675,0.14227277,0.061897285,0.16275951,-0.22309801,0.043401547,-0.1950624,-0.18945533,0.065363914,-0.06663959,0.01614374,0.03664272,0.1489502,-0.16671358,0.19515938,0.0046696486,0.119938195,0.12861367,-0.11853186,-0.029293811,-0.08296904,0.032192353,0.048997812,0.08078374,-0.18163429,0.0071703265,0.060392946,0.14301328,-0.19226076,-0.12484528,0.06936469,-0.22474027,0.15486646,-0.11283997,0.15320815,0.028308459,-0.14444715,-0.15547693,-0.10095005,-0.07474999,-0.1354143,-0.044608336,0.03965155,0.12436009,0.014971701},
{0.027927632,-0.08939505,-0.09220531,0.028642854,-0.09760544,0.1244374,-0.056348782,-0.20049508,0.061519634,0.038898148,-0.17989267,0.04414359,0.03274387,-0.12960623,-0.066362716,-0.02143964,-0.11813629,0.1634373,-0.1928433,0.17441727,-0.103947975,-0.21991447,-0.10469568,-0.18841048,0.20215201,0.13694228,-0.0343238,-0.16851202,0.12673604,-0.18432401,-0.06498095,-0.0471633,-0.119429305,0.049577232,-0.042812824,-0.17328177,-0.1156639,-0.13069628,-0.15724955,0.1437797,-0.22765306,-0.11939297,-0.054245777,0.11420144,-0.21493696,0.13033018,0.030865848,-0.18031426,0.12034233,-0.18968838,-0.047111653,0.088177264,0.04377762,-0.11565709,-0.016766775,0.18097857,-0.0772318,0.10150866,-0.1340526,0.17630026,-0.09987918,-0.0065418226,-0.17277768,0.0138330115},
{-0.13651367,-0.085521765,0.1870867,0.07501762,0.011578813,0.019726919,0.07967053,-0.14830661,-0.13204615,-0.053324062,0.16096543,0.033804823,0.032162525,-0.14144371,0.03489495,0.16717592,0.18451577,0.11041279,0.033134352,0.11047659,0.18151961,0.13034502,0.012449054,0.08522587,-0.009309974,-0.10441574,0.038500227,-0.0480427,-0.16697423,0.043424852,-0.12007566,-0.17668577,0.09971201,0.13782242,0.09950685,-0.09025037,0.021243308,-0.19620071,-0.10339984,-0.02333065,-0.15430257,0.15591986,0.06237156,0.011929219,-0.14687967,0.08596359,-0.18271807,-0.11972113,-0.107038684,-0.14394446,-0.15622957,-0.10912717,0.1622793,0.14588012,-0.05835901,-0.111505695,0.09460526,-0.11075467,0.030869365,0.12565653,0.13397086,0.17032105,-0.080835894,-0.16678748},
{0.10839929,0.11431498,-0.10091389,-0.10128912,-0.027448159,-0.17539103,-0.16194762,0.011679975,-0.117011234,0.15024345,-0.068510935,0.02163456,0.13186131,-0.13823621,0.12936167,-0.15648258,0.00981835,0.15724488,0.07494013,-0.13391301,-0.024159208,-0.18111578,-0.17252724,-0.007891482,0.11488568,0.006893733,0.1044446,-0.11953687,-0.2096867,0.16616993,-0.13484062,0.052429616,0.10164798,-0.14595065,0.12194938,-0.14230569,-0.09417372,-0.12597705,-0.08542781,-0.12152828,-0.10726852,-0.06372259,-0.17574874,-0.02873894,0.15954518,0.106058426,-0.16600457,0.0007334339,0.09961406,-0.028366707,0.16376211,0.17678006,0.0068904404,0.15721321,-0.16360223,0.053244136,0.033911016,-0.04145823,0.15050279,-0.042024687,0.19012116,-0.02549073,0.08362644,-0.00024070183},
{0.05794956,-0.01683548,-0.14200634,-0.19636945,-0.10166322,-0.11490809,0.04344412,-0.0711769,-0.10373956,-0.04004452,-0.16373192,0.016010135,-0.06569717,0.08558138,0.07339134,-0.10120964,0.027261004,0.024560984,0.005622721,-0.15055127,-0.0057493933,0.19662288,0.14601156,0.06496975,0.099328406,-0.16254619,0.067085765,0.07255777,0.17726867,-0.16616307,0.06677707,-0.1204402,0.14578785,0.017523356,-0.11000065,-0.040392064,-0.18112627,0.15187332,-0.1144174,-0.0068406705,-0.12084893,-0.1350909,0.14773896,-0.21899098,0.003833276,-0.15936124,-0.01232176,0.18873738,-0.07896701,0.17554766,-0.025295194,-0.17132585,0.04579663,-0.038181078,0.12719718,0.11279066,0.13755612,0.08641701,0.10175039,-0.02008806,-0.113341235,-0.21289076,-0.22891414,-0.20759054},
{0.13048926,0.08372536,-0.10110658,0.08420337,-0.08957581,-0.19490486,-0.23977897,-0.11389055,0.12039529,0.015430023,0.05971644,-0.08178422,0.093811706,0.18836561,-0.1404614,0.1490796,-0.118830904,-0.15944514,0.13770954,-0.21130282,-0.018144507,0.07757931,0.082056694,-0.037141602,-0.13909437,0.18157876,-0.20269239,0.045604162,-0.13367714,-0.12629871,0.1299079,-0.14523156,0.13810363,-0.22428848,-0.0075420626,0.18340044,-0.063257255,-0.026367718,0.030529015,-0.22314207,0.11400427,-0.0324485,0.17493564,-0.14873444,-0.050534856,0.09896626,0.007166896,0.01160233,0.15645644,-0.07425696,0.19153868,-0.025429197,-0.21531326,0.017894523,-0.14389397,0.003894317,-0.16538976,-0.07340006,0.036892697,0.070129365,-0.09547109,-0.14332268,0.0063270736,0.115144126},
{0.15120037,0.11566282,0.14122903,-0.029453564,-0.010024416,0.011879347,0.05060666,-0.06524409,0.030097988,0.094959065,-0.070764795,0.053174887,0.13851136,0.092917904,-0.02877369,0.0058201794,0.10518975,0.10032997,-0.12358503,-0.0067529567,0.17019993,0.065722935,-0.11009539,0.07983447,-0.20498861,-0.062002257,-0.008990796,0.1829578,0.0024465492,-0.00039868886,-0.07987872,-0.13874003,-0.15824696,0.03460139,-0.21950774,0.1418067,0.11833359,-0.22217102,0.15776567,-0.11879924,-0.065102056,-0.10189054,-0.029908027,0.1074121,-0.18425827,-0.19556057,0.06260556,0.09304759,0.04077432,0.1311305,-0.21053909,-0.18006262,-0.041458145,-0.15447909,0.050442457,-0.043798156,-0.121136665,0.12593628,-0.04448794,-0.16762537,-0.1663072,0.13647127,-0.20156613,-0.11479043},
{0.041987665,-0.18916078,-0.029405817,0.10413288,-0.036949858,-0.05755268,0.13045184,-0.026291015,-0.050391335,0.030702006,-0.19192797,-0.043722365,0.005988465,0.043704115,0.18720423,0.1928774,-0.15180428,0.06515119,-0.21092162,-0.1036317,-0.2204098,-0.030715201,-0.20607756,0.05104947,-0.011708805,-0.1410344,0.15806161,-0.14559461,-0.0283877,-0.03051554,0.08389181,0.15194085,-0.11866231,0.05878898,0.13451935,0.034129687,0.11523637,-0.029529184,0.12733452,0.15204081,0.096943796,-0.016571267,-0.0052636103,-0.09591062,0.15381639,0.08605401,0.039669428,-0.17843309,-0.21044599,-0.09454337,-0.14799654,-0.16433564,-0.05636845,-0.17423508,0.07637364,-0.052569047,0.19268776,-0.09651465,-0.20740958,-0.1773798,0.09386373,-0.1986952,0.04073414,0.08554115},
{-0.18547523,0.10611892,-0.00030391425,0.10979846,-0.032459438,0.14615852,-0.21635784,0.10428607,0.11360184,0.14481863,-0.17816406,0.009849408,0.055851217,-0.19427794,-0.040620547,-0.04206472,-0.18300721,-0.16719829,0.01043669,-0.008895921,-0.16406474,0.06262605,0.13859442,-0.10921574,-0.12827033,0.055490017,-0.12848008,-0.013262222,0.11097002,0.060636014,-0.014396677,-0.18535347,0.13028142,0.0043669776,0.0063023646,-0.025134975,-0.17873773,0.13778257,0.092890665,0.15685458,-0.020063689,0.15699422,0.067355774,-0.027642475,0.051258706,-0.04628191,-0.119756706,-0.02973983,-0.015479463,-0.008618318,-0.08945722,-0.09505143,-0.101132676,0.03666094,-0.23490956,-0.1793933,-0.15126991,0.09667704,-0.031179458,0.14523427,-0.14023839,0.07036779,0.13481735,-0.110954694},
{-0.008263359,-0.124869496,-0.19126529,-0.08922645,0.06546692,0.13724074,-0.011166749,0.12206991,0.14068961,-0.18489192,-0.1316531,-0.2328317,-0.11227466,0.1226665,0.016638342,-0.17350876,0.039133303,0.084786974,-0.0021727206,0.070848495,-0.12148027,-0.10355755,0.09460294,0.18923464,-0.0134975985,-0.1273368,0.1338938,0.0066340943,-0.08292294,-0.2040054,-0.1387938,-0.038722202,0.09814558,-0.058750324,0.17921107,-0.07464444,0.020105466,0.10373864,0.12466973,-0.04031225,0.09600342,-0.10342173,-0.14785026,-0.21625008,-0.020091826,-0.11281151,0.17194478,0.03368969,-0.19372027,0.080820486,0.041182857,-0.15032722,0.06814048,0.05495286,0.05048384,0.14479198,-0.049218714,-0.07042075,0.12802847,0.076314524,-0.17044109,-0.14119099,0.07426089,-0.0028029769},
};
